// Auto-generated by generate_c_from_tf.py
#ifndef MODEL_INFERENCE_H_
#define MODEL_INFERENCE_H_

#include "tf_ops.h"

#define MODEL_INPUT_H 1
#define MODEL_INPUT_W 1
#define MODEL_INPUT_C 6
#define MODEL_INPUT_SIZE (MODEL_INPUT_H*MODEL_INPUT_W*MODEL_INPUT_C)

static const float dense_1_W[384] = {
  -0.13453162,  0.05718056,  0.10877478,  -0.26772103,  0.11153328,  0.07989126,  -0.10175093,  0.13066083,
  -0.01373839,  -0.10253640,  0.01881241,  -0.27467588,  0.04838650,  0.15480627,  -0.33452570,  -0.17517711,
  0.03059157,  -0.05558703,  0.21498303,  -0.14824148,  0.09502676,  0.10419674,  0.15038697,  -0.09303655,
  -0.02137277,  0.10559680,  0.04060893,  -0.23430842,  -0.23019947,  0.01897773,  -0.02791214,  0.07004165,
  -0.31577271,  -0.07816125,  -0.11859322,  0.14281900,  -0.01260141,  -0.18377125,  0.11600536,  -0.13448520,
  -0.06900461,  -0.07493870,  -0.14618552,  0.10598755,  -0.13113832,  -0.01865445,  -0.15884176,  -0.30263588,
  0.03744626,  0.03491895,  0.06331628,  0.24414417,  0.13737176,  0.08157177,  -0.17208183,  -0.15319456,
  -0.09636524,  -0.15923315,  -0.09301227,  0.10528401,  -0.23645304,  0.01374088,  -0.10013160,  0.16516171,
  -0.93888706,  -0.39742252,  -0.94802469,  0.22380984,  -0.84483486,  -0.03092763,  -0.78494793,  -0.46438751,
  -0.17445022,  -0.11471946,  -0.92103094,  -0.24691296,  0.46068332,  -0.25011447,  0.02850649,  -0.30778408,
  -0.49291453,  0.47059211,  -0.32598600,  0.25907964,  -0.16565219,  0.12940343,  0.11196326,  0.41089964,
  -0.04834676,  0.09075342,  -0.76372284,  -0.08319643,  -0.09607138,  0.55706853,  0.17886388,  0.52006084,
  0.16923444,  0.25474942,  -0.16760588,  -0.08228632,  -0.72577822,  0.17487867,  0.43112174,  -0.95142597,
  -0.19589391,  0.10837857,  -0.26178703,  -0.64466715,  -0.15506133,  0.46527314,  0.36636087,  0.19737832,
  0.60788435,  -0.13270560,  0.29250327,  0.13132334,  0.51698208,  -0.03174165,  0.11043445,  -0.06983196,
  0.20433503,  0.34572622,  0.41095185,  -0.82390559,  0.29048288,  0.13307679,  0.43663663,  -0.24997143,
  0.27801648,  -0.86040360,  -0.76969880,  -0.29111734,  0.11284897,  0.46572846,  0.37796426,  0.22375248,
  0.15263438,  0.02225211,  0.65920711,  -0.03045133,  -0.03561080,  -0.74538839,  0.26711068,  -0.43323171,
  -0.31807205,  -0.41081771,  -0.91515237,  0.10859739,  0.47261357,  0.08475333,  -0.99379092,  0.23300898,
  -0.27336219,  -0.35607779,  -0.77645826,  -0.04338986,  0.12627289,  0.14266346,  0.55491924,  0.28579503,
  0.22526349,  -0.03296581,  -0.18529262,  -0.52480787,  0.56667250,  0.31394613,  0.03368023,  0.31831953,
  -0.09215571,  0.93555707,  -0.26354003,  -0.12020550,  0.11025329,  -0.27449012,  -0.09517941,  0.31717807,
  0.29532281,  0.57530344,  -0.37326536,  -0.75311947,  0.38223115,  0.49132711,  -0.19173473,  -0.13935812,
  -0.15233038,  -0.11113496,  -0.60033196,  -0.05249946,  0.02897185,  -0.10728350,  -0.45780098,  -0.00575879,
  0.07955734,  -0.42012620,  -0.39166015,  -0.13539389,  -0.37038559,  -0.33224976,  -0.04549323,  -0.15561505,
  0.13319665,  0.26676828,  -0.17441441,  0.05481508,  0.09529199,  -0.46437854,  0.06394035,  0.43578342,
  -0.37218702,  0.25471893,  -0.42368427,  0.11079010,  -0.17146307,  0.39159828,  -0.05664603,  0.31420210,
  0.13368973,  0.07382686,  -0.22222145,  0.19797456,  0.15466323,  0.23888378,  -0.23600300,  0.18827620,
  0.13370097,  0.44770992,  0.25162184,  -0.95632577,  -0.01504029,  -0.08791932,  0.30723181,  -0.14381275,
  -0.00101060,  -0.20358260,  0.00626466,  0.00617236,  -0.20367819,  0.28391814,  0.45520717,  -0.05221135,
  0.21534277,  -0.01451204,  -0.30933559,  -0.15587725,  0.03026884,  0.04208892,  0.05122289,  -0.11367955,
  -0.27815270,  -0.04888165,  -0.40713841,  0.45611960,  -0.24731016,  0.11765117,  0.21108896,  0.53733903,
  0.32911015,  -0.29934901,  -0.40729383,  -0.01951337,  -0.39749607,  -0.29142779,  0.28466991,  0.03238532,
  -0.15079090,  0.01135418,  0.14555717,  0.13506210,  -0.13547878,  -0.11192876,  0.13948613,  0.08505365,
  -0.19898011,  -0.01794188,  -0.32844087,  -0.00895658,  -0.12184846,  0.10085879,  -0.24577512,  0.26619267,
  -0.10049786,  0.19324751,  -0.27931631,  -0.06250076,  -0.00856099,  -0.19708301,  0.16106606,  -0.02746681,
  -0.08042467,  0.21451409,  -0.26645857,  -0.01074502,  0.07868624,  -0.34375179,  0.00039237,  0.31790921,
  -0.21904871,  0.07655051,  -0.12300804,  -0.25337335,  0.09927791,  0.11547071,  0.09934776,  0.09312603,
  0.04804539,  -0.01404087,  -0.07347720,  -0.39771992,  -0.20419866,  0.09020860,  -0.37370285,  -0.04939224,
  0.08482155,  -0.46008435,  0.07198204,  0.04480186,  0.10944799,  -0.38128126,  0.03789995,  -0.21202128,
  -1.00746727,  0.08243718,  0.04645748,  0.11122257,  -0.98492259,  -1.26350486,  -0.99758261,  -1.09403419,
  -0.26913947,  -0.01151210,  -1.54696226,  -0.12267689,  0.90899360,  0.71194243,  0.23668587,  0.47708157,
  -0.14629498,  1.06650174,  -0.38867986,  0.01200590,  -1.63365376,  0.12625127,  -0.44776505,  0.51503551,
  -0.11432560,  0.28077447,  0.07920641,  -0.02396169,  -0.04345812,  -0.06683000,  0.51984483,  0.51399606,
  0.20260675,  0.61529082,  -0.07884331,  0.20496990,  -2.58018303,  0.16229938,  0.14741892,  -1.56872153,
  -0.17505227,  -0.08500693,  -0.15253951,  -0.89792657,  0.43070704,  0.90601534,  0.39858326,  0.36017039,
  0.65386504,  -2.56190681,  0.67012590,  0.21714422,  -0.02542796,  0.23057708,  0.38020658,  0.33763853,
  -0.23858847,  0.29956853,  1.04709041,  -2.20022631,  0.19658186,  0.07061647,  0.90572691,  -1.31634283
};

static const float dense_1_b[64] = {
  -0.02873982,  0.03607044,  0.02595082,  0.00000000,  0.01366970,  0.03591808,  -0.04334215,  -0.13571388,
  0.00000000,  -0.02692356,  -0.06747980,  0.00000000,  0.02114148,  -0.10462227,  -0.08778740,  0.11338404,
  0.03115071,  0.06345552,  -0.05901877,  -0.08438418,  -0.03231924,  -0.13473773,  -0.01914768,  -0.02817817,
  0.00000000,  -0.15378857,  0.05049664,  0.00000000,  0.00000000,  0.05688281,  -0.03528211,  -0.05123618,
  -0.02715334,  -0.00082942,  0.00000000,  -0.11885912,  -0.01306167,  0.00160913,  -0.11273973,  -0.00545906,
  0.00000000,  0.03980955,  0.00000000,  0.01254252,  0.06350011,  -0.02652436,  0.08524904,  0.02881925,
  -0.06681269,  -0.02048770,  -0.04061287,  -0.05185969,  -0.05486045,  -0.13510779,  0.18042690,  0.10085815,
  0.00000000,  0.16748479,  0.06978785,  -0.11433270,  -0.10599630,  0.13368630,  0.08767895,  -0.05606635
};

static const float dense_2_W[2048] = {
  -0.31740224,  -0.41232878,  0.31754678,  -0.33316788,  -0.50109535,  -0.27880129,  -0.00542123,  0.42351508,
  -0.13337517,  0.04954899,  0.19618952,  -0.46627101,  0.17561626,  0.00416982,  0.00391155,  0.13996471,
  -0.45823810,  -0.16167587,  0.10320914,  -0.21041553,  0.02508744,  -0.19516188,  -0.55303979,  -0.29003388,
  -0.30257627,  -0.14060736,  -0.18816084,  -0.03560998,  -0.02595472,  -0.09277235,  0.01069662,  -0.35694185,
  -0.26294747,  -0.48813647,  0.55573577,  -0.44339609,  -0.44982067,  -0.36199412,  0.44818109,  0.10006917,
  -0.29166976,  0.10157617,  0.47748140,  -0.09608957,  0.17622417,  0.13732615,  0.20842671,  -0.02148324,
  -0.51268166,  0.25538653,  -0.11089892,  -0.01618579,  0.27477524,  -0.09247904,  -0.43033192,  0.16275822,
  -0.08548008,  -0.11917838,  -0.10871808,  0.01294507,  -0.15236348,  0.19440390,  0.46385670,  -0.25656554,
  -0.44961262,  -0.65490305,  0.20284611,  -0.47705951,  -0.38523170,  -0.01217749,  0.24948621,  0.33602831,
  -0.04289738,  -0.22014655,  0.39756396,  -0.33142188,  0.38161758,  -0.28154889,  0.25005743,  -0.06840129,
  -0.51819897,  0.68205100,  -0.01633785,  -0.34873873,  0.41426030,  -0.03401149,  -0.16721913,  0.17085069,
  -0.21027008,  0.00851813,  -0.00567182,  0.29631710,  0.19315319,  0.36658671,  0.24503222,  -0.55516970,
  -0.01805544,  0.12313104,  -0.16065478,  -0.04550475,  -0.01098150,  -0.01910412,  0.23240781,  -0.22631967,
  -0.21726316,  0.16594446,  -0.13786954,  -0.18107831,  0.08037883,  -0.03624266,  0.08833385,  -0.22894150,
  0.24867207,  0.04184484,  -0.24610519,  0.14552850,  0.22915220,  0.06285042,  -0.18484741,  0.17323327,
  -0.05788642,  0.10220999,  -0.23932576,  0.06824672,  0.16811240,  -0.18128818,  -0.22751206,  0.15103239,
  -0.35223448,  -0.28777224,  0.58361048,  -0.51049018,  -0.25712165,  -0.15923133,  0.37881708,  0.40355739,
  -0.20062768,  -0.27970132,  0.39884213,  -0.42368510,  -0.32048953,  -0.11083075,  0.00895298,  0.09128689,
  -0.26521972,  0.43567204,  0.03808150,  -0.19009946,  0.43740156,  0.09304476,  -0.36604699,  0.27043846,
  -0.43475285,  -0.21999747,  0.05461873,  0.21406595,  0.01969395,  0.28489652,  0.40174299,  -0.22988774,
  -0.02390844,  0.04294711,  0.19549683,  -0.31952685,  -0.04986890,  -0.12875904,  -0.08765479,  0.09012560,
  -0.21829800,  -0.14926171,  0.26314166,  -0.29131544,  -0.10915443,  -0.06822567,  -0.02524799,  -0.25849584,
  -0.12540446,  -0.02124427,  0.00578068,  -0.31724870,  0.24257489,  0.09670369,  -0.12415645,  0.48297110,
  -0.13087079,  -0.13462104,  0.18688600,  -0.37958863,  0.14983481,  0.28477126,  0.06211051,  -0.26265526,
  -0.27186784,  -0.38174731,  0.37065852,  -0.30691499,  -0.09752243,  -0.27427351,  -0.15756315,  0.43439206,
  -0.27581635,  0.30334356,  0.27088270,  -0.69306839,  -0.25589871,  0.31612271,  -0.01199670,  0.20162719,
  -0.42652148,  0.26677817,  0.10548547,  -0.28403723,  0.05354163,  0.19129117,  -0.47602767,  0.32379460,
  -0.41859251,  0.19213101,  -0.02663534,  0.06678686,  -0.31640357,  0.31164536,  -0.16450267,  -0.27224496,
  -0.00523547,  -0.16197447,  -0.11961120,  -0.21380924,  0.22560658,  0.10142442,  0.07680047,  0.09204525,
  0.15371941,  -0.19405046,  0.12121984,  0.01085006,  0.09173138,  -0.36817056,  0.04184554,  0.19090129,
  -0.20608830,  0.17244840,  0.10159822,  -0.02674607,  0.11477468,  -0.15424410,  0.09690772,  0.06061231,
  -0.16762628,  -0.18350425,  0.10389977,  -0.31010371,  0.15514480,  -0.11965647,  0.14540309,  -0.20073718,
  0.16896170,  -0.19346088,  -0.24955750,  -0.17883730,  0.23751342,  -0.07431608,  -0.01282114,  0.17898315,
  -0.19363219,  -0.11227244,  0.19067788,  0.05425382,  -0.03591740,  0.09069842,  -0.06120312,  -0.22335488,
  -0.07831943,  -0.08711827,  -0.16768974,  -0.07238996,  0.11282957,  -0.13693088,  0.02968514,  -0.04335690,
  -0.06560218,  -0.05830771,  -0.14675385,  0.19167191,  0.02041698,  -0.06040496,  -0.03977668,  -0.14640671,
  -0.29145825,  0.16806354,  -0.06778295,  0.35814449,  0.09299066,  -0.23207480,  0.15840434,  -0.18870874,
  -0.35429555,  -0.05445224,  0.10884508,  0.13042571,  -0.06224604,  -0.09894363,  -0.15460272,  -0.01406163,
  0.35063526,  0.01089795,  0.12957929,  -0.24710019,  -0.16213736,  0.01594431,  0.14776115,  0.13004629,
  0.12580958,  0.12046757,  0.23090291,  -0.10614189,  0.19786625,  0.12386502,  0.15184973,  -0.04584365,
  -0.02323782,  -0.34681618,  -0.15120248,  -0.18668766,  -0.02346630,  -0.05524113,  -0.26517391,  0.25030872,
  0.03845740,  -0.00697149,  -0.20490633,  -0.08551621,  0.12706310,  -0.12875795,  -0.24314085,  0.43402278,
  -0.20896581,  0.36191702,  0.35693699,  -0.20637222,  0.34760988,  0.14511685,  -0.22815098,  -0.08931378,
  -0.01026968,  0.01555595,  -0.11739161,  -0.01403856,  -0.41368029,  -0.03522936,  -0.11556131,  -0.36913767,
  0.16654909,  -0.16916853,  0.15999371,  0.00941616,  0.10798323,  0.09674382,  0.11071593,  -0.18698883,
  -0.10528558,  -0.05644685,  0.05475062,  -0.24135524,  -0.03787029,  -0.03877258,  0.16057140,  -0.24936414,
  0.10787481,  0.23256570,  -0.04981959,  0.00101030,  0.09884220,  -0.20605820,  0.07413757,  0.19160670,
  0.10892338,  0.05692804,  0.14997619,  -0.20258886,  -0.19880474,  0.22000873,  0.05629051,  0.06603944,
  0.23286156,  0.16244689,  -0.17879064,  -0.00501666,  0.18565592,  0.33796710,  -0.00867185,  -0.21602213,
  0.11641584,  -0.12053116,  0.05258414,  -0.06077690,  0.16626443,  0.09659979,  0.27335468,  -0.27462408,
  -0.05649684,  0.17889227,  -0.29942903,  0.27054793,  -0.00843526,  -0.08944480,  0.01507229,  -0.18670724,
  -0.03301249,  -0.02003427,  -0.01901929,  -0.03696551,  0.18922813,  0.21453100,  0.12859455,  -0.08856462,
  0.05907862,  0.15704374,  0.14019331,  -0.06967669,  0.14936285,  0.13932753,  0.08725870,  -0.22730158,
  -0.18947050,  0.25039297,  -0.19111086,  -0.05904891,  -0.32331955,  -0.24186909,  0.09079445,  -0.08716382,
  -0.11615685,  -0.22868092,  -0.18393163,  0.01202674,  0.04003328,  0.09451318,  0.03555218,  0.12348966,
  0.26584843,  -0.15419100,  -0.26145682,  0.28996694,  0.29509655,  -0.11914874,  0.15212862,  0.25754213,
  -0.13369022,  0.15477648,  0.07813010,  -0.04999733,  -0.36777765,  0.11914986,  -0.04573955,  -0.09394449,
  0.17979373,  -0.42103598,  0.08904389,  -0.06928517,  0.46634161,  0.49063310,  0.05952763,  -0.15298091,
  0.02685622,  -0.28735733,  0.13325675,  -0.20733908,  0.21865471,  0.18178925,  0.09843633,  0.13497248,
  -0.21479830,  -0.24619789,  -0.04035020,  -0.10644969,  -0.27732506,  -0.14157879,  -0.02487357,  -0.17141572,
  0.03963158,  0.09309860,  -0.09658734,  -0.29649588,  -0.03610847,  -0.34185135,  -0.16050039,  -0.41665789,
  -0.15528488,  0.24033369,  -0.13253006,  -0.01987847,  -0.28215548,  -0.32114673,  0.36796412,  -0.33758649,
  -0.09818687,  0.13140795,  -0.11869178,  -0.12797293,  -0.51033896,  -0.18373123,  -0.46600574,  0.19452678,
  -0.15279065,  -0.00173455,  -0.00945883,  0.09846556,  0.29240224,  0.10985509,  0.04083931,  0.12394637,
  -0.14938231,  -0.22488841,  0.34237531,  -0.05206373,  -0.04459837,  -0.21564020,  0.36284131,  0.22194210,
  -0.28148708,  0.11034397,  0.43509185,  0.10944359,  0.21649352,  -0.07880091,  0.34760487,  -0.49832892,
  -0.06524342,  0.28175744,  0.06780294,  0.01300349,  0.33499792,  -0.00808487,  -0.03602206,  0.06992920,
  -0.13458939,  0.13028014,  0.07940318,  0.20125513,  0.03388765,  0.16514400,  0.27548772,  -0.39474079,
  0.18923190,  0.06550632,  -0.45288512,  0.22441506,  0.00601743,  0.30174214,  -0.21945235,  -0.56906658,
  0.27683118,  0.05451174,  -0.06746376,  0.08942015,  0.21691847,  0.02398963,  0.25162059,  -0.17949037,
  0.10435747,  0.14260872,  -0.29615405,  0.12523171,  -0.39466903,  0.05197516,  0.21772322,  0.07385766,
  0.40063334,  -0.06793656,  -0.03494059,  0.30413145,  0.29908729,  -0.20061491,  -0.02762400,  0.15016925,
  0.04115691,  0.21670431,  -0.04851542,  -0.21978939,  0.18194045,  -0.22154786,  0.19506100,  0.12073991,
  0.04577525,  -0.08168326,  -0.00288181,  -0.22328359,  0.02593732,  -0.15351190,  -0.04954300,  -0.17070524,
  -0.06453446,  -0.10305385,  -0.27173203,  -0.21287280,  -0.16936120,  -0.22534460,  -0.05024320,  0.15707053,
  0.07721973,  0.09035534,  -0.17433250,  -0.12736982,  0.26254183,  0.22110885,  0.19945949,  0.12478420,
  -0.18969613,  -0.16362523,  0.01538035,  -0.03695796,  -0.34827629,  0.15570666,  0.12932126,  -0.14193836,
  0.36359391,  -0.41294616,  0.04480053,  -0.19395700,  0.49748990,  0.35182211,  -0.20683509,  0.30556658,
  -0.09971219,  -0.00219990,  0.38311544,  -0.39843550,  0.32724130,  0.17717874,  -0.08622292,  0.13749059,
  -0.19059888,  0.21207115,  0.04193515,  -0.14854752,  0.12042470,  0.06179517,  0.19291072,  -0.41645375,
  0.00844018,  -0.27526054,  0.03496464,  -0.24118981,  -0.11820929,  -0.38296711,  -0.00686142,  0.25825128,
  -0.37686315,  0.06663069,  -0.01029232,  -0.15490581,  -0.22398983,  -0.45149094,  -0.14064214,  0.13677654,
  -0.19316585,  -0.05276461,  -0.06207146,  -0.17780809,  0.33990648,  -0.08796795,  -0.20993137,  0.31246278,
  -0.20495327,  -0.25344315,  0.07944698,  0.12283005,  0.19918533,  0.22814997,  0.14631972,  -0.01403876,
  -0.09055768,  0.00675005,  -0.21157417,  -0.12188139,  -0.13235466,  0.04180026,  -0.07220440,  -0.01045810,
  -0.02061019,  -0.00676292,  -0.22725877,  0.08251023,  -0.32589987,  0.10548077,  -0.28613806,  -0.06144371,
  -0.18550359,  -0.07434041,  0.16796237,  0.05396652,  0.00426446,  0.04031724,  0.17085403,  0.07921026,
  -0.08784507,  0.09235346,  -0.04464199,  0.09237573,  -0.03952752,  0.06200113,  -0.00367241,  0.06021982,
  -0.07173407,  0.11707741,  0.16913052,  0.02777066,  -0.16172361,  0.04035608,  0.02138034,  0.00690494,
  -0.33074412,  0.16285551,  0.15256955,  0.09721673,  -0.15163602,  -0.09084880,  -0.16601177,  -0.22499846,
  0.17078026,  0.11229255,  0.08442585,  -0.05202676,  -0.22854917,  -0.15919822,  -0.03890925,  0.27503604,
  -0.17029335,  0.09751462,  -0.24676865,  -0.41185781,  0.32874814,  -0.07750311,  0.21815035,  0.17083479,
  -0.23534469,  -0.22776929,  -0.06527503,  -0.04480877,  0.20829460,  0.12640175,  -0.00436753,  -0.08153822,
  0.12144183,  0.21058421,  -0.34292901,  0.19371974,  -0.21695976,  -0.14151138,  0.28502584,  0.24228165,
  0.05677416,  -0.26372272,  0.23491712,  0.16890265,  0.21393748,  -0.06823652,  0.16819915,  -0.08829981,
  0.18589254,  0.16275713,  -0.22888035,  0.03104122,  -0.00965802,  -0.03177176,  -0.19945739,  -0.11811529,
  -0.18854553,  -0.18580961,  -0.00979537,  -0.16933435,  0.06242430,  0.07664841,  -0.20715469,  -0.07670039,
  -0.18230242,  -0.23162651,  0.09534365,  0.20833403,  -0.17491728,  0.04174441,  -0.12215286,  0.04508418,
  0.01145679,  0.17823666,  -0.00953251,  -0.11415637,  -0.15784609,  0.08658540,  -0.02175385,  -0.16176498,
  -0.04119664,  0.12580490,  -0.07318246,  0.08276820,  0.04211593,  -0.08126366,  0.17241424,  0.01874459,
  0.01360341,  0.12737975,  -0.03603510,  0.21136577,  -0.11492332,  -0.15838450,  0.01197565,  -0.06760715,
  -0.02201037,  0.03347556,  -0.23469080,  0.02339105,  -0.15564793,  0.05347858,  -0.25794113,  0.16933942,
  0.04239300,  -0.12775998,  0.09280404,  -0.16287506,  -0.01406598,  -0.13640676,  0.06290787,  0.08991846,
  -0.05691071,  -0.08411299,  -0.01586861,  -0.08969153,  0.18702589,  0.12282646,  -0.05786920,  0.23303001,
  -0.18190213,  -0.18579730,  0.35891533,  -0.28616425,  -0.27073839,  -0.32449156,  0.54041696,  0.13157724,
  0.14269644,  -0.33557418,  0.19528846,  -0.22831792,  0.11759152,  0.22860473,  0.43590316,  0.06077280,
  -0.10745881,  0.26635414,  0.07369573,  -0.30637702,  0.23774427,  -0.18262643,  -0.26112831,  0.01028563,
  -0.39823061,  0.14090012,  0.10477284,  0.16972715,  0.14071561,  0.03647238,  -0.03807078,  -0.09704012,
  -0.08788979,  -0.05548483,  0.15939349,  -0.06875688,  -0.22944903,  -0.21803451,  0.21425295,  -0.11559391,
  -0.19734073,  0.13505453,  0.16584200,  -0.14884412,  -0.06678718,  -0.04271936,  0.24811363,  -0.06338972,
  0.03609544,  0.19132680,  -0.04077250,  0.01752985,  0.18309367,  0.06542701,  0.18746847,  0.18253773,
  0.00356251,  -0.08351743,  0.19954169,  0.01472217,  0.15988958,  0.23969078,  -0.14424944,  0.12357187,
  0.22854584,  -0.22763532,  0.01307881,  -0.08028740,  0.05376792,  0.18282992,  0.14045274,  0.04247624,
  0.04814363,  -0.09915453,  0.10144180,  0.19380659,  -0.08501673,  -0.17271703,  0.13326764,  -0.01086551,
  0.11533314,  0.02618450,  -0.05287939,  -0.22280270,  -0.22473872,  -0.10427058,  0.00217372,  -0.24725592,
  -0.08977497,  0.08665228,  0.08563572,  0.14493406,  0.02371365,  0.18896794,  -0.20547116,  0.14212310,
  -0.21950357,  -0.52264345,  -0.24729782,  -0.18514726,  -0.24726674,  0.09912466,  0.01473448,  0.01968973,
  0.07340964,  -0.05605169,  0.15302487,  -0.04142403,  0.16190816,  0.38934192,  -0.11186729,  0.17389111,
  -0.01048138,  0.50890553,  0.29659462,  -0.50810272,  -0.03352541,  -0.14175294,  0.29490864,  -0.40669706,
  -0.30185497,  -0.19736098,  -0.15890302,  -0.07485806,  -0.33993742,  -0.15626502,  -0.28223714,  -0.15884255,
  0.07630600,  -0.05443585,  0.11466446,  -0.07325066,  0.21142147,  0.10565113,  -0.28596473,  -0.17384784,
  -0.04519971,  -0.06517983,  -0.32576221,  0.15218237,  -0.07315448,  -0.15296595,  0.07310022,  0.20826505,
  0.12354086,  -0.04076321,  0.31081235,  -0.03038660,  0.16480429,  -0.14578375,  0.19710366,  -0.01099480,
  0.13917406,  -0.21554230,  -0.12214876,  -0.07151671,  -0.05375898,  -0.17492588,  -0.08338086,  0.08000086,
  0.05605790,  -0.19042352,  -0.00484045,  0.18895470,  0.04828879,  -0.22349469,  -0.05229607,  -0.15032476,
  0.05826236,  -0.07338350,  -0.17966509,  0.03155676,  -0.16478258,  0.08961347,  -0.12706913,  -0.16722715,
  0.20954667,  -0.06263940,  0.24938254,  -0.12471189,  0.07685896,  -0.14874028,  0.07469339,  -0.02941139,
  0.20306654,  0.10241908,  -0.17860575,  -0.12946093,  -0.13716190,  0.02456916,  0.12984115,  -0.02349464,
  0.00840853,  -0.50398219,  0.13636082,  0.03722574,  -0.33291560,  0.17179887,  0.12616938,  0.23408312,
  0.33188477,  -0.28137273,  -0.12327349,  0.04639871,  0.22666237,  0.72507626,  0.05655487,  0.45341831,
  -0.23873672,  0.07794100,  0.17841855,  -0.24750873,  0.42627385,  -0.18274578,  -0.31787732,  0.19850436,
  -0.43716756,  0.17294355,  -0.24379435,  -0.31567097,  -0.41210139,  -0.12169453,  -0.10795849,  -0.05831021,
  0.06960329,  0.15508772,  -0.18819559,  0.21040523,  0.09557874,  -0.11293934,  -0.19093287,  0.02938452,
  0.08911907,  0.18540883,  -0.26612586,  -0.02130021,  0.10071117,  0.21959960,  0.06543977,  0.05855969,
  0.15383020,  -0.14043701,  -0.08366015,  -0.24334008,  0.13084827,  -0.24420691,  -0.09822689,  -0.09570578,
  -0.16562217,  -0.03938869,  -0.07810075,  0.12598975,  0.10762919,  -0.21790414,  -0.22559115,  -0.05170583,
  0.09777260,  0.05320626,  -0.09350383,  0.03280920,  0.02652657,  0.24621177,  -0.00010931,  0.13988519,
  -0.06536794,  0.11485112,  -0.01548260,  0.19579989,  -0.24300176,  -0.23563886,  0.01910436,  -0.13641274,
  -0.16645402,  0.17019248,  -0.06048638,  0.23983729,  -0.05084759,  0.17063671,  0.07009906,  -0.22630793,
  0.04913133,  0.01428568,  -0.08451807,  -0.24163109,  -0.09195006,  0.16548502,  -0.02677345,  -0.01317990,
  -0.00765953,  0.10747123,  0.22347037,  0.19397534,  0.25989845,  -0.06828458,  0.18477806,  0.22321385,
  -0.12892716,  -0.19148609,  0.03982648,  0.15274195,  -0.34504518,  -0.52151304,  0.01909980,  0.11808352,
  0.10566342,  -0.19952357,  0.01992325,  0.21096042,  -0.04998932,  -0.13792422,  -0.10486409,  0.18744051,
  -0.14012106,  -0.10816234,  0.03592046,  0.31654853,  -0.12236314,  0.07119843,  -0.12941602,  0.21979094,
  -0.35873467,  -0.91438872,  0.68467647,  -0.54441524,  -0.33544078,  -0.21042432,  0.12728477,  0.43824270,
  -0.14480785,  -0.27256352,  0.15738435,  -0.80875009,  0.30241552,  -0.19071916,  -0.09164003,  0.78956401,
  -0.74214745,  0.58423436,  0.76799905,  -0.69895488,  0.55390340,  -0.07527781,  -0.67412090,  -0.25742504,
  -0.46235269,  -0.06538951,  -0.14128533,  -0.07706708,  -0.51600921,  0.47690332,  0.10009792,  -0.84085256,
  -0.05598378,  -0.20028242,  0.11459874,  -0.06831295,  -0.30481225,  -0.20723121,  -0.23640442,  -0.06266226,
  0.17622495,  -0.14192675,  -0.02654302,  -0.26714596,  0.37110633,  0.12819998,  0.14550941,  0.07555835,
  -0.10128001,  -0.12541613,  -0.00284187,  -0.00999611,  0.25109088,  0.15530334,  -0.07235652,  -0.04045111,
  0.16496006,  -0.03259129,  0.17262474,  -0.12061410,  -0.38133201,  0.24635494,  0.01087428,  -0.34955317,
  0.13467968,  -0.14374425,  -0.13506958,  0.19786331,  -0.21403813,  0.05956721,  -0.22621472,  0.13152966,
  -0.09082308,  0.02420561,  0.06199116,  -0.01124132,  0.05935715,  0.14437029,  0.02758512,  0.22387511,
  0.21060532,  -0.08198008,  0.04459185,  -0.17414209,  -0.13658480,  0.02437814,  0.04040256,  0.25888652,
  0.00463947,  -0.21798263,  -0.15793635,  -0.08350080,  0.10103860,  0.10765493,  0.05706212,  0.09793476,
  -0.19813204,  -0.60957277,  0.37359023,  -0.08249852,  -0.32586667,  -0.24543726,  0.19106039,  0.15762201,
  -0.25304598,  0.19440013,  0.02133920,  -0.34674835,  0.04261727,  0.14265966,  -0.17598817,  0.14803159,
  -0.30713719,  0.21719706,  0.23402975,  -0.04803000,  0.17433563,  0.22632623,  -0.40688208,  -0.20675205,
  -0.30798542,  0.05665809,  -0.24660182,  0.01127957,  -0.60122418,  -0.07657566,  -0.13579011,  -0.45082176,
  -0.01879036,  -0.07641703,  0.22974670,  -0.13364798,  -0.05163145,  0.22336555,  0.23993677,  0.10134643,
  0.09059638,  0.08801776,  0.19820839,  0.08170778,  0.02580607,  -0.21819735,  -0.05153292,  -0.06934798,
  0.08890110,  -0.07729226,  -0.23192281,  0.15938723,  -0.00473660,  0.15312058,  -0.23744637,  0.06730902,
  -0.13514525,  0.18039793,  -0.09525907,  -0.19658399,  0.12086260,  -0.18624699,  -0.17013860,  -0.06455964,
  0.18582746,  -0.47434378,  0.12841693,  -0.02283563,  -0.24386410,  0.19661891,  -0.15275528,  0.15343848,
  -0.01543840,  -0.24923658,  0.21859616,  0.23054895,  0.03202759,  0.32058272,  0.16285355,  0.23590954,
  0.14389296,  0.05226645,  0.42342249,  0.09635313,  0.48897064,  -0.15403622,  0.10009931,  -0.18288584,
  0.09000320,  -0.09288132,  0.14734982,  -0.10448268,  -0.59694916,  0.28601718,  -0.00821092,  -0.46614385,
  0.20223832,  0.13113338,  -0.14835280,  0.24088889,  0.07146251,  -0.02664602,  -0.06575644,  0.05293167,
  0.06490123,  -0.04153305,  0.05681562,  -0.11058491,  0.22206932,  -0.23407233,  0.23099720,  0.10269594,
  -0.08005542,  -0.17352039,  0.00270349,  0.13118041,  -0.07622063,  -0.17948747,  0.24159056,  -0.16502964,
  -0.13615865,  -0.18020749,  0.15187466,  -0.24227893,  -0.07430363,  0.09170336,  -0.20548105,  0.03088361,
  -0.02585196,  -0.11391300,  0.13015893,  -0.20119981,  0.02672874,  -0.23466150,  0.27047408,  0.16275394,
  -0.40231064,  0.00754732,  0.13407473,  0.11712796,  -0.23348860,  -0.24850045,  0.13755071,  -0.27173018,
  0.02990830,  -0.10753667,  0.00247541,  -0.11486163,  0.02778364,  -0.02345505,  -0.10411523,  0.40520224,
  -0.03465093,  0.06744058,  0.00228350,  -0.31060934,  0.14102809,  0.22605242,  0.14072439,  0.05516179,
  -0.25349826,  0.09096710,  -0.07386595,  -0.36640015,  -0.13566372,  0.00293146,  -0.00788257,  0.25680175,
  -0.35608044,  0.07230031,  -0.19376281,  -0.05056984,  -0.22640204,  -0.18795466,  0.34004027,  -0.09810714,
  -0.22028968,  0.07765276,  -0.16225526,  -0.13384229,  -0.21531080,  -0.17548171,  -0.07641619,  0.15607338,
  -0.01580379,  -0.22575024,  0.02899768,  0.37918383,  0.19351342,  -0.16180660,  0.20567761,  -0.02923668,
  0.22196454,  -0.04441300,  -0.44591257,  0.16107035,  0.33363089,  0.05380561,  -0.32554471,  -0.39258200,
  0.17905614,  0.30097830,  -0.32844511,  0.09846849,  0.17625180,  -0.08755379,  0.21448806,  0.15641896,
  -0.12322562,  0.05629451,  -0.17798753,  -0.12261175,  -0.00053676,  0.03398050,  0.07625011,  -0.35359740,
  0.21838005,  0.02175502,  0.17245245,  0.19601689,  -0.00348012,  -0.00540088,  -0.38869533,  -0.01517216,
  -0.17922568,  -0.26378044,  -0.02537039,  -0.33224407,  -0.01044213,  -0.43975362,  -0.12803404,  -0.28204381,
  -0.29857418,  0.32764989,  -0.14617485,  -0.33078063,  -0.10888819,  -0.19538313,  -0.10663884,  0.09696058,
  -0.20494051,  -0.21376659,  -0.16893676,  -0.50488085,  0.08960665,  0.13793206,  -0.14335433,  0.17141886,
  -0.51688957,  0.01123698,  -0.12167701,  0.12450917,  0.06375179,  0.04028059,  -0.16849008,  -0.35040930,
  0.00275274,  -0.29535937,  0.06272312,  0.03591803,  -0.08488597,  0.10374256,  -0.05736718,  -0.02454618,
  0.06472967,  0.04235438,  -0.16687241,  0.06637473,  -0.08291178,  0.29712325,  -0.02020234,  -0.19534223,
  -0.12928982,  -0.12851217,  -0.01524973,  -0.06678131,  0.09469815,  -0.00027895,  -0.34908432,  0.18857610,
  0.02051118,  -0.10395169,  -0.01318261,  -0.00417256,  -0.17344537,  -0.25159973,  -0.28074887,  -0.07864137,
  0.11771657,  -0.12783821,  -0.19952486,  0.07804310,  0.16924046,  0.13631935,  0.08986858,  -0.08766109,
  0.15662365,  -0.07907978,  -0.21251266,  0.18694381,  -0.04080338,  -0.09747234,  -0.10051177,  -0.09842310,
  -0.10259202,  -0.13446987,  -0.14808813,  0.02271806,  0.11868050,  -0.18979941,  0.01512566,  -0.05165000,
  0.11502124,  -0.23190333,  -0.14685541,  0.19053212,  -0.23913637,  -0.23984218,  -0.18583652,  -0.15999930,
  -0.22319953,  -0.52815294,  0.46456289,  -0.56123412,  -0.30975220,  -0.57651854,  -0.02355607,  0.40241110,
  -0.30153751,  -0.33013335,  0.20739970,  -0.22763509,  -0.21363054,  -0.43969578,  -0.08701608,  0.15084845,
  -0.14106748,  0.24764308,  0.27660540,  -0.68487793,  0.27844292,  -0.07759809,  -0.47439420,  0.19789574,
  -0.20071049,  -0.18259549,  -0.24744296,  0.04251928,  -0.17037968,  0.01317617,  0.28967991,  -0.52560502,
  0.08366490,  0.11761036,  -0.15552922,  0.20547685,  0.27773580,  0.14385362,  0.14058451,  0.06609607,
  -0.02866876,  0.32606021,  0.21896783,  -0.15225244,  0.16468589,  -0.06758338,  0.22575355,  -0.26892963,
  0.20049112,  0.16594777,  -0.12377486,  0.16456583,  -0.24031748,  0.00228159,  -0.20410557,  0.14990045,
  0.02581197,  -0.18019280,  0.14605625,  0.21961631,  0.04859211,  0.06759568,  0.13809632,  0.13274306,
  0.05741818,  0.20150831,  0.21166687,  0.22616400,  -0.22014801,  -0.24593522,  0.26666898,  0.09529023,
  -0.03198292,  0.05285069,  0.10585051,  0.18371700,  -0.05073611,  0.06973276,  -0.16101700,  -0.57713705,
  -0.04823287,  0.11036310,  -0.33148295,  -0.03566067,  -0.18667784,  -0.07923500,  -0.12478793,  0.22105429,
  0.18396375,  0.00657209,  -0.07652940,  0.11228170,  0.15318543,  0.18887387,  -0.20475534,  -0.02403373,
  -0.16681857,  -0.16890539,  0.05363149,  0.13662234,  0.08410346,  0.20001966,  -0.17973910,  0.20386012,
  0.08267861,  -0.24111189,  -0.02249841,  0.01838298,  0.15313423,  0.34557381,  -0.26348031,  -0.13903578,
  0.18750603,  0.35159919,  -0.10784645,  0.11770905,  0.11848972,  -0.03197327,  0.20120899,  0.12115294,
  -0.12405281,  -0.07443433,  0.01860860,  -0.35570657,  -0.15234020,  0.13005231,  0.15469882,  -0.10274655,
  0.10590041,  0.13549733,  0.15611318,  0.06660376,  -0.14318207,  0.13999970,  -0.10070529,  0.04343121,
  0.07634420,  0.15371287,  0.12242996,  -0.07421431,  -0.23663515,  -0.04251332,  -0.30615583,  0.25504440,
  0.16804042,  -0.15045452,  0.05114105,  -0.02913975,  0.07047112,  -0.28126252,  -0.06260428,  -0.16834286,
  -0.02884155,  0.01193753,  -0.04138863,  -0.21340987,  0.02976482,  -0.00978701,  0.06041531,  0.16210221,
  -0.43032449,  -0.35654488,  0.36304513,  -0.13095011,  -0.24089298,  -0.03370252,  0.04010988,  0.07181191,
  -0.16095276,  -0.38832140,  0.29571682,  -0.14540832,  0.20029642,  0.41740125,  0.35065830,  -0.26835495,
  -0.14834665,  0.21194786,  -0.08730607,  -0.48632726,  -0.01132154,  0.19350162,  -0.20698178,  -0.02372774,
  -0.11647061,  0.05967161,  0.13525456,  0.05135834,  -0.28498417,  0.17993896,  0.00309948,  -0.30294397,
  -0.04666630,  -0.14065549,  0.16945395,  -0.02584339,  -0.20360090,  0.09203614,  -0.20922139,  -0.18479618,
  -0.03437060,  -0.40529948,  0.17931804,  -0.06399392,  -0.04842152,  0.36384550,  0.15241431,  -0.09530434,
  -0.29107562,  -0.03684528,  0.00659437,  -0.43692735,  -0.13465969,  -0.02877870,  -0.14444785,  -0.11030634,
  -0.00790495,  0.03110978,  -0.02091095,  0.10849394,  -0.38121471,  0.08650740,  0.09399030,  -0.35961559,
  -0.21660793,  -0.16877508,  0.16505426,  0.19081938,  0.12368429,  0.12867385,  0.02087522,  0.10480219,
  -0.01949543,  0.15171742,  -0.24376422,  0.18432051,  -0.22498912,  0.18576199,  -0.14802206,  0.05662102,
  0.09435004,  0.11003995,  0.01517999,  -0.01924807,  0.14368284,  0.23654974,  0.06317562,  -0.23716921,
  -0.00161207,  0.15105444,  -0.10685688,  0.04553634,  0.12014121,  -0.08667475,  0.22410935,  -0.03090745,
  -0.40714052,  -0.39265832,  0.37728718,  -0.27690759,  -0.21056548,  -0.39613727,  0.31758404,  0.01625181,
  -0.09958933,  -0.13593814,  -0.05860745,  -0.07801855,  0.45300779,  0.29831338,  0.14577584,  0.03509136,
  -0.34842300,  0.17080210,  0.08141728,  -0.26995596,  -0.16979919,  0.06779153,  -0.31021699,  -0.14565594,
  -0.07094987,  0.23884371,  -0.06670810,  0.14610279,  -0.46410903,  0.12989140,  -0.09377706,  -0.05860894,
  0.11120933,  0.19579279,  0.03908725,  0.28311193,  -0.11082713,  0.01091830,  -0.42323941,  -0.44041103,
  0.04584203,  0.15790768,  -0.31573150,  0.33052897,  0.10423739,  0.11611784,  0.07373998,  -0.06488007,
  0.42003196,  0.10495710,  -0.38148892,  0.29752547,  -0.36787227,  0.17493528,  -0.06694141,  0.00770417,
  0.23512118,  0.00326469,  -0.16553245,  0.35930058,  0.06439959,  -0.13385352,  0.04266316,  0.01349886,
  0.03896019,  0.03453460,  0.01159471,  -0.25543347,  -0.28712660,  -0.31629297,  0.02969350,  -0.15002650,
  -0.09682310,  -0.10622137,  0.22764818,  -0.36920536,  -0.08331481,  -0.38039637,  -0.19501887,  0.10737976,
  -0.25328282,  0.37080958,  0.21218036,  -0.34828037,  -0.11351687,  -0.19936615,  -0.36628011,  0.10321020,
  -0.22726761,  -0.21543685,  -0.14783815,  0.14316580,  -0.12357783,  -0.14217879,  -0.00646324,  -0.01957603,
  0.14361826,  -0.00105755,  0.14745559,  0.12721357,  0.05517045,  -0.06587585,  0.18136863,  -0.14121456,
  -0.19273478,  -0.04139433,  0.13574982,  0.02246042,  0.37171289,  0.30411616,  0.12973122,  -0.12231483,
  0.03682358,  0.00759467,  0.17149143,  -0.23286575,  0.08976013,  -0.19737305,  -0.13222300,  -0.09650180,
  -0.09724755,  -0.04083755,  0.11360400,  -0.09004732,  0.02353133,  0.16096134,  0.03615087,  0.01984196,
  0.08043429,  -0.52775830,  -0.18477480,  -0.20158754,  -0.37569475,  -0.17693472,  0.06533378,  0.02602448,
  0.29151979,  -0.49122372,  0.19752099,  0.12150329,  0.57698947,  0.47735065,  0.34578231,  0.19849031,
  -0.26331696,  0.28352129,  0.09628254,  -0.31529987,  0.23230623,  -0.18574782,  0.10014760,  -0.80478561,
  0.10850883,  0.06772728,  0.08923023,  -0.01287455,  -0.58496135,  -0.23824309,  -0.16320422,  -0.04764015,
  0.05952899,  0.26175517,  -0.54653841,  -0.10027330,  0.00443932,  -0.02694650,  -0.19217971,  -0.39141738,
  0.27997604,  0.02720023,  -0.37116489,  0.02594114,  -0.06610141,  -0.02872596,  0.01971113,  -0.07154252,
  0.33430302,  -0.22567330,  -0.22662610,  0.22076564,  -0.10340038,  -0.04785305,  0.32666048,  -0.13861409,
  0.33609179,  -0.10524131,  0.11395199,  0.34215227,  -0.15419269,  -0.26856843,  -0.07905780,  0.20089546,
  -0.28502700,  -0.15873206,  0.10601305,  -0.05956291,  0.16403414,  -0.32644871,  0.13747102,  0.03290184,
  -0.09736275,  0.04891457,  0.22544654,  -0.02951776,  -0.46390218,  -0.07657360,  -0.07870776,  -0.26174501,
  0.05101105,  0.00196616,  -0.16789310,  -0.08281858,  0.15376337,  0.06136781,  0.01366163,  0.37836015,
  -0.15209389,  0.20675625,  -0.16960731,  0.23798981,  0.20040798,  0.21148339,  -0.10380956,  -0.15613727
};

static const float dense_2_b[32] = {
  0.01431180,  0.00791485,  -0.00151935,  0.01511024,  0.00611169,  0.02525002,  -0.03295560,  -0.00479136,
  0.01524911,  -0.00307163,  -0.03748147,  0.01401436,  0.02059226,  0.00891502,  -0.10879190,  0.02447894,
  0.01030180,  0.00112431,  0.02743090,  0.02910290,  0.01527654,  -0.06008676,  0.02693127,  0.02063801,
  0.01407071,  -0.03585791,  -0.02356981,  -0.05309756,  0.00791167,  0.00059295,  0.00653616,  0.00854164
};

static const float dense_3_W[1024] = {
  -0.38055345,  0.15964207,  0.04085127,  -0.26958150,  -0.18104286,  -0.29868841,  0.03805736,  0.04352704,
  0.25362468,  0.09485376,  0.00811554,  0.15749849,  0.12346116,  -0.28827426,  -0.31592020,  0.25403163,
  0.35286257,  0.08825353,  -0.03276062,  0.10282642,  0.05739266,  0.33953667,  0.16792729,  -0.11998604,
  0.20248047,  -0.04096541,  0.21556054,  -0.03275790,  -0.17865853,  0.06919718,  -0.05792339,  0.25224009,
  -0.05572677,  -0.24805906,  -0.06671580,  -0.04795444,  -0.46243328,  -0.21192737,  -0.12533903,  -0.28579876,
  0.60049790,  -0.50944859,  0.58755082,  0.45111176,  -0.35947523,  0.27235726,  -0.18723698,  -0.36454830,
  0.62793386,  -0.16708034,  -0.01166864,  -0.23717906,  -0.23940553,  0.21364930,  0.29984361,  -0.37521273,
  0.11148991,  0.08101130,  0.15850401,  0.14963746,  0.12796795,  0.16270925,  0.03212797,  0.23040208,
  0.25285685,  -0.23190975,  -0.25217581,  0.04684280,  -0.10082582,  0.29075867,  0.45656365,  0.22889149,
  -0.03111080,  -0.06407043,  -0.08683002,  -0.20565958,  -0.11202089,  0.47856197,  0.42268887,  0.02375879,
  -0.32387286,  0.43102652,  -0.10329498,  0.26758307,  0.17414154,  -0.32204717,  0.34543240,  0.13802201,
  0.35086700,  0.00995884,  -0.09116761,  -0.55713904,  0.19126910,  0.15646578,  0.23232695,  -0.19337027,
  0.03915077,  -0.26852557,  0.27447748,  -0.28856978,  0.17646825,  -0.17547925,  -0.25761428,  -0.20027256,
  0.08918212,  -0.19220300,  0.14077547,  0.17927155,  0.32112670,  -0.03011491,  -0.42821959,  -0.24293296,
  -0.13669777,  -0.16423160,  -0.28409711,  -0.30178249,  -0.26467785,  0.47975180,  0.15334933,  -0.40220657,
  -0.29318303,  -0.45216563,  0.32380462,  0.19355959,  -0.41490108,  0.20110261,  -0.05883694,  0.21013561,
  0.10829802,  0.24566238,  0.31522906,  -0.14712420,  0.26273188,  -0.00255336,  0.18772441,  -0.33157146,
  -0.00796153,  -0.30420631,  0.29730466,  0.04519769,  -0.01381059,  -0.02778547,  -0.40737686,  -0.17543146,
  0.37601280,  -0.30325878,  -0.05201738,  0.02011739,  -0.10590409,  0.29808643,  -0.18694979,  -0.30656961,
  -0.08704659,  -0.04572795,  0.28010985,  -0.13648400,  0.09291565,  -0.34356385,  0.17084165,  0.05755344,
  -0.32319582,  0.17853208,  0.08002510,  -0.22839363,  0.00406509,  -0.04819424,  -0.29943198,  -0.02359132,
  -0.06247189,  0.17217454,  0.22625838,  0.06888796,  0.11412403,  -0.27035320,  -0.40757692,  0.32926506,
  -0.02191222,  -0.27615058,  0.18140492,  -0.20618771,  -0.04619082,  0.46866614,  -0.16373840,  0.14049555,
  -0.42471507,  -0.24123663,  0.15132189,  0.01751761,  -0.33938149,  -0.30560192,  -0.20854893,  0.46725774,
  -0.13644950,  0.20119616,  0.08180419,  0.37828735,  0.17108168,  0.45919099,  0.48531774,  0.32458127,
  0.25666550,  0.13535148,  -0.15639997,  -0.12557386,  0.05644231,  -0.04801178,  0.06701028,  0.29476702,
  -0.34360728,  0.07639188,  -0.21767892,  0.16223288,  -0.10170307,  -0.16011214,  0.26975566,  0.47269616,
  -0.09515503,  -0.08255004,  -0.14371660,  -0.07640864,  0.43947449,  0.01870031,  0.14851356,  -0.28344133,
  -0.02917035,  -0.29350543,  -0.43682531,  -0.04105484,  -0.08914427,  0.38656047,  0.08852033,  0.29283807,
  -0.23697709,  -0.10948510,  -0.12874694,  0.17520177,  -0.39431462,  0.35720095,  0.36441281,  -0.13317172,
  -0.07201887,  0.49589092,  0.28122017,  -0.00302158,  0.24250114,  -0.20500726,  0.12811925,  0.37110189,
  0.00998375,  0.42595458,  -0.19967508,  -0.53377199,  0.51287955,  0.10689571,  0.25004962,  -0.25717139,
  0.24101512,  -0.18228158,  0.37577251,  0.21500015,  0.04150699,  -0.46744770,  -0.39956111,  0.07943215,
  0.09390184,  -0.07746075,  -0.01189721,  0.15542288,  0.25010780,  0.02520097,  0.07715367,  0.20625436,
  -0.16661803,  -0.19190747,  0.12704588,  0.16463153,  0.03024377,  0.34439662,  -0.14651030,  0.05363651,
  -0.13335355,  0.04872624,  0.06967716,  0.27311322,  -0.31924734,  0.00507248,  0.01775983,  0.20277683,
  0.40406978,  0.11431020,  0.07046527,  -0.41477609,  -0.37721375,  -0.48390314,  -0.35940707,  -0.32001480,
  -0.17736967,  -0.28396893,  -0.14920087,  -0.11525208,  -0.44324115,  0.21492417,  -0.13963401,  -0.42313981,
  0.03880995,  -0.09660270,  0.26515922,  0.27471265,  0.05461485,  0.07117708,  0.09085135,  -0.04351514,
  0.08309301,  -0.39655784,  0.28714943,  -0.01972980,  0.21068874,  0.10362348,  0.34620079,  0.17848983,
  0.22041477,  -0.30605575,  0.03013372,  0.50569540,  -0.28332469,  0.38613316,  0.35892567,  0.27223310,
  -0.22197771,  -0.29428706,  -0.28227338,  0.16220303,  -0.21607481,  0.03629077,  0.32827881,  -0.12806538,
  0.16415682,  -0.00178990,  0.35862052,  0.13069257,  0.15943851,  0.12794900,  0.40300339,  -0.05721444,
  0.23320279,  0.34682715,  -0.14808391,  -0.29309323,  0.17022848,  0.32791281,  -0.05829042,  -0.06345192,
  0.10930751,  -0.19297403,  0.23653017,  -0.10423221,  -0.21936794,  -0.19951838,  -0.30999827,  -0.24381922,
  0.23269354,  0.25571916,  0.22835436,  0.05295654,  0.32598779,  -0.29022893,  -0.23752101,  0.17035374,
  0.08234988,  -0.07220488,  0.16534866,  -0.12245696,  -0.03701009,  0.43312380,  0.16818698,  0.12898432,
  -0.33033684,  -0.29819337,  0.41423598,  -0.08501991,  -0.08379751,  -0.22375447,  -0.16988119,  0.44335198,
  0.12819012,  -0.35728920,  0.33719108,  -0.16219613,  0.48015499,  0.04754187,  -0.24860740,  0.12424920,
  -0.06760000,  0.54480118,  -0.02156852,  -0.22678123,  -0.00296605,  -0.29260814,  0.30971318,  0.19970430,
  -0.05052560,  -0.41341963,  -0.00068234,  0.25359008,  0.13033628,  -0.14625271,  -0.38155800,  -0.06996968,
  -0.12926309,  0.26643583,  -0.43170553,  0.07947563,  0.11981695,  -0.25584829,  -0.25583145,  0.12414709,
  -0.19297880,  -0.09593064,  0.14331686,  -0.15526558,  0.24099839,  -0.29038924,  -0.15697514,  -0.26372921,
  -0.12615210,  0.40351748,  -0.36510524,  -0.12507878,  0.16938789,  -0.17592929,  -0.03002710,  0.16974662,
  -0.40153244,  -0.11028989,  -0.13832314,  0.36949596,  -0.38485506,  0.18851119,  -0.65876454,  0.01621819,
  0.07269286,  0.12299187,  -0.36273435,  0.21195425,  0.03255054,  -0.50151181,  -0.21537301,  0.21378794,
  0.26375210,  -0.14904948,  -0.14508533,  0.03529327,  -0.46047023,  0.14760059,  0.19124837,  -0.12603556,
  -0.31518516,  0.23967871,  0.01218177,  0.09955154,  -0.38341540,  -0.04310260,  0.26427034,  -0.17380069,
  -0.28344205,  -0.16773036,  -0.04565661,  0.34888238,  -0.09465617,  -0.27731541,  -0.46513051,  0.10726761,
  -0.26039484,  0.16320771,  0.00048638,  -0.68400848,  -0.18458983,  0.14631639,  -0.09309670,  -0.24702069,
  0.25349244,  -0.10703568,  -0.19584554,  -0.03400821,  0.34217760,  0.02858553,  0.33943304,  0.06972781,
  -0.10428631,  0.38780245,  -0.39557466,  0.11909240,  -0.14456922,  -0.42392555,  -0.19882549,  0.02568793,
  -0.12421549,  -0.29693833,  -0.15148874,  0.39735743,  0.08637729,  0.12775657,  -0.80417174,  0.10855527,
  0.14887770,  0.30672774,  -0.28242037,  0.00393434,  -0.01634151,  -0.50698072,  -0.57441032,  -0.31110349,
  -0.12322978,  -0.15779203,  0.15527710,  -0.35887304,  0.20966217,  -0.26101068,  -0.04968870,  -0.22720572,
  0.15106590,  -0.01434065,  0.27312040,  0.13930573,  -0.26748011,  0.01297367,  -0.15941703,  0.17465730,
  -0.12392401,  -0.07213373,  0.14865081,  -0.30709893,  -0.28351438,  0.34533495,  -0.07475144,  0.13740946,
  -0.48001796,  -0.31663767,  0.20621318,  -0.13831899,  -0.37197626,  -0.29414889,  -0.09688494,  0.39630619,
  0.25165305,  -0.31925946,  0.04555805,  0.25230801,  0.02137255,  0.11501236,  0.40484852,  0.27410626,
  -0.22719528,  0.01559847,  -0.46425524,  -0.10589482,  0.16001882,  -0.10819668,  0.18141210,  0.01149964,
  -0.52962792,  0.19293849,  0.18046384,  0.39123577,  0.18873872,  -0.14120513,  -0.35006872,  0.44427907,
  -0.03719575,  -0.00435512,  -0.12171963,  0.27032915,  -0.02117393,  0.11900225,  -0.24321398,  0.14359385,
  0.37775007,  -0.18141842,  0.14387082,  -0.10920071,  0.37377691,  0.03740941,  0.33294702,  0.18831880,
  -0.56493056,  0.08710175,  -0.61745298,  0.16458274,  0.19314153,  -0.15514553,  0.08791241,  0.31937650,
  -0.18922088,  -0.13080063,  0.33717495,  0.01815549,  0.07463607,  -0.04894545,  -0.42180568,  0.10809664,
  0.33613327,  0.01523063,  -0.40663251,  0.16824187,  0.29545385,  -0.13511713,  -0.27180612,  -0.22687702,
  -0.28173313,  -0.16995968,  0.48813260,  -0.19222708,  -0.06827912,  -0.06680388,  -0.13894078,  -0.25277135,
  0.41111895,  -0.11708803,  0.00996980,  0.42816684,  0.35738429,  0.05297498,  0.16150406,  0.03263252,
  0.45339653,  -0.25424433,  0.01483000,  0.02897841,  -0.15646493,  0.26732737,  0.20094667,  0.14827435,
  -0.44043657,  -0.00881910,  0.44849271,  0.16440409,  -0.37392086,  0.19450979,  0.22556332,  0.53213614,
  0.05738052,  0.01097531,  0.18597722,  0.29049304,  0.32939956,  0.31533596,  0.35513008,  -0.07326601,
  -0.37511572,  0.27167797,  -0.48631963,  0.15116379,  0.26766095,  -0.21998508,  0.26144063,  -0.00245644,
  -0.34178421,  0.18106781,  -0.14912932,  0.39689347,  -0.14782642,  -0.26173443,  -0.64632565,  -0.23005924,
  0.30019403,  0.18295096,  -0.07801994,  0.27090320,  0.22316439,  0.01713872,  -0.01220747,  -0.09826812,
  -0.07705894,  0.01085284,  -0.09967513,  0.05591872,  0.27079839,  0.17355916,  0.27065048,  0.10610804,
  -0.17212546,  0.16122544,  0.00167095,  0.01628108,  0.28602141,  0.31345239,  -0.07179297,  -0.01504505,
  -0.14489004,  -0.18267897,  -0.21102569,  -0.12610218,  0.25256687,  -0.11565883,  -0.22450887,  -0.15385255,
  0.06921392,  -0.15507413,  0.14704637,  -0.12499474,  0.28085592,  -0.09874225,  0.16369851,  0.08991246,
  -0.00959315,  -0.13163587,  0.07033493,  -0.23125327,  0.20314588,  0.06427394,  -0.12270245,  -0.37852621,
  0.24279927,  -0.08327945,  0.36668777,  0.05892628,  0.34614477,  -0.24659309,  -0.52499849,  -0.00416678,
  0.05886346,  -0.05369711,  0.11332110,  -0.23768379,  -0.03753983,  0.14361127,  -0.10426819,  -0.24721199,
  -0.14568765,  -0.05167985,  0.23688859,  0.37175450,  -0.09339417,  -0.01936590,  -0.05494832,  0.41152367,
  -0.15282470,  -0.11083876,  -0.24664927,  -0.18386133,  -0.43420258,  0.04019807,  0.22208609,  -0.02501243,
  0.23929277,  -0.18017983,  0.21068723,  -0.09570179,  -0.38031450,  -0.15600717,  0.15170862,  -0.04634191,
  0.25625035,  -0.03199174,  -0.20047742,  0.10241260,  -0.28752720,  -0.01767300,  0.00275138,  -0.11929638,
  0.24971984,  0.26258489,  -0.04892752,  -0.30167469,  0.20583041,  0.18060188,  0.41560733,  -0.01625956,
  -0.30312520,  -0.14729671,  0.26356453,  -0.31709242,  0.06620783,  -0.31961527,  -0.30663380,  -0.27941328,
  0.27558175,  -0.23371428,  -0.05770050,  0.12490939,  -0.10955236,  0.03142002,  0.13768765,  0.26108927,
  -0.07799138,  -0.21627177,  0.20459755,  0.17182675,  -0.09959734,  0.38447958,  0.17908467,  0.21930861,
  -0.16650394,  -0.11753562,  0.04699508,  0.10789652,  -0.37231401,  -0.19011621,  -0.26185670,  0.05404603,
  -0.23430735,  0.12499222,  0.12506568,  0.00366561,  0.05340830,  -0.07023636,  -0.08148997,  0.23314162,
  0.17690523,  -0.16497767,  0.28204739,  0.23859534,  -0.20128879,  0.23559800,  -0.26560643,  -0.26003358,
  -0.29775479,  -0.17912407,  -0.29074159,  0.00028859,  -0.28201646,  0.15355563,  -0.29172975,  -0.02870834,
  -0.24163887,  0.14563917,  0.04432338,  0.07953485,  -0.06464336,  0.18028992,  0.26762381,  0.08023629,
  -0.08971734,  0.19868842,  0.11131950,  0.17233032,  -0.18274961,  -0.18814105,  0.19453062,  -0.07707430,
  -0.24066879,  0.14177668,  0.12837778,  -0.17170723,  0.10745452,  -0.29093981,  -0.01585583,  0.14172959,
  -0.08926341,  -0.02781749,  0.02381202,  0.04951126,  -0.10329346,  -0.27649492,  -0.22082719,  0.28038630,
  -0.26071522,  0.14723240,  -0.12202509,  -0.26918766,  0.08648746,  -0.21713132,  0.03214153,  -0.08994780,
  -0.28973216,  0.18932529,  -0.04101657,  0.24618548,  -0.29646814,  0.18647116,  0.02777252,  -0.23197205,
  -0.62792355,  0.27781114,  0.03313639,  -0.35202768,  -0.59756953,  0.08722880,  -0.04828780,  -0.31395036,
  0.17837359,  -0.12306006,  0.22523314,  -0.07295263,  0.23040166,  -0.06917860,  0.15694477,  0.27627102,
  -0.23564415,  0.22478923,  -0.25203747,  -0.58888119,  -0.08715420,  0.22225909,  0.08964122,  -0.31633642,
  0.06554620,  0.30817696,  -0.13097285,  0.10429138,  -0.53342074,  -0.06593001,  -0.14780767,  -0.08893111,
  -0.07270093,  -0.51054865,  0.27477399,  0.08692691,  -0.13232610,  0.29274625,  0.20409031,  -0.16936974,
  0.44879845,  0.01371819,  0.17198075,  0.16755076,  -0.05367652,  0.00591895,  0.21088500,  0.13379504,
  0.21499756,  -0.00303097,  0.21096522,  -0.47199625,  0.13190104,  0.37421173,  0.18212608,  0.12239739,
  -0.04194631,  -0.29639053,  -0.23333104,  -0.04292116,  0.16463579,  0.06707133,  -0.02086302,  0.20384802,
  0.31925130,  -0.12660572,  -0.04985145,  0.17051858,  -0.04497845,  0.12831213,  0.08186806,  -0.04499960,
  0.09606189,  0.37788907,  -0.05755260,  -0.07407704,  0.04044752,  -0.09632343,  0.05826252,  0.22957300,
  0.12022284,  0.19299829,  0.03542182,  -0.12321673,  0.18229361,  0.38094270,  -0.10202195,  -0.16625763,
  -0.28569949,  -0.02221943,  0.01494079,  0.05028310,  -0.20756006,  0.00818864,  -0.05912652,  0.35335836,
  0.32342112,  -0.20407200,  0.12330700,  0.16170529,  -0.31116885,  0.22615343,  0.15256885,  -0.10922775,
  -0.13236268,  0.14779790,  0.30906484,  -0.04853396,  0.36022884,  0.05243915,  0.21874565,  -0.07939450,
  -0.20428279,  0.25963184,  -0.01470403,  0.06603849,  0.21049786,  0.13155393,  -0.05602502,  -0.25181746,
  -0.17922993,  -0.01315386,  -0.00864741,  -0.32597360,  -0.17250945,  -0.30082124,  0.01608425,  -0.30236346,
  0.18865502,  -0.34696671,  0.31489289,  0.29479223,  -0.02588652,  0.03903278,  -0.18007948,  -0.07392269,
  0.34374136,  0.22696236,  0.03825162,  -0.02670697,  -0.22253132,  0.19993086,  0.28588659,  0.07843420,
  0.09754253,  -0.06683636,  0.25780132,  -0.00105608,  -0.30059457,  0.15317000,  0.28843096,  0.02564129
};

static const float dense_3_b[32] = {
  -0.00469952,  -0.00847485,  0.01297773,  0.04521273,  0.04347382,  0.01835744,  0.02129455,  0.03823204,
  0.03067230,  0.07054288,  0.01078809,  0.00390365,  0.02759483,  0.07003486,  0.00150072,  0.00948675,
  0.01340871,  0.04372137,  -0.09867948,  0.00966375,  0.02999085,  0.01517688,  0.02560196,  0.00569578,
  -0.00117017,  -0.00891823,  0.01529782,  0.01800556,  0.01368174,  0.04903660,  0.04776511,  0.01605798
};

static const float dense_4_W[512] = {
  -0.27299240,  0.22154823,  -0.42688909,  -0.35408041,  -0.36283866,  -0.19608645,  0.07619818,  0.39892691,
  -0.18152969,  -0.06490453,  -0.48958465,  0.16915840,  -0.38464481,  -0.11195935,  -0.02405107,  0.03257166,
  0.33482805,  0.05719221,  -0.16698146,  -0.32562029,  0.27076617,  -0.27093771,  -0.37375239,  -0.22430484,
  0.15059015,  -0.24609968,  -0.14689003,  0.29373941,  -0.11789522,  0.31159171,  -0.03088556,  -0.20392278,
  0.44922003,  -0.30624136,  0.23078556,  0.13912030,  0.31306338,  -0.04038880,  -0.30685532,  -0.09121160,
  0.15338972,  0.25501195,  0.02276685,  -0.13658637,  0.26098162,  0.25911525,  -0.14978138,  -0.22600138,
  -0.00598119,  0.35620296,  -0.39026845,  -0.08009567,  -0.31504482,  0.18273161,  0.33281592,  -0.17702213,
  -0.41234151,  -0.33583683,  -0.22587760,  -0.09483391,  0.34036258,  -0.16165175,  0.45368403,  0.44514370,
  -0.18561462,  0.05820463,  -0.42827621,  -0.19512826,  -0.06234470,  0.12881128,  -0.01670329,  -0.28319597,
  -0.05622702,  -0.20215400,  0.20431650,  -0.58413661,  0.48840645,  -0.05289040,  -0.28900751,  -0.16057765,
  -0.19960867,  0.15458970,  -0.26048827,  -0.04769958,  -0.00036651,  0.25307512,  0.59877926,  0.23548330,
  -0.42767927,  -0.22612464,  -0.41820660,  0.09630541,  0.40246609,  -0.37506500,  0.33166352,  0.33324933,
  -0.12158743,  0.17235774,  -0.45842996,  -0.24026984,  -0.48889011,  0.35544702,  0.32186103,  -0.03857533,
  0.07961767,  -0.02827612,  -0.09126837,  -0.70100170,  -0.09421956,  -0.11720768,  0.12851927,  0.17278516,
  -0.37303048,  0.16181752,  -0.26375997,  -0.21957965,  -0.53255510,  0.59620631,  0.07722670,  0.30416301,
  -0.26642954,  -0.02792524,  -0.37014815,  -0.29427868,  0.28471866,  -0.46748036,  0.29708844,  0.41406685,
  0.23919283,  0.42701152,  -0.03515812,  -0.34802246,  -0.19025631,  -0.11008392,  0.17846064,  0.17852688,
  0.51520848,  0.45687419,  0.21630462,  -0.06861822,  0.05376502,  0.45346195,  0.06441658,  0.17727983,
  -0.15123962,  -0.16012643,  -0.55034041,  -0.42658943,  -0.28023943,  0.06346226,  0.20479310,  -0.29875094,
  0.07954596,  -0.14942956,  0.32409778,  -0.65887845,  0.32515869,  -0.08918441,  0.34086394,  -0.30039775,
  0.50140405,  0.39005023,  -0.10317433,  0.04742499,  0.27825281,  -0.34435666,  -0.02904249,  0.33912268,
  0.55722255,  0.20597869,  0.22523822,  0.34333536,  -0.33850405,  -0.10240536,  -0.35494900,  0.21083260,
  0.09489367,  -0.19904409,  0.35146299,  0.22803085,  0.24563821,  0.01751997,  0.27809352,  -0.18490553,
  0.22753279,  0.07494470,  -0.04871402,  0.17793831,  0.16468672,  0.19599798,  -0.10333562,  0.13958386,
  0.30681396,  -0.18694799,  -0.33879104,  0.03705067,  0.25293723,  0.04451566,  -0.36241198,  -0.37418193,
  0.19083160,  0.23501018,  0.41779429,  -0.20549424,  0.30595338,  0.18637037,  -0.04506678,  -0.19521275,
  -0.14914550,  0.51316231,  -0.13579631,  -0.24162039,  -0.18155336,  0.42902461,  -0.09179604,  0.21345973,
  -0.10935184,  -0.00464741,  -0.16387069,  0.60293281,  -0.32088295,  -0.11206135,  -0.12180255,  0.10332327,
  0.03150915,  0.33884797,  -0.27370834,  0.12606189,  -0.29855543,  0.46684489,  0.33290887,  0.53046215,
  -0.03666653,  -0.39427739,  -0.36655745,  -0.09918430,  0.41303283,  -0.00894692,  0.06164746,  -0.05211779,
  0.11535808,  0.08403566,  -0.37338972,  -0.11274050,  0.15477224,  0.14915314,  0.07940194,  -0.32692957,
  0.28181723,  -0.09237575,  0.27173913,  -0.11059912,  0.17783853,  0.35991818,  -0.02052317,  -0.11413985,
  0.46950462,  0.28978583,  0.48596504,  -0.37811637,  0.36350176,  0.28934717,  0.02785541,  0.05174056,
  0.24685003,  -0.12877691,  -0.17304437,  0.46469882,  -0.32979298,  0.15703185,  -0.04675644,  0.04044924,
  -0.08624108,  0.19488694,  0.19340788,  -0.29356486,  -0.02159759,  0.27906612,  0.51702249,  0.66295004,
  -0.06490808,  -0.22042675,  -0.36363658,  0.47183466,  0.27709097,  -0.22978608,  -0.11867512,  0.09860834,
  -0.30521426,  0.04846473,  0.12554114,  0.16294989,  0.11367780,  0.33169061,  -0.23082314,  -0.47727293,
  -0.01883899,  0.23529445,  -0.44544259,  0.31411803,  0.11988804,  -0.14999554,  -0.10509361,  0.00930456,
  -0.34721571,  -0.08584495,  -0.53066736,  0.02541445,  -0.31583962,  -0.23692207,  0.06686217,  0.17795697,
  -0.30275503,  -0.12631130,  0.13231541,  -0.55773312,  0.02426568,  -0.34307611,  0.36136302,  -0.19118729,
  -0.41063467,  0.23439792,  -0.45195326,  -0.25384575,  0.04335901,  0.04740346,  0.31746519,  0.09096343,
  -0.26266593,  -0.04466853,  -0.23277794,  0.14676797,  0.31675637,  -0.11663395,  0.42550126,  0.20169412,
  0.11551260,  0.04828891,  0.13913746,  0.11854380,  0.55905032,  -0.26628849,  -0.40352103,  -0.00526996,
  0.41210619,  0.39386660,  0.22582233,  -0.02780885,  -0.10009672,  -0.06113126,  -0.37583357,  -0.13022558,
  0.12482814,  0.41242519,  0.33845344,  -0.39478749,  0.24322107,  0.31235150,  0.15038557,  0.53883439,
  0.05635966,  0.15426315,  0.09717942,  0.28195438,  -0.38192245,  0.21408811,  0.23605298,  0.59115392,
  0.01748679,  -0.05573722,  -0.26349640,  -0.19520371,  -0.25377983,  -0.03862538,  0.13492668,  -0.21771945,
  0.00826965,  -0.08123071,  0.12585963,  -0.28443652,  0.02639964,  -0.32028961,  0.37408030,  0.08232046,
  -0.11322321,  0.04568545,  -0.40252423,  0.12589797,  0.02860023,  0.39802447,  -0.04602564,  0.03056275,
  -0.07933287,  0.09213999,  -0.32839125,  -0.30170020,  0.31933659,  -0.33713016,  0.04703638,  0.10330478,
  -0.28149179,  0.37085122,  0.20443211,  -0.30962181,  -0.08193479,  0.28708330,  -0.09489239,  0.40302512,
  -0.18725815,  0.16366617,  0.11563849,  -0.39658204,  0.12617049,  -0.26876792,  -0.15661019,  0.05645788,
  0.05815854,  -0.29075682,  0.28566304,  -0.37576628,  0.32954815,  -0.34180486,  0.11534197,  0.01095765,
  0.22311352,  0.61354709,  0.31605202,  0.47393385,  -0.33613873,  0.57048035,  -0.20720097,  0.13302566,
  -0.01202568,  -0.41694719,  -0.40565953,  0.29836977,  0.21867722,  -0.08441485,  0.04430604,  -0.55789977,
  0.28379148,  0.38600889,  0.73490882,  -0.44899198,  -0.00531741,  0.19953623,  0.21256310,  -0.10602172,
  -0.23045948,  0.43381679,  -0.15266871,  -0.23339391,  -0.26778626,  0.39211085,  -0.00478849,  0.25087368,
  -0.27529889,  0.02983979,  -0.21588536,  -0.30006602,  -0.19417675,  -0.22413737,  0.03990826,  0.44465780,
  -0.14545600,  0.38126251,  0.24709068,  -0.14011422,  -0.06858913,  -0.12031044,  0.26547965,  0.23512065,
  -0.10242227,  -0.06877709,  -0.38870224,  0.06288832,  0.12191185,  -0.11475752,  -0.17601147,  0.39729160,
  -0.08043876,  0.28979039,  0.46213618,  -0.24252859,  -0.21007204,  0.06406213,  -0.14566983,  0.46544799,
  0.33885062,  -0.07391865,  -0.25593394,  -0.20168659,  -0.29608116,  -0.27420801,  -0.19342422,  0.23623724,
  0.54536355,  -0.18225652,  0.13412507,  -0.43374351,  0.46067271,  -0.06052926,  -0.31889224,  0.15752962,
  0.07166343,  0.56053716,  0.38765523,  0.18253919,  -0.05186827,  0.41242108,  -0.14630190,  -0.04649007
};

static const float dense_4_b[16] = {
  0.09391384,  0.03746521,  0.13870572,  -0.02644336,  0.04167693,  -0.00835752,  -0.02435909,  0.04262579,
  0.08223342,  0.07157478,  0.03572691,  0.11943717,  0.07840894,  0.09908068,  0.07833322,  0.05929160
};

static const float dense_5_W[256] = {
  0.54761744,  -0.01558085,  0.12926474,  0.03952193,  -0.31939051,  0.79639691,  0.71287745,  0.27261403,
  -0.02302154,  -0.52818710,  0.10342999,  0.05298215,  -0.14356673,  -0.09678794,  0.26595187,  0.01249405,
  -0.30697417,  0.10483652,  0.34872222,  0.73641729,  -0.20746259,  0.18142222,  -0.18011090,  -0.62775743,
  -0.21369003,  0.16995774,  -0.35562414,  -0.05122700,  0.53052121,  -0.35825923,  0.33137918,  0.15573820,
  0.59557843,  0.31289017,  0.64595598,  0.09232014,  -0.16171175,  0.71879601,  0.22722073,  -0.44665003,
  -0.10013490,  -0.21015905,  -0.28329715,  -0.06105762,  0.00957009,  0.01025940,  -0.55291104,  -0.52328664,
  -0.13535766,  0.17134251,  0.02376532,  0.19618480,  0.24058683,  0.10816769,  0.13220869,  0.01794356,
  0.25124550,  0.38028973,  0.08757319,  0.10565336,  -0.36967617,  0.26323760,  -0.32927626,  0.07129737,
  0.25600916,  -0.23049289,  -0.19030337,  -0.18311448,  -0.14009179,  0.86098015,  0.72204590,  -0.00281949,
  -0.13201737,  0.16786692,  0.01079885,  0.48791149,  0.23053657,  -0.11881956,  -0.17493048,  -0.22572547,
  -0.45096219,  0.68014157,  -0.12243257,  0.51768619,  -0.29393548,  -0.34984910,  -0.27346253,  -0.25768405,
  0.06933558,  0.42791280,  0.03871493,  -0.36738694,  -0.29665086,  0.44027859,  -0.09850018,  0.43097702,
  -0.40304640,  0.49149024,  0.47104302,  0.31780678,  -0.28791738,  -0.34835893,  -0.39786074,  -0.28008658,
  0.31414098,  -0.00401134,  -0.24971184,  -0.32355627,  0.06361162,  0.37480396,  0.08667976,  -0.01985376,
  -0.22201143,  0.86159933,  0.49112582,  0.93560916,  -0.57729274,  0.08358497,  0.02971197,  -0.32153171,
  -0.30461124,  0.22457267,  -0.33516780,  -0.06339663,  -0.22759971,  -0.35167813,  -0.16459019,  0.13171397,
  0.44856480,  0.29234326,  -0.22041890,  0.10868438,  -0.00100056,  0.18617329,  0.22753200,  0.19625705,
  0.08575083,  -0.28892654,  -0.21931389,  0.52425677,  -0.25614107,  -0.17111322,  -0.00526461,  -0.02398133,
  0.54349017,  -0.06010589,  -0.19076872,  0.05816745,  0.10576309,  0.22716646,  0.49455756,  -0.10983416,
  0.04775358,  0.05845007,  0.09935341,  0.52527761,  -0.04825204,  -0.00333158,  -0.21854538,  -0.47119927,
  0.26062971,  -0.21277340,  -0.09330675,  -0.11727541,  0.20607156,  0.84368128,  0.49885422,  0.11310786,
  0.08990346,  -0.23522124,  -0.42789602,  0.16014931,  -0.31266278,  0.34569973,  0.19278647,  -0.20061164,
  0.59795696,  0.23945004,  0.45678389,  0.29778752,  -0.37870535,  0.02233776,  0.39284670,  -0.32266152,
  -0.31271145,  -0.34410855,  0.22509268,  0.60152692,  0.09096539,  -0.29451212,  -0.45459783,  0.15654087,
  0.25788385,  0.26841810,  0.11704974,  -0.46813306,  0.11610673,  -0.41862276,  0.06045468,  0.55237341,
  0.43914640,  0.37080988,  -0.27878726,  -0.13034636,  0.31868342,  0.64248073,  0.49252456,  0.47940835,
  0.63321966,  -0.14830343,  -0.17475532,  -0.01663541,  0.25470459,  0.75105911,  0.42009112,  0.05825755,
  -0.11985953,  -0.32348561,  -0.38053751,  0.46086463,  -0.38497591,  -0.05471284,  -0.27892125,  -0.12240878,
  0.14948526,  0.12932256,  0.23413210,  -0.18237893,  -0.04579770,  -0.08052561,  0.06844841,  -0.08151805,
  0.24660078,  0.61117941,  -0.36138421,  -0.67438400,  0.32170787,  0.33351234,  0.07717431,  0.27782723,
  0.17279099,  0.73486710,  0.62018383,  0.98471576,  -0.21694702,  -0.06975030,  -0.24850598,  -0.36218017,
  0.04035591,  0.35625282,  -0.43337023,  0.16038130,  -0.02035930,  0.27186635,  0.11642104,  -0.06957555
};

static const float dense_5_b[16] = {
  0.12561265,  0.05676994,  0.13110453,  0.04642981,  0.28020203,  0.13624406,  0.08743755,  0.21632847,
  0.21028522,  0.03610535,  -0.07805004,  0.15801576,  0.06386638,  0.18719798,  0.19228096,  0.08408688
};

static const float output_W[48] = {
  -0.60067075,  0.33941311,  0.27745643,  0.59604752,  0.40446901,  -0.11526320,  0.38496527,  0.09245639,
  -0.87209630,  0.57758904,  0.63442791,  -0.17494965,  -0.72219968,  -0.43853956,  0.43827572,  -0.78857148,
  0.11406410,  0.07350993,  -0.77485782,  0.43691498,  0.43165490,  -0.24992076,  0.05030059,  0.66158009,
  0.30315989,  -0.12403619,  0.39704624,  0.43305877,  -0.43146166,  -0.34550902,  -0.68883395,  -0.10775674,
  -0.36579406,  -1.03754544,  0.31493172,  0.21519524,  0.77612722,  -0.01156922,  0.03941888,  0.63522065,
  -0.41858897,  0.52948982,  0.46161959,  -0.52706736,  0.20784077,  0.68580383,  -0.51279408,  -0.49130371
};

static const float output_b[3] = {
  -0.06345776,  0.00181123,  0.05229436
};

static float buf0[64];
static float buf1[32];
static float buf2[32];
static float buf3[16];
static float buf4[16];
static float buf5[3];

// input: NHWC [MODEL_INPUT_H, MODEL_INPUT_W, MODEL_INPUT_C]
static inline void model_infer(const float* input, float* output) {
  dense(input, 6, dense_1_W, dense_1_b, 64, buf0);
  dense(buf0, 64, dense_2_W, dense_2_b, 32, buf1);
  dense(buf1, 32, dense_3_W, dense_3_b, 32, buf2);
  dense(buf2, 32, dense_4_W, dense_4_b, 16, buf3);
  dense(buf3, 16, dense_5_W, dense_5_b, 16, buf4);
  dense(buf4, 16, output_W, output_b, 3, buf5);
  for (int i=0;i<3;++i) output[i] = buf5[i];
}

#endif
