// Auto-generated by generate_c_from_tf.py
#ifndef MODEL_INFERENCE_H_
#define MODEL_INFERENCE_H_

#include "tf_ops.h"

#define MODEL_INPUT_H 2
#define MODEL_INPUT_W 7
#define MODEL_INPUT_C 256
#define MODEL_INPUT_SIZE (MODEL_INPUT_H*MODEL_INPUT_W*MODEL_INPUT_C)

static const float conv1_kernel[9216] =
{
  0.05685853,  -0.06282758,  0.05938409,  -0.03299005,  0.12188637,  -0.07590842,  -0.07005609,  -0.03628061,
  -0.01358326,  0.02967016,  -0.04752133,  0.06417955,  0.10593918,  -0.05926129,  0.09289278,  -0.01030144,
  -0.03682336,  0.04437627,  -0.06270431,  -0.16441344,  0.11542027,  -0.06040003,  0.07675808,  0.05305493,
  0.00874557,  0.07614840,  0.01906623,  -0.07591759,  0.04011496,  -0.04688268,  0.03801353,  -0.13765477,
  -0.03034532,  -0.06882447,  0.03039551,  -0.04885444,  0.01429460,  -0.02217175,  -0.04243260,  -0.00672625,
  -0.08302965,  -0.07161994,  0.03225950,  -0.06140453,  0.08706954,  -0.03498212,  0.01653415,  -0.13618731,
  -0.05639526,  0.10733481,  0.04796953,  -0.10344441,  -0.10814399,  0.06194679,  0.02922071,  -0.08050202,
  0.11937065,  0.02858721,  0.05332595,  -0.01053034,  0.02552662,  -0.03638427,  -0.01686720,  -0.05852542,
  0.00366089,  -0.05175829,  0.04383862,  -0.04085399,  0.04097000,  -0.09426951,  -0.03223992,  -0.00341209,
  0.01164289,  0.01584502,  0.06641559,  -0.14334571,  -0.05941794,  -0.02915349,  0.02585663,  -0.02462210,
  0.01532878,  0.00975314,  -0.02515361,  0.00518894,  0.02980551,  -0.06429131,  -0.01982123,  -0.08822219,
  -0.09400486,  -0.13839673,  -0.06232211,  -0.07220785,  -0.01834525,  0.00243233,  0.08901149,  -0.06843538,
  -0.01207959,  0.00766220,  0.12012006,  -0.11433992,  -0.01225333,  0.01108947,  -0.03740587,  -0.01441429,
  0.10863872,  -0.03747440,  0.09913337,  -0.00994725,  -0.11092122,  0.04223384,  0.02875633,  -0.12219683,
  0.06604151,  0.03236123,  0.07694193,  0.03814761,  0.07355016,  -0.11926783,  0.11010790,  -0.09544343,
  0.02166895,  0.03469633,  -0.00719552,  -0.11735461,  0.00307026,  0.11392809,  0.06224380,  0.03730977,
  0.01636794,  -0.00530957,  -0.05122954,  0.06175169,  -0.12194480,  0.05256600,  0.16451742,  0.03233531,
  -0.07114122,  0.01876887,  0.01428048,  0.00145628,  0.09666063,  -0.13540530,  -0.03934283,  -0.00840437,
  -0.09363744,  -0.06423440,  0.03474272,  0.03341853,  0.06301409,  -0.01146712,  0.03253312,  -0.02663632,
  0.09222683,  -0.09581041,  0.09496199,  0.02102801,  0.02790066,  0.00180535,  0.09442177,  -0.00554377,
  0.09414435,  -0.05325411,  0.00829035,  0.05492221,  0.06750616,  -0.10360365,  0.03163898,  -0.03529242,
  -0.12005207,  -0.04818842,  0.11529051,  -0.00965088,  0.00831513,  -0.05219771,  -0.04313381,  0.05636051,
  -0.10857367,  0.03752575,  0.07118508,  -0.06654466,  -0.12170227,  -0.08252335,  0.06169843,  0.02067681,
  0.04822739,  0.09533963,  0.00364876,  0.05347185,  -0.00045188,  -0.03739946,  0.05947031,  0.04559302,
  -0.00142566,  -0.04196957,  0.00360617,  0.02184073,  -0.00525357,  -0.03515114,  0.08009408,  0.10338360,
  -0.02034802,  -0.03735365,  0.08823168,  0.10331665,  -0.03487929,  -0.11632023,  -0.04432100,  -0.07231990,
  -0.03170191,  0.08690284,  -0.03690339,  0.05638095,  0.01379603,  0.04733409,  0.12197442,  0.07272536,
  -0.02598706,  -0.01318125,  -0.09295829,  0.01310258,  -0.05140659,  -0.00217851,  -0.06755170,  0.11488809,
  -0.00367634,  -0.09108000,  0.10144235,  0.05936009,  0.01815309,  -0.13602135,  -0.03594238,  0.05598008,
  -0.06293765,  -0.08351517,  -0.07213730,  0.04546912,  -0.08358532,  -0.03558043,  0.13916393,  -0.03383013,
  -0.05712195,  -0.04733998,  -0.05424946,  0.06729256,  -0.00219122,  0.10006918,  -0.00339111,  0.06189497,
  -0.10765634,  -0.05197129,  0.06378782,  0.02506208,  0.06260176,  -0.10129794,  -0.03350607,  0.06992594,
  0.07253934,  0.07988818,  -0.01816701,  0.13485292,  -0.00984996,  -0.01519928,  -0.02413966,  0.04038994,
  -0.00976005,  0.01579570,  -0.01321764,  0.03387346,  0.04419792,  0.04540072,  -0.02345091,  0.02671779,
  0.05717480,  -0.02278343,  0.02521547,  0.02634696,  0.01191359,  -0.10235722,  0.10194957,  -0.04003925,
  -0.00641327,  -0.05802588,  -0.01046160,  -0.03982054,  0.03531051,  0.02015682,  0.05714568,  -0.06194783,
  0.11275069,  0.08698625,  0.13157736,  0.04459872,  0.08481778,  0.01923318,  0.00081512,  -0.10313576,
  -0.07619038,  -0.08983712,  -0.01461375,  -0.00647302,  0.02329344,  0.07452403,  -0.03248353,  -0.04132710,
  0.12107858,  0.04762143,  -0.05416420,  -0.07702667,  -0.05409569,  -0.08583911,  0.04541336,  -0.03129699,
  0.01715418,  0.05898458,  0.09354004,  0.07433123,  0.10415008,  0.10634977,  -0.02921934,  -0.01350590,
  -0.00401428,  0.01395618,  0.02746018,  -0.09672716,  0.09462141,  0.09630325,  0.01584712,  0.05745923,
  0.04769899,  -0.02428040,  -0.07494291,  -0.05071292,  0.00447776,  0.09216309,  -0.08826101,  -0.05129913,
  0.03296204,  0.01037920,  -0.03034033,  0.00846365,  0.04104015,  -0.06363770,  -0.07162921,  -0.09709118,
  0.03838794,  -0.03959966,  -0.00790252,  0.01543691,  0.00869685,  0.06413430,  -0.09841448,  0.01916793,
  0.00709744,  -0.03243289,  -0.04238763,  -0.03957891,  -0.01594344,  -0.04185867,  -0.07187142,  0.00201436,
  0.03211083,  0.03737027,  -0.07876643,  0.01520949,  0.09434925,  -0.04815350,  -0.06660244,  -0.13286965,
  -0.01553335,  0.00247635,  -0.02659394,  -0.06077962,  0.00614517,  -0.06321578,  0.03037826,  -0.03531763,
  -0.01018381,  0.10095470,  0.00644990,  -0.05829081,  -0.04092038,  -0.00926947,  -0.06226011,  -0.01257921,
  -0.00190667,  0.00225916,  0.01795303,  -0.02193404,  -0.03577706,  0.05839073,  0.00341832,  -0.13768198,
  0.03889029,  -0.01060958,  -0.02270076,  -0.01788728,  -0.00305479,  -0.06507873,  -0.00902970,  0.04881326,
  0.06660341,  -0.03048538,  -0.07196524,  -0.14831893,  0.01888767,  0.11328761,  -0.10342421,  0.09027501,
  0.00937838,  0.05025820,  -0.06682397,  0.00352843,  -0.02572382,  -0.05235294,  0.04128826,  -0.12945265,
  -0.06374972,  0.10397931,  0.03908027,  0.04264118,  -0.00839306,  -0.07716446,  -0.04141275,  -0.07923625,
  -0.00517017,  -0.08084388,  -0.10073613,  -0.07498144,  -0.01846617,  0.03858198,  0.01472078,  0.00082117,
  -0.04167305,  -0.01591208,  0.07904177,  -0.05472970,  -0.00847561,  -0.05526878,  -0.03996313,  0.04244749,
  -0.03695521,  0.10601309,  0.02832520,  0.02752706,  0.03213861,  0.01418469,  0.01061240,  -0.07260439,
  0.09502184,  -0.04154987,  -0.02946257,  -0.04436623,  0.04172167,  0.06039356,  -0.02822994,  0.01596999,
  -0.08088086,  -0.04564940,  0.02322111,  0.03309145,  0.05041234,  0.03078226,  -0.02673100,  -0.06754708,
  0.09254403,  0.03447010,  -0.00843995,  -0.01092173,  -0.03560502,  0.03113379,  0.00333617,  0.04952240,
  0.02227616,  -0.15236627,  -0.09028398,  -0.05343114,  0.10427502,  0.01460311,  -0.12489101,  0.04378079,
  -0.04184123,  0.03996010,  0.01009461,  -0.09786896,  0.08812737,  -0.05990994,  -0.03836181,  -0.00433035,
  -0.02242752,  -0.06746481,  -0.09191748,  0.04941069,  -0.05643890,  -0.01951359,  -0.05918743,  -0.09108859,
  -0.03439029,  -0.03006296,  -0.10709182,  -0.00060344,  0.05040433,  0.06752177,  0.01494588,  -0.07263803,
  -0.10036009,  0.07380857,  0.01666626,  0.05030379,  -0.04552768,  -0.09386261,  0.03486334,  -0.00414456,
  0.03431548,  0.01086017,  -0.04661004,  0.04112116,  0.01539271,  -0.00279561,  0.00717839,  -0.06720798,
  -0.07033038,  -0.07601495,  -0.01502631,  -0.02774434,  -0.02295826,  0.08455691,  -0.07218026,  0.05022420,
  -0.12175915,  0.06017455,  0.04198257,  0.02030579,  -0.04456420,  -0.02420064,  0.05229682,  0.02926429,
  -0.00804642,  0.06401061,  -0.15938680,  0.03640966,  0.01067769,  0.04112973,  0.10220525,  0.04410420,
  0.01736804,  -0.11698326,  -0.06081052,  0.06991854,  0.06327219,  -0.02389762,  -0.04395093,  0.06225298,
  0.02399420,  -0.08037017,  0.02696171,  -0.04829908,  0.00028405,  -0.07154180,  0.08855027,  0.09334606,
  -0.04568608,  -0.10931299,  -0.00702138,  0.01339770,  -0.06316721,  0.04406398,  0.06425937,  -0.06433690,
  -0.01892358,  -0.06967416,  0.02691321,  0.13873543,  0.08284245,  -0.08310080,  -0.05244882,  -0.11219378,
  -0.03636922,  -0.05649863,  -0.04253570,  -0.04056820,  -0.04268700,  0.08885807,  0.00956028,  0.02109031,
  -0.04450721,  -0.10850165,  -0.02389767,  -0.12891267,  0.07066585,  -0.06655115,  -0.01190911,  0.03848861,
  -0.04178749,  0.03146825,  0.06463464,  0.09316564,  0.02556019,  -0.05704734,  -0.05232153,  -0.13837321,
  -0.00596456,  -0.07104046,  -0.08290551,  -0.00216005,  -0.07163130,  -0.03130347,  0.12225547,  -0.02062066,
  -0.02137864,  -0.08713384,  -0.07926242,  -0.01515060,  0.03639385,  0.03312338,  0.06034828,  -0.05109216,
  -0.06340436,  0.05688782,  0.11749790,  -0.03721001,  -0.04070707,  -0.06011721,  -0.02628921,  0.06502663,
  0.00987443,  0.03479893,  -0.02867309,  0.00224501,  0.00083310,  -0.02037515,  0.03449678,  -0.07495617,
  -0.07070664,  -0.05898996,  -0.04365423,  0.00025643,  0.04269754,  0.03695312,  -0.02857937,  -0.05983069,
  0.01721534,  0.08800054,  0.03439595,  0.06438713,  -0.07165144,  -0.11443152,  0.05081151,  -0.10065775,
  0.01307911,  0.08541220,  0.04682899,  -0.07078832,  0.06370828,  0.10452723,  0.08323277,  -0.10314120,
  0.02001870,  -0.11594219,  0.05894412,  0.02435630,  0.03057140,  -0.00337570,  -0.04527269,  -0.07449958,
  0.04414951,  0.09237634,  0.00391542,  -0.14743222,  -0.07251290,  0.02903693,  -0.09675541,  0.04482749,
  -0.01130767,  0.04754684,  0.07471610,  -0.06040632,  -0.01637220,  -0.00997151,  0.11188494,  -0.05816269,
  0.04173434,  0.01388152,  -0.01297181,  -0.03370298,  0.10374301,  -0.03490437,  -0.05268112,  -0.01574084,
  -0.08568959,  0.05025664,  0.02681654,  -0.01890187,  0.06523975,  -0.01421030,  -0.01007548,  0.03590933,
  -0.04602727,  -0.09462103,  -0.03002162,  0.08945538,  -0.00154545,  0.01325171,  0.01539566,  -0.10857597,
  0.01173986,  -0.10462801,  0.04964938,  -0.00251797,  -0.02078163,  -0.12038660,  0.00927135,  -0.00842059,
  -0.02411534,  0.01908730,  -0.04512087,  -0.09788135,  -0.01770104,  -0.05876102,  -0.03127137,  -0.06569616,
  -0.04589744,  -0.03363010,  -0.05540945,  0.08052897,  -0.02535071,  0.10259436,  0.02340959,  -0.00985527,
  0.04751549,  -0.04882867,  -0.10597198,  -0.08081155,  -0.06437160,  -0.07118722,  0.00461165,  0.03871989,
  -0.04767910,  0.10011692,  -0.04395910,  0.03078855,  0.09064725,  -0.01179510,  -0.08836180,  0.00989837,
  -0.01607161,  0.02908468,  -0.06097154,  -0.01665153,  0.00523860,  0.01197789,  0.01051009,  -0.06319726,
  0.05140178,  -0.05007526,  0.00169280,  -0.01586527,  -0.01516754,  -0.10815322,  -0.07356410,  0.08637614,
  0.02921886,  -0.00714193,  -0.01667623,  -0.08595604,  0.00072271,  -0.06487925,  -0.05031458,  -0.05163759,
  0.08049791,  -0.07953091,  -0.12233956,  0.11178610,  0.01861117,  -0.06405683,  -0.08066686,  -0.04838346,
  0.08150595,  -0.03689669,  0.03139166,  -0.01915752,  -0.01123009,  0.08498555,  -0.06679546,  0.02376044,
  0.00470424,  0.03675596,  -0.04907085,  0.08102935,  0.08982992,  0.07209250,  -0.00300109,  -0.00743623,
  0.06309239,  0.03664717,  -0.05392604,  0.03838397,  0.09535413,  0.08731515,  0.02864863,  -0.02383520,
  0.01269941,  -0.03350291,  -0.00346290,  0.01738658,  0.12674290,  0.03517850,  0.10350794,  0.04799236,
  0.03070990,  -0.05089091,  0.04567477,  -0.10219456,  0.04553754,  -0.07165080,  -0.10774095,  0.13055149,
  0.10091810,  0.09137345,  0.02708634,  0.11419325,  0.01028720,  0.00335406,  -0.09256683,  -0.10562091,
  0.09794977,  -0.05142409,  -0.01476521,  0.10767826,  0.12469379,  0.03642850,  0.03838373,  0.03316560,
  0.10715123,  -0.02042181,  -0.05148382,  0.00843690,  0.12121652,  0.05257752,  0.02860868,  -0.02414871,
  0.08983199,  0.09761789,  0.15698279,  0.12334457,  0.13038541,  -0.00119917,  -0.01727528,  0.03899083,
  -0.04885879,  0.12206928,  0.05587742,  0.03888458,  0.10313101,  -0.07362182,  0.12553212,  0.10067390,
  -0.04567106,  -0.09454202,  0.03491144,  -0.12233463,  0.01345495,  0.05606396,  0.00472261,  0.02729298,
  0.07496569,  -0.04277687,  0.08421934,  0.00583980,  0.07313740,  -0.03825928,  0.02918350,  0.05049707,
  0.04321089,  0.03788103,  0.01157453,  -0.02308691,  -0.06873959,  0.04216741,  0.02413223,  0.11011706,
  0.01128306,  -0.08869390,  0.00010375,  0.04186879,  0.01190452,  0.05283769,  0.02838935,  0.04097113,
  -0.09492338,  -0.08613735,  -0.11031097,  0.08033884,  -0.01274739,  -0.10614306,  0.01383480,  -0.04771758,
  0.02170587,  0.00000051,  -0.03439704,  -0.04712594,  0.03750221,  -0.07229076,  -0.07581970,  0.06276822,
  -0.03389828,  -0.16524482,  -0.02906737,  0.01683718,  -0.08424094,  0.01252134,  0.07299484,  -0.03717040,
  0.01825222,  -0.01190830,  0.05004863,  0.08169001,  -0.09932704,  -0.09973837,  -0.01781272,  -0.02232278,
  -0.08052523,  -0.05282761,  0.00869784,  0.02065986,  -0.10133284,  -0.01963444,  0.01752089,  0.09025055,
  -0.04367587,  -0.09239054,  0.09148051,  0.07619342,  -0.04763784,  0.05742218,  -0.06440118,  -0.00697997,
  -0.03418833,  0.02959991,  -0.06848862,  0.02873261,  0.05513969,  -0.00437747,  0.09005994,  -0.06307933,
  -0.09318767,  0.06518702,  0.02963360,  0.11386006,  0.01040408,  0.10959893,  0.11316723,  0.01703050,
  0.08446069,  -0.06474429,  -0.04411494,  0.01691808,  0.02080933,  0.00928150,  -0.03436811,  0.10509138,
  -0.10974645,  0.10213341,  0.07467245,  -0.04634536,  -0.02339396,  -0.04463538,  0.06308813,  -0.05406409,
  0.00888184,  0.04579253,  0.09401379,  0.08440036,  -0.10786667,  0.10097434,  0.02472473,  0.03499392,
  0.01898262,  -0.01357784,  0.09065437,  0.01885688,  0.00658755,  -0.09631934,  0.14445224,  0.04329751,
  -0.02341099,  0.08257363,  0.07964142,  -0.06056595,  0.04454926,  0.03963737,  0.05476193,  -0.11258068,
  -0.10038842,  -0.00902084,  0.07436536,  0.02450913,  -0.12963372,  0.04427392,  0.11848277,  -0.03569445,
  0.10845719,  0.09271287,  0.07910175,  -0.02643007,  -0.03400586,  0.04053550,  0.10305800,  0.09676509,
  -0.19260344,  0.10799198,  0.14879309,  -0.04747747,  0.00473767,  0.03537177,  0.00380317,  -0.01330531,
  -0.01627240,  -0.05112335,  0.00988258,  0.00919817,  -0.18279605,  -0.03631767,  0.05991152,  -0.06890945,
  0.05675381,  -0.04967203,  0.04473648,  0.02938162,  0.07412658,  0.07662246,  0.14977252,  0.05016532,
  -0.04821889,  0.01300289,  -0.04700565,  -0.11612921,  -0.01389485,  -0.02881549,  0.07551254,  0.05898681,
  0.06555740,  -0.07107119,  0.03836393,  0.03607886,  -0.03619014,  -0.01631695,  -0.03164681,  -0.09933563,
  -0.09255220,  -0.07919057,  0.08833976,  0.02124049,  -0.01909893,  -0.06540575,  0.13809426,  -0.08976281,
  -0.16251449,  -0.01339138,  -0.13736807,  -0.16653547,  -0.15250307,  0.07754361,  0.06575509,  -0.03266686,
  -0.05177803,  -0.01781887,  0.09203135,  -0.06787595,  -0.00983899,  -0.04175218,  -0.10077562,  -0.03501763,
  -0.16148102,  0.00239440,  0.00816502,  0.08531077,  0.10929845,  -0.02376703,  0.12854114,  -0.04230187,
  0.00388427,  -0.09635431,  -0.09463238,  -0.12668312,  -0.07719919,  0.05996468,  0.05853076,  0.10125698,
  0.12833785,  -0.07004783,  0.10985585,  0.06877979,  -0.03230746,  -0.12891090,  -0.00692300,  -0.00537138,
  -0.05222028,  -0.07488492,  0.03690189,  -0.07509866,  0.13075452,  -0.04419595,  0.03729513,  -0.04960604,
  0.07995099,  0.00601797,  0.11840414,  -0.11705342,  0.00371749,  0.06274759,  -0.09106537,  -0.03762829,
  0.03892069,  -0.04801800,  0.05660506,  -0.02449002,  0.02192186,  -0.10140086,  0.06595058,  0.03954827,
  0.04239979,  -0.01098298,  -0.04561606,  -0.08462825,  0.02714443,  0.04262038,  -0.04563824,  -0.08672568,
  0.01196366,  0.01387843,  0.12452620,  0.08974393,  0.04888109,  0.03307529,  -0.02077636,  -0.00937659,
  0.14069238,  -0.01323710,  -0.00188062,  -0.06902631,  0.06644554,  -0.10150081,  0.05565555,  -0.00982457,
  -0.02282777,  0.05032453,  -0.03140693,  -0.05514864,  0.00039452,  -0.08082669,  0.04583934,  -0.00672878,
  0.02945551,  -0.08687367,  0.15267763,  0.09812565,  0.05180985,  0.02081760,  -0.07765159,  -0.10549418,
  0.15346339,  0.07075810,  -0.00999666,  -0.01218438,  0.03969058,  -0.11452989,  -0.05088320,  0.09277657,
  -0.06032734,  0.05945640,  -0.00859627,  -0.10154699,  0.13073033,  -0.05431578,  0.10153586,  0.05381248,
  0.07097968,  -0.06027872,  -0.09398582,  -0.01586850,  0.03096368,  0.03275238,  0.00899285,  -0.08710614,
  0.14265783,  0.01324998,  0.07643766,  0.09059728,  0.01948786,  -0.05612426,  -0.01926358,  -0.01832297,
  -0.04470618,  -0.01072954,  -0.08582194,  -0.03153601,  0.10505214,  -0.01571768,  -0.06315748,  -0.04628411,
  0.02261957,  -0.10427870,  -0.04859966,  0.07954139,  -0.02659548,  0.09593436,  -0.01754830,  -0.00601033,
  0.05039998,  0.03699597,  -0.05419506,  -0.01326993,  -0.06312984,  -0.12614425,  -0.08376455,  0.06785097,
  -0.07151009,  0.01531417,  -0.07061824,  0.04959078,  -0.01398791,  0.00304860,  -0.07617706,  0.07154667,
  0.04444591,  -0.03265667,  -0.13165238,  0.09275991,  0.04671825,  0.06293321,  -0.00014177,  0.03122359,
  0.09812280,  0.11216827,  -0.04227035,  0.06576414,  0.04435121,  -0.06571907,  -0.14502662,  0.03508528,
  -0.03674805,  -0.01799014,  0.03614134,  -0.03810620,  -0.00492111,  0.03308742,  0.01667113,  0.07322879,
  -0.07188001,  -0.14960054,  0.00279914,  0.07091411,  -0.02050732,  -0.06236602,  0.06194421,  -0.05205378,
  -0.03276386,  -0.01041359,  -0.05085726,  -0.05187136,  -0.06354927,  -0.10784687,  0.01653526,  0.09592152,
  0.10521039,  0.08156461,  -0.01667124,  -0.10918736,  -0.02904332,  0.06378046,  -0.08524332,  -0.02333295,
  -0.05928599,  -0.02509627,  0.01426101,  -0.06630943,  0.11890534,  0.08462093,  -0.09808179,  0.00357046,
  -0.05448208,  0.04310703,  -0.00642836,  0.00813674,  -0.02680674,  0.00113628,  0.02097514,  0.02440105,
  0.05004322,  -0.00199590,  0.00559097,  -0.11268292,  -0.04897586,  0.05834924,  -0.12480590,  -0.04312208,
  -0.04501859,  0.00033291,  0.01478368,  -0.05000319,  0.12756255,  -0.02002998,  -0.07835813,  -0.09073000,
  -0.03770833,  0.01314646,  0.01172408,  0.04542533,  -0.01284139,  0.05868082,  0.09113917,  0.03999668,
  0.01092752,  0.01990421,  0.03125213,  -0.04563898,  0.03793580,  -0.02281339,  -0.09093598,  0.08168380,
  -0.02110512,  -0.03557904,  -0.01773397,  0.04501280,  0.06615876,  -0.08481885,  0.01819593,  -0.13632867,
  -0.06027279,  0.03220806,  0.00031816,  -0.08747716,  0.01339438,  0.06022571,  -0.02992829,  0.02930144,
  0.08657419,  -0.01537237,  0.01668616,  -0.02302346,  0.01834216,  -0.01471481,  -0.15817025,  -0.12737302,
  -0.01547292,  0.00081211,  -0.05958007,  -0.10092049,  0.01937045,  -0.05037544,  -0.01011343,  -0.04167089,
  -0.06908610,  -0.06631870,  -0.14912724,  -0.15195489,  0.02688888,  0.00332215,  -0.10231238,  0.01318127,
  -0.04753091,  -0.00949394,  -0.03946825,  -0.10988045,  0.02953349,  -0.02011004,  -0.10887323,  -0.05402722,
  -0.13205482,  0.03869371,  -0.05680050,  -0.09168863,  -0.09294935,  -0.03690375,  -0.04444883,  0.02967697,
  0.05345943,  -0.03922070,  -0.03247207,  -0.03314775,  -0.04467788,  0.06882650,  -0.04067564,  0.02689071,
  -0.08007420,  -0.06908005,  0.04731965,  -0.04488761,  0.10536108,  0.04036985,  -0.05844981,  -0.09048773,
  -0.14382255,  0.03373430,  -0.11827461,  0.02889744,  -0.01572543,  -0.06844263,  -0.03117390,  -0.02075323,
  0.08047114,  -0.06182937,  -0.01717838,  -0.02175327,  0.01734569,  0.04370682,  -0.08306641,  0.01804980,
  -0.02732131,  -0.01972141,  0.09070569,  -0.00168365,  -0.06889492,  -0.07683752,  -0.09302886,  -0.18211254,
  -0.05759810,  0.08402172,  0.09599236,  0.00080862,  -0.08718275,  0.02950631,  -0.06458952,  -0.06643376,
  0.05686544,  -0.04526380,  -0.10910842,  0.01115600,  -0.05241825,  0.07613806,  0.02007475,  0.01391038,
  -0.08265763,  0.00369731,  -0.01898638,  0.02009602,  0.12191382,  -0.00823871,  -0.06353901,  -0.03890928,
  -0.05030750,  0.08808020,  -0.00776460,  -0.06999132,  -0.00871174,  -0.00045290,  -0.04177689,  -0.02063286,
  -0.00628752,  0.04559205,  -0.07089364,  -0.07265281,  -0.08393867,  -0.00287270,  0.10153052,  0.04888453,
  -0.11871653,  -0.02240597,  0.01946886,  0.01408262,  -0.00109658,  -0.03078897,  0.07722609,  -0.12223950,
  -0.00033881,  0.06624094,  0.08620887,  0.00910669,  -0.03191587,  -0.08975323,  0.06832027,  0.00195118,
  0.00404885,  -0.06472268,  0.03710986,  -0.11778437,  -0.08766583,  0.02335146,  0.01047798,  0.02029436,
  -0.05711475,  0.01544170,  -0.03839185,  0.08062924,  -0.04611121,  0.04187381,  -0.09920793,  -0.07761829,
  -0.02174159,  0.05182553,  -0.08147444,  -0.08173352,  0.04674330,  0.01215341,  -0.04241006,  0.07733377,
  -0.12969561,  -0.02301046,  -0.02276872,  0.01291567,  -0.04846819,  0.05796804,  -0.03410960,  -0.01180978,
  0.07424957,  0.11282965,  0.07115578,  -0.00203864,  0.01697168,  -0.03085556,  -0.13249430,  -0.07841461,
  -0.03491526,  0.01997143,  -0.05174848,  0.03613446,  0.06033044,  0.03061082,  -0.07753181,  0.05265370,
  -0.11130188,  0.05975711,  0.04727951,  0.00943589,  0.01059628,  0.09128308,  -0.05319787,  0.05189640,
  0.05080760,  0.08703242,  -0.04869001,  -0.04424666,  -0.14740576,  -0.03141746,  0.06997829,  -0.03326169,
  -0.09536205,  -0.02346246,  0.04943272,  -0.00495584,  -0.07106271,  0.09973323,  -0.04627074,  -0.02529524,
  -0.02845556,  0.09461050,  0.05046161,  -0.04507842,  -0.11691840,  0.09363508,  0.00663183,  0.08708789,
  0.02529274,  0.00976661,  0.03719182,  0.09309105,  -0.01069042,  0.10845453,  -0.08248363,  0.03281206,
  -0.12255136,  0.05184221,  0.08476444,  -0.07181563,  -0.04413885,  -0.00897889,  -0.02896422,  0.02595166,
  -0.00380428,  0.10104594,  -0.00778293,  -0.03801299,  -0.00687122,  -0.01719236,  0.04645353,  0.06335001,
  0.00291052,  0.07141076,  -0.09085211,  -0.01441426,  0.05745761,  0.04739736,  0.00306993,  0.10271977,
  -0.04259208,  -0.08629201,  -0.05587502,  0.02381826,  -0.09429961,  -0.03209918,  0.00760514,  0.08343272,
  -0.07014244,  -0.04184769,  -0.02163653,  0.02938867,  -0.03133569,  0.04085245,  -0.07101828,  -0.01903415,
  -0.13447103,  0.10362853,  0.04025431,  0.02634764,  -0.03596441,  0.01699239,  0.00292983,  -0.01200426,
  0.05471877,  -0.02226707,  -0.07558010,  -0.07696859,  -0.12301344,  0.09445757,  0.02164089,  0.01836748,
  -0.02376330,  0.04117594,  -0.02300465,  -0.06872497,  0.02339767,  0.01754975,  -0.08711927,  0.08293948,
  -0.08117300,  -0.01154189,  -0.08998284,  -0.00757850,  -0.04212682,  0.05238581,  -0.12334397,  0.07852184,
  -0.03151388,  -0.08512398,  0.02137781,  0.05901548,  0.07183305,  0.00390179,  0.00115416,  -0.02040822,
  -0.03144442,  0.10906601,  -0.00975254,  0.08847597,  -0.00853034,  -0.04136227,  -0.06268976,  -0.01323014,
  0.01824911,  0.04322995,  -0.00343080,  0.00079379,  -0.06273866,  0.03963269,  0.05161545,  0.14365502,
  -0.04290667,  0.08095473,  0.07805417,  -0.00017809,  0.07970197,  0.06461274,  0.03408816,  -0.05273843,
  0.05532402,  -0.00684745,  -0.03812811,  0.12951787,  -0.02923435,  -0.00994597,  -0.00529607,  0.09189501,
  0.03885245,  0.01121427,  0.04198356,  -0.07107916,  -0.02891912,  0.10682838,  -0.00486824,  0.10549276,
  0.09882326,  -0.02592199,  0.09600312,  -0.06099512,  0.05452178,  0.02020784,  0.04962732,  0.02635084,
  -0.07137455,  -0.01185260,  -0.06088262,  0.04393958,  0.04288843,  0.01229881,  0.10128589,  0.09502605,
  0.04064010,  -0.02893193,  0.00166546,  0.03780601,  -0.05391143,  -0.04503582,  0.00373468,  -0.01793030,
  -0.07378912,  -0.03909894,  -0.03427183,  0.04113847,  0.02851640,  0.00187492,  -0.04026516,  -0.07469563,
  -0.03859501,  -0.08610485,  -0.05935122,  0.03619830,  0.06352101,  -0.01954044,  -0.12324993,  -0.00832589,
  0.00687224,  -0.08578885,  0.04072430,  -0.09072099,  -0.08243358,  0.03237998,  -0.02543111,  0.00596451,
  0.01000917,  -0.01952789,  -0.09524495,  -0.01273562,  0.04050169,  -0.04295086,  0.04654976,  0.08320546,
  0.01781024,  0.03251828,  0.00980657,  -0.05579728,  -0.00356676,  -0.05362809,  -0.05758936,  0.03027031,
  0.00783326,  -0.07515727,  -0.02886999,  -0.01340368,  -0.11536136,  -0.10552065,  0.01748021,  0.00911407,
  0.06205909,  0.07673962,  -0.01636650,  0.13607740,  -0.02891821,  -0.03010066,  -0.00012889,  0.03070250,
  0.00482464,  0.02762171,  -0.01779344,  -0.09270146,  -0.07223124,  0.00502887,  -0.06030342,  -0.01979706,
  -0.07580637,  -0.03807627,  -0.00202393,  -0.07025442,  0.01857059,  0.02940221,  -0.03969513,  0.02482423,
  -0.06218298,  0.05725710,  -0.07582770,  0.00371211,  -0.06634644,  0.00447420,  0.08705003,  0.00928875,
  0.01868490,  -0.05666200,  0.05734140,  -0.04437619,  0.08394316,  -0.04691941,  0.08828685,  0.09440372,
  -0.00807776,  -0.10599434,  -0.00234311,  -0.08473625,  -0.02301171,  -0.00112797,  0.01789561,  -0.05960950,
  0.01276946,  0.02987797,  0.01617078,  -0.00842360,  0.07334594,  -0.11475060,  0.04008710,  -0.00365321,
  -0.03343720,  0.01630320,  -0.03783959,  -0.05137353,  -0.07457662,  0.12651703,  0.04603372,  -0.02853281,
  0.07336512,  -0.03564920,  -0.02243911,  -0.14276466,  -0.01012903,  -0.09225352,  -0.01064746,  -0.00358334,
  0.07828757,  0.07701303,  0.04288662,  0.06735405,  0.05612602,  -0.04193517,  0.11721304,  -0.09952323,
  0.01758150,  -0.08426759,  -0.10364988,  0.06936832,  -0.04703099,  0.05153240,  0.18307158,  0.00844481,
  0.11089139,  0.00241189,  0.09748054,  -0.17671028,  -0.05064350,  -0.02616013,  -0.06337757,  -0.00657803,
  0.07537482,  0.06918656,  -0.00402539,  -0.08377675,  0.01507592,  -0.09101133,  0.01295033,  -0.01923187,
  0.01590096,  -0.11992605,  0.00941930,  0.06676085,  0.01288566,  -0.08508257,  -0.02609334,  -0.05795069,
  -0.04058088,  -0.04811610,  0.10990269,  -0.01143124,  0.07506185,  -0.00460850,  0.09946377,  -0.05238690,
  0.01098340,  0.01480735,  -0.05622617,  -0.06935445,  -0.02059049,  -0.05200132,  0.00004493,  -0.02456312,
  0.04378963,  -0.02511061,  0.13450882,  0.04399960,  -0.00221350,  -0.00289729,  -0.11437759,  -0.10837563,
  0.04035641,  -0.01881718,  -0.02467679,  0.06825651,  0.05482343,  0.07097594,  0.04299961,  -0.02291467,
  0.10642611,  -0.09535513,  -0.16999620,  -0.02107929,  0.02836862,  -0.06417123,  0.03638851,  0.10493329,
  0.11610526,  0.02715882,  0.09130716,  0.03109340,  -0.01796914,  -0.07459607,  -0.05724621,  -0.13514246,
  -0.00942785,  0.01936293,  0.06057632,  0.04692912,  0.10717998,  0.01367267,  -0.01846806,  0.07721730,
  0.07540372,  -0.11773645,  -0.04931279,  -0.15031601,  0.06849750,  0.02685068,  0.00579358,  -0.00605848,
  0.12003038,  -0.01700534,  0.01688196,  -0.00009630,  0.00717136,  -0.03648707,  -0.05329816,  -0.04758255,
  0.01861504,  0.01209005,  0.06426408,  0.08903964,  0.04959287,  0.06869077,  0.11522432,  -0.05054168,
  -0.06804285,  -0.05470546,  0.05145882,  -0.14777789,  0.02749497,  -0.00620155,  0.02582978,  0.09749073,
  -0.02312582,  0.00719398,  0.03588467,  -0.03359577,  -0.03130119,  0.10387526,  0.10788092,  -0.11764477,
  -0.01962448,  0.00462940,  0.05137285,  -0.01083876,  0.05853128,  0.10227431,  0.03472060,  0.00702848,
  0.03846343,  0.08691378,  0.21328358,  -0.06242771,  0.06855285,  -0.02376929,  0.00682679,  0.04155171,
  0.09536362,  0.01697516,  -0.05269329,  0.06227316,  0.01976267,  0.09155246,  0.20609789,  -0.12518291,
  0.10748587,  0.10529498,  0.04391165,  0.05473226,  0.00097305,  0.07758841,  0.02443906,  -0.01639984,
  0.01312932,  0.00018238,  0.12333927,  -0.05074769,  0.00174428,  -0.04811904,  0.02306935,  -0.02641913,
  0.00172454,  0.11210436,  0.03837132,  0.01222362,  -0.03941571,  0.01874593,  0.12895900,  -0.08589195,
  -0.01324415,  0.01422249,  -0.05677200,  0.00997506,  0.00893905,  0.10682625,  0.07691488,  -0.05359749,
  -0.06733309,  0.03921714,  0.01339387,  0.01701062,  -0.01805895,  0.09762266,  -0.11076111,  -0.03623130,
  0.04396065,  0.15962829,  0.02739209,  -0.10816918,  -0.07878040,  0.09188591,  -0.15478244,  -0.03982059,
  -0.02297814,  0.13090627,  -0.05447196,  0.07276072,  -0.10021229,  0.10221409,  -0.02924945,  -0.12168019,
  -0.01521215,  -0.07595864,  -0.10070623,  0.07158985,  -0.05483608,  0.03338698,  -0.08247251,  -0.04609849,
  0.05176320,  0.01398853,  0.03808235,  -0.08448031,  0.03069555,  0.05537095,  -0.10089616,  0.11375246,
  0.05864787,  0.06885949,  -0.12692133,  0.01436356,  -0.08447044,  -0.00292455,  -0.00940761,  -0.12224764,
  0.07207252,  0.03737617,  -0.05055244,  0.07835274,  0.03785006,  -0.04257421,  -0.06592657,  -0.02042311,
  -0.09437514,  0.09229756,  0.04486004,  -0.15075709,  -0.00524040,  -0.10279994,  -0.09890666,  0.00396793,
  0.07685757,  0.01789636,  -0.07221330,  -0.02481319,  -0.11570337,  -0.01313786,  0.06358811,  -0.01764701,
  -0.02563780,  0.04342470,  -0.01345256,  0.08173908,  -0.02559717,  0.07960212,  -0.07208190,  0.04848604,
  -0.09519697,  0.02892554,  0.06756446,  -0.05586446,  0.05489368,  -0.07488853,  0.12355216,  0.08832010,
  -0.00412578,  -0.02537740,  -0.10915641,  0.00164952,  0.00421291,  -0.00790360,  0.03722586,  -0.00880841,
  0.05152350,  -0.08020738,  0.02544891,  -0.00179655,  -0.06476934,  0.06637571,  -0.04859756,  -0.07837868,
  0.01841810,  0.10019913,  -0.08997204,  -0.07992265,  -0.05551988,  -0.00449962,  0.12663019,  0.04054081,
  -0.00505451,  0.03317970,  -0.03721606,  -0.03314044,  -0.03016630,  0.10644372,  -0.00021274,  -0.00769690,
  -0.07480595,  0.06249706,  0.08653758,  0.00207593,  0.07139184,  0.04437087,  -0.11425236,  0.02431241,
  -0.01489022,  0.10515202,  0.02490409,  0.00637411,  -0.01558188,  0.02327513,  0.04714350,  0.07967177,
  -0.02145033,  0.02530154,  0.04745207,  0.02421533,  -0.07981596,  -0.02361919,  0.00426700,  -0.07182746,
  -0.02701878,  -0.03386039,  0.03495060,  -0.03893527,  -0.04460949,  -0.02151564,  0.06728711,  -0.02056432,
  -0.08019149,  0.06738677,  -0.08934592,  -0.06342077,  -0.05548033,  0.02612824,  -0.09865694,  0.06778846,
  -0.00050421,  0.07287396,  0.00090160,  -0.05860969,  0.04500295,  -0.08028554,  -0.06605977,  0.06575622,
  0.02193123,  -0.06574108,  -0.10350844,  -0.05946743,  0.00823302,  -0.05353054,  -0.03324824,  0.01119377,
  0.02365966,  -0.04469498,  -0.13347258,  0.05174328,  -0.08166789,  -0.08625700,  -0.20684667,  -0.05333482,
  0.07052634,  -0.03299093,  -0.04592175,  0.08394933,  -0.00138855,  0.04659175,  -0.03082847,  -0.10003268,
  -0.06399333,  -0.10310235,  -0.21652362,  -0.03892436,  -0.02983316,  -0.04039643,  -0.01955725,  0.06837270,
  -0.06337888,  0.06399947,  -0.01475810,  0.02809923,  0.00091575,  -0.09278362,  -0.06426928,  -0.00036482,
  0.02453569,  0.01272236,  0.02895921,  -0.04273696,  -0.03135704,  -0.06929329,  -0.07291593,  0.03601509,
  -0.02829811,  -0.08560129,  -0.08854313,  -0.04332969,  -0.02536845,  0.03661391,  0.05492896,  0.01201826,
  0.02346268,  0.01237501,  -0.05529550,  0.04474910,  -0.13730207,  0.00761087,  -0.01173593,  -0.05141103,
  0.00176680,  -0.02997720,  0.02253576,  0.03673819,  -0.05001922,  -0.06442258,  -0.10259590,  0.02873625,
  -0.16184536,  0.06116392,  0.02007555,  0.08482473,  0.08729222,  -0.10163783,  0.04741402,  0.08423145,
  -0.06019073,  -0.08679552,  -0.11187097,  0.10090084,  -0.06425709,  0.03057035,  0.02130136,  0.05488967,
  0.00350089,  0.03491890,  0.02968261,  0.07304807,  0.08597381,  -0.11260353,  -0.04187700,  0.07140937,
  -0.09578155,  0.12167308,  0.12082502,  0.12079085,  -0.03448995,  0.09869993,  0.07268491,  0.06728581,
  -0.05212875,  -0.08535938,  -0.01482302,  0.03374469,  -0.12172883,  0.03329839,  0.03212356,  0.12277009,
  0.01476647,  0.03509513,  0.07441518,  -0.03846939,  -0.01690496,  0.07103556,  -0.11299741,  0.00581998,
  -0.06430896,  -0.02894866,  0.05294390,  0.10866879,  -0.01949343,  -0.00962545,  -0.02809490,  0.01713253,
  0.02888128,  -0.04010031,  0.02196468,  0.06515755,  0.04382648,  0.07751720,  0.02078835,  0.05635993,
  -0.06378584,  -0.06076276,  -0.07756604,  -0.06106726,  -0.00321470,  -0.03722516,  -0.00960834,  -0.00368030,
  -0.06033084,  -0.03904917,  -0.18208474,  0.13745596,  -0.04169795,  -0.08571774,  -0.05070419,  -0.01139463,
  -0.05123907,  0.04474196,  -0.05615697,  0.05769047,  0.07226577,  0.02439196,  -0.18185624,  0.14301416,
  0.02683388,  -0.04179988,  0.05308768,  -0.05176168,  -0.08287524,  0.05619073,  0.05166250,  -0.08655836,
  0.05623175,  -0.01918513,  -0.04985050,  0.11202383,  -0.02128772,  0.00243463,  -0.01334889,  0.05815129,
  -0.04614330,  -0.01173786,  0.01300135,  0.04192612,  -0.00666054,  -0.01170599,  -0.02787350,  0.11389188,
  0.08484364,  -0.03847471,  -0.02816958,  -0.11584264,  -0.02172787,  -0.05566191,  -0.01400773,  -0.02210293,
  0.07754032,  0.03424748,  -0.09794554,  -0.00682213,  -0.00245904,  -0.03236654,  -0.09933444,  -0.02445146,
  -0.08048988,  -0.03707311,  -0.11762580,  -0.04700864,  0.00216248,  -0.05253757,  -0.12428159,  -0.02330395,
  0.05571806,  0.06844972,  0.03290347,  -0.13451387,  0.00141178,  0.07603307,  -0.05718350,  0.05983397,
  0.02981354,  0.01284736,  -0.02662147,  0.01159571,  -0.08982359,  -0.04007556,  0.00360455,  -0.01055487,
  -0.06272098,  0.08189353,  -0.06018879,  0.05551018,  0.07189886,  -0.02491811,  -0.02329800,  0.10857487,
  -0.07264424,  0.08939555,  -0.00775909,  -0.08581232,  -0.03223107,  0.06683373,  0.05510671,  -0.02994440,
  0.04132288,  0.06856877,  0.08124052,  0.05630236,  0.01261707,  0.10707627,  0.03830040,  -0.03696285,
  -0.08519147,  0.03319826,  0.02145225,  -0.01108244,  0.07131609,  -0.05784132,  -0.02359691,  -0.09520486,
  -0.11489838,  0.03569544,  0.01471830,  0.00502868,  -0.05206649,  0.00710705,  -0.07489119,  -0.04031679,
  0.00683549,  0.06367424,  0.03529960,  0.05947274,  -0.12741078,  0.04099238,  0.01294618,  0.02296831,
  -0.01048976,  0.11037338,  -0.07595085,  -0.03485866,  0.14729640,  0.01962939,  -0.05401830,  -0.00527295,
  -0.06538099,  0.08919328,  0.06810526,  0.03987209,  0.02120978,  0.06092340,  0.01260043,  0.07616948,
  0.09313805,  0.03028207,  -0.00265150,  0.06445007,  -0.05026341,  -0.01019491,  0.03849695,  -0.08060349,
  -0.04649399,  -0.00060178,  -0.00755997,  0.06253139,  0.08799626,  0.05158189,  -0.02235699,  0.04074630,
  0.02390409,  -0.06056421,  0.13818642,  0.01412658,  -0.05580855,  0.08328733,  -0.04462717,  -0.01360757,
  0.00153993,  0.06961242,  -0.15472957,  0.03706861,  -0.03339928,  -0.05067915,  0.10857442,  -0.05067576,
  -0.12583551,  0.08834600,  -0.05480492,  0.06094581,  -0.05712135,  0.05023041,  -0.12932466,  0.02894150,
  0.07464767,  0.08072014,  0.05596728,  -0.05059556,  -0.02155712,  -0.00036767,  0.01704664,  0.00812769,
  0.02805573,  0.11329593,  -0.13107899,  0.02393759,  -0.02831734,  0.01430749,  0.12339578,  -0.06505375,
  -0.03926844,  -0.06484568,  -0.10092931,  -0.02105222,  0.02441265,  0.02660523,  -0.14633669,  -0.01673917,
  0.08093356,  -0.05465376,  0.04487289,  0.03194903,  -0.03418315,  -0.04127029,  -0.05392955,  -0.02473081,
  -0.03453578,  0.14149499,  0.00813508,  0.02223808,  0.05191823,  -0.01879569,  0.06826588,  -0.05477879,
  -0.04355103,  -0.04322416,  0.07512878,  0.04802962,  -0.04267102,  -0.00408606,  -0.01218748,  0.01726743,
  -0.11144123,  -0.02931950,  0.12867670,  0.11653966,  -0.11893906,  0.05804161,  0.09673786,  -0.01041991,
  -0.02227088,  0.02261603,  -0.10681102,  0.04562888,  -0.12582986,  -0.02168128,  0.10711910,  -0.01600436,
  -0.01468360,  0.07479899,  -0.04171980,  -0.05533295,  -0.08202677,  0.04379932,  -0.01947669,  -0.04021648,
  0.01718564,  0.03305799,  0.02484135,  0.09121444,  -0.09760968,  -0.03534527,  -0.02274409,  0.03538893,
  0.03863956,  -0.03704068,  0.03020057,  0.05531245,  -0.01760692,  -0.07427932,  0.04307837,  0.09635119,
  -0.05018080,  -0.06910454,  -0.07107106,  0.00096171,  0.00599284,  -0.05742046,  0.04219436,  -0.05472213,
  0.06299127,  -0.08451165,  -0.03909751,  0.04659073,  0.05908351,  0.03689890,  0.09359355,  0.09225300,
  -0.04889286,  -0.03199719,  0.03773399,  -0.01786981,  -0.06363115,  -0.07666840,  0.00187494,  0.05215977,
  -0.05690167,  0.05596424,  0.03674747,  0.01369352,  0.01521253,  -0.07180497,  0.07393551,  0.04702447,
  0.09544975,  -0.06870013,  0.00525290,  0.03948168,  0.05727918,  0.02424804,  -0.03391081,  0.02771406,
  -0.04759812,  -0.00391750,  0.01312047,  -0.00794930,  0.10021127,  -0.09190919,  -0.00009849,  0.06950089,
  0.01225906,  -0.06811778,  -0.04396426,  -0.04559109,  -0.01830857,  0.03268586,  0.04443000,  -0.00920546,
  0.15449718,  -0.00690170,  -0.07578789,  -0.01199948,  0.04256978,  -0.00057000,  -0.07050436,  0.05536454,
  -0.07642647,  0.10228985,  -0.02733238,  -0.03623545,  -0.03707905,  -0.01929673,  -0.10086856,  -0.01136063,
  0.04189765,  -0.06344607,  -0.04255457,  0.09375603,  -0.11390954,  0.01471675,  0.08664311,  0.03887955,
  0.06376524,  -0.11487212,  0.00475264,  0.06205566,  0.14004998,  -0.02118770,  0.11040701,  0.01358069,
  -0.08233961,  0.06079372,  -0.09047408,  -0.09654551,  0.07990447,  -0.11106965,  -0.06942502,  -0.05826449,
  -0.01295199,  0.01003289,  -0.00345698,  0.07358467,  -0.10808575,  -0.05297438,  -0.03370192,  -0.05223655,
  -0.07897551,  0.04364029,  -0.05677386,  0.01249560,  -0.00422757,  0.07438257,  0.00079747,  0.11170162,
  -0.01506883,  -0.09330003,  -0.05149276,  0.01084956,  0.00909971,  -0.04017833,  -0.09484425,  0.10666757,
  0.08730279,  -0.06438641,  -0.05672786,  -0.04990976,  0.03838417,  -0.07736932,  -0.14326881,  0.01934078,
  -0.04274144,  0.00936195,  -0.05107395,  0.05463703,  0.07897449,  0.00124828,  0.03464832,  0.08978990,
  -0.06252180,  -0.01350128,  -0.04891326,  -0.08703669,  -0.05927024,  -0.09188686,  0.07967666,  -0.03430812,
  -0.04937768,  0.06366812,  0.04073365,  0.06456292,  -0.06416108,  -0.14253840,  -0.07042865,  -0.00252398,
  0.00069102,  -0.01188766,  -0.01719874,  0.02928915,  -0.03722099,  -0.06375408,  0.05681755,  -0.00339015,
  -0.04968675,  -0.04704871,  -0.04677686,  -0.07785296,  0.00980234,  -0.06298689,  0.03332858,  -0.06011327,
  -0.10520805,  -0.06177429,  0.12741819,  -0.06841632,  -0.11385949,  -0.02281192,  0.03540771,  0.01930843,
  0.04234671,  -0.03106154,  0.10108981,  0.00630538,  -0.02356563,  -0.04274842,  0.07710168,  -0.01058552,
  0.02742586,  0.03333621,  0.01792298,  -0.07142447,  0.10868806,  0.07488125,  0.04717482,  -0.05501900,
  -0.04539746,  -0.05761338,  -0.02353632,  0.02466708,  -0.06451986,  -0.01139227,  -0.02536461,  -0.01176160,
  0.13048328,  0.02132810,  0.02930183,  -0.09605689,  -0.02409672,  -0.01501605,  0.05128359,  0.03311351,
  -0.07330608,  0.07676881,  0.01307747,  -0.10436770,  0.00662470,  -0.05441632,  0.00633531,  -0.09909057,
  -0.03836337,  0.02338020,  0.06726979,  0.00180546,  -0.02526598,  0.02795823,  0.07766057,  -0.08841840,
  -0.04883304,  0.04318383,  -0.02495977,  -0.09213457,  -0.04891824,  -0.06181866,  0.02883725,  0.05526855,
  -0.01427476,  0.04340371,  0.04035673,  -0.13799746,  0.05532110,  -0.05079873,  -0.00260463,  -0.12319875,
  -0.01004601,  -0.05754567,  -0.02820159,  -0.08563393,  -0.09692284,  0.05316041,  -0.02856146,  -0.12457769,
  -0.06509594,  -0.01342440,  -0.00457308,  0.03039080,  0.08278678,  0.03498465,  0.01784152,  -0.06500836,
  0.02879291,  0.01263828,  -0.12565121,  -0.02006127,  -0.04925922,  0.05811496,  0.04435203,  -0.06053059,
  0.03726405,  -0.01016202,  0.04562928,  -0.03435753,  0.07480650,  -0.02626948,  -0.03487991,  -0.06244843,
  -0.02617249,  -0.02896127,  0.06190515,  -0.01452956,  0.05323669,  0.04523956,  0.08278178,  -0.08133492,
  -0.02037379,  -0.14956360,  -0.02786555,  0.00958696,  0.02508069,  -0.05253638,  0.01009948,  -0.06942724,
  0.08579804,  -0.00271959,  0.12166811,  -0.07588498,  0.00541191,  -0.06251563,  -0.02518670,  0.07695294,
  0.10903645,  -0.06845503,  0.00994317,  -0.01169594,  -0.01755073,  -0.02581800,  0.05315391,  -0.13227676,
  0.06740560,  -0.10640080,  0.02611170,  -0.02940253,  -0.03525602,  0.09379295,  -0.08264928,  0.04643903,
  0.06999792,  0.09888641,  0.00520526,  -0.12469576,  -0.07588711,  0.05213632,  0.06937145,  0.07408006,
  0.08169117,  0.01215559,  0.05340891,  0.06762445,  0.07195917,  0.00050210,  -0.02469062,  -0.04424450,
  0.06128873,  0.01001277,  -0.01502567,  -0.00445491,  -0.00848250,  0.00770331,  -0.04910930,  0.01800584,
  -0.04712036,  0.10104273,  -0.04245296,  -0.04392201,  0.03294383,  0.06333350,  0.09010310,  -0.00849079,
  0.01083797,  0.00552237,  0.06998178,  -0.02469721,  -0.01769736,  0.07094420,  0.02885083,  -0.00556192,
  -0.00416201,  0.06786381,  0.13374551,  0.07527167,  0.01983534,  0.07777753,  -0.05231192,  0.03528020,
  -0.00521945,  -0.02636892,  0.03778483,  -0.05754484,  -0.00053029,  0.12435804,  0.11356333,  0.10152489,
  -0.01533357,  0.09283033,  0.02316810,  0.01860129,  0.08217526,  -0.00511348,  -0.00824658,  0.03027964,
  -0.07441395,  0.02691864,  0.02864025,  0.05122280,  0.02244695,  -0.02224057,  -0.09067646,  -0.03350898,
  0.03989400,  0.14819950,  -0.08384397,  -0.01953561,  -0.03000809,  0.09452748,  0.11105190,  0.04189532,
  0.04480760,  -0.00385929,  -0.09952962,  0.00906623,  -0.04605596,  0.12093738,  0.00870578,  -0.03226659,
  -0.08510839,  0.03669948,  -0.01531882,  -0.01335009,  -0.06855701,  0.07415847,  -0.03786876,  0.04037673,
  -0.07232542,  0.04659933,  -0.03096529,  0.06688548,  -0.14290059,  0.06650503,  0.01763209,  0.09492267,
  -0.08205231,  -0.03011396,  0.03850160,  -0.07063673,  0.01036126,  0.03662939,  0.04622490,  -0.04446546,
  -0.08890446,  -0.01064661,  -0.07706493,  0.09091592,  0.01878174,  -0.06620158,  -0.00637651,  -0.04867254,
  -0.01403564,  -0.04489261,  0.08554029,  -0.06213551,  -0.00547405,  -0.00799847,  -0.08539087,  -0.00348685,
  0.06296512,  0.00589599,  -0.01030173,  -0.04382683,  -0.12298556,  0.02263783,  -0.01105420,  -0.04664417,
  -0.13539465,  -0.08724466,  -0.08632641,  -0.01781769,  -0.01046027,  -0.00024872,  0.02269972,  0.07995304,
  -0.02545921,  0.00890924,  -0.07567687,  -0.11058392,  -0.11292881,  0.05509821,  -0.02387531,  -0.03886094,
  -0.02169503,  -0.06166689,  0.03724047,  0.04159083,  -0.04627314,  0.09544721,  -0.14667766,  -0.02160397,
  -0.04650911,  0.09976070,  0.00000844,  0.05599635,  -0.01815410,  0.09770574,  0.04565908,  -0.05645057,
  -0.07164247,  0.11237221,  -0.10541379,  0.02353672,  -0.16145349,  0.00935999,  0.02054001,  -0.02894462,
  -0.00096066,  0.09145126,  -0.09646228,  -0.04551170,  -0.10999189,  -0.04170152,  -0.07693960,  0.03114878,
  -0.10657518,  -0.00248482,  0.08460898,  0.07754247,  -0.08621570,  0.06226879,  -0.07569657,  -0.01536224,
  0.03022136,  0.03849884,  -0.08828773,  -0.01371970,  -0.04723117,  -0.05885876,  0.06431739,  -0.04798453,
  -0.00824601,  0.08823319,  -0.02823238,  0.01433522,  0.01526462,  0.05642303,  0.01519911,  -0.04631997,
  0.01987586,  0.04486687,  0.06312886,  -0.02263913,  0.00461451,  0.05129868,  -0.00892143,  0.07868764,
  -0.05572664,  -0.00729860,  -0.01938672,  0.01401723,  0.02427587,  -0.00564165,  0.08531421,  0.05548560,
  -0.13318789,  -0.01609351,  0.03602961,  0.04176739,  0.04729499,  -0.00465876,  0.01494549,  0.07276239,
  -0.12123045,  -0.09870195,  0.04068827,  0.07773631,  -0.12861750,  0.02937197,  0.01875563,  0.06360492,
  -0.06438075,  -0.00808321,  0.03312578,  -0.06133494,  0.00183063,  -0.03756068,  -0.04385540,  0.04750294,
  -0.06878678,  0.04809892,  -0.00253506,  0.04993717,  -0.04879250,  0.06111586,  -0.02715272,  0.02832903,
  -0.02449084,  0.05409279,  -0.04667812,  0.04860430,  0.01315264,  -0.05439705,  -0.04335593,  -0.04594719,
  0.03807194,  0.01965313,  -0.07438715,  0.07273442,  0.06694451,  -0.06930517,  0.05282545,  0.08479337,
  -0.01938119,  0.04280833,  0.04636790,  -0.08436818,  -0.01770324,  0.08917992,  0.06681432,  0.08929174,
  -0.01284074,  0.03594023,  0.08157234,  0.04384000,  0.03982548,  -0.01159747,  -0.08153263,  0.02863028,
  -0.04653355,  -0.04089067,  0.10913143,  -0.03143634,  -0.00735112,  0.05649713,  -0.03139419,  0.05155268,
  0.02596684,  0.03741125,  0.06641710,  -0.01121193,  -0.02689439,  0.01659073,  0.06658062,  0.07655006,
  0.01485587,  0.06750908,  0.07590939,  0.07398883,  0.05998071,  0.01227987,  0.04183061,  -0.09687724,
  -0.06551646,  -0.02766735,  0.02307981,  -0.04450210,  -0.07451685,  -0.00727719,  0.03527286,  0.13350734,
  0.05875611,  -0.09657107,  -0.05083435,  0.03491178,  0.01761542,  0.05840161,  -0.09469951,  0.03324631,
  0.03047051,  0.00716839,  0.00260662,  0.07794973,  0.09831746,  -0.04604651,  -0.05019534,  -0.04764103,
  -0.04968186,  -0.02083959,  0.08082354,  0.04414738,  -0.06194850,  -0.05314352,  -0.07022310,  -0.02157165,
  -0.08370206,  -0.07948873,  0.04319734,  -0.05106099,  -0.09731996,  0.01746130,  0.01039430,  -0.05170296,
  0.06838720,  -0.12168502,  -0.01233738,  0.11190131,  -0.09650522,  -0.07938465,  0.07006143,  0.03863422,
  -0.08842330,  0.05082095,  0.01116715,  -0.06986591,  0.08406238,  0.02647663,  0.01089043,  0.10030413,
  -0.12630223,  -0.11160985,  -0.00299763,  0.05374037,  -0.07333297,  0.00424816,  0.04370002,  -0.08314659,
  -0.06825285,  0.04844074,  -0.07159430,  -0.00687039,  -0.02399885,  -0.01560834,  -0.03231293,  0.03953779,
  -0.10751895,  -0.07329383,  0.01501800,  -0.07782282,  -0.02518434,  0.00713114,  -0.07933149,  -0.03700078,
  0.03303968,  -0.02940763,  -0.05093261,  -0.12758583,  -0.04268014,  0.00083001,  0.07414699,  0.06428544,
  0.03373460,  0.05844596,  0.06070363,  0.10221694,  -0.10351731,  -0.03739116,  0.08461411,  -0.00249588,
  -0.07538243,  0.03145063,  0.08000045,  0.06340083,  0.05041504,  0.05248296,  -0.02002882,  -0.03267311,
  -0.08422579,  -0.15225498,  0.09602169,  -0.12753545,  -0.06471171,  -0.13913302,  0.06637198,  0.00804681,
  -0.00121189,  0.04337059,  0.11171772,  0.08168282,  -0.05917792,  -0.04836572,  0.02733209,  -0.12253455,
  0.04671153,  0.02193630,  -0.03309381,  -0.09438726,  0.05280413,  0.13121784,  0.11289030,  0.01289047,
  -0.00301782,  -0.09732978,  0.02005744,  -0.12885436,  0.02947985,  -0.12057990,  0.03218078,  -0.09049831,
  0.03953747,  0.08415607,  0.14915359,  0.00948304,  0.02698223,  -0.07872790,  -0.00138196,  -0.07455426,
  -0.00639877,  -0.06105832,  -0.03230207,  0.09980295,  0.07141263,  0.00506967,  0.16342480,  -0.07089604,
  0.11009946,  -0.08199163,  0.10803904,  -0.13248785,  0.05170847,  -0.12560731,  0.05612676,  0.02109080,
  0.05145911,  0.07077558,  0.04162719,  0.04221892,  -0.03117011,  -0.00924765,  0.01650619,  -0.09109917,
  0.14405338,  0.01119118,  0.13831812,  0.00449600,  0.05563606,  -0.10714822,  0.00062703,  -0.09821802,
  -0.01906773,  -0.09955088,  -0.01933546,  -0.07425096,  0.06504983,  -0.04305829,  0.03886519,  -0.06736955,
  0.04825424,  -0.00013952,  -0.06201399,  -0.08895779,  0.09365111,  -0.13022268,  -0.01100399,  -0.04132921,
  0.12183490,  -0.09683361,  0.09788511,  -0.07517368,  0.08882405,  -0.07899451,  -0.11615687,  -0.10840708,
  -0.03436227,  0.01594053,  0.00846834,  0.07059294,  0.04433487,  -0.09399450,  0.09464463,  -0.10258515,
  0.04831115,  -0.09006600,  -0.03877124,  -0.07462334,  -0.00656979,  0.05237925,  0.03253459,  0.08139741,
  0.01278707,  0.04010028,  0.10335242,  -0.06879913,  0.01605496,  -0.05267218,  -0.12514107,  -0.03932354,
  -0.06342211,  -0.06588986,  0.08608955,  0.12574884,  0.10882840,  0.00190075,  0.04830894,  0.10346171,
  0.05503456,  -0.01452863,  -0.01738063,  -0.14284626,  -0.07696877,  -0.02094980,  0.07317168,  -0.03780583,
  0.09238549,  -0.09094259,  0.08143390,  0.08660181,  0.06419412,  -0.00879199,  0.04860263,  -0.10043116,
  0.05417514,  -0.02701972,  0.00670247,  -0.03222363,  0.12199192,  0.03747136,  0.08157028,  0.00822461,
  -0.08721530,  -0.02183495,  0.15018788,  -0.04788577,  -0.08921074,  0.12804744,  -0.01424183,  -0.03585495,
  0.12274966,  0.06710010,  0.01085298,  0.04647102,  -0.00610041,  -0.03139697,  0.10898399,  -0.08128301,
  0.06835656,  0.02270919,  -0.04108974,  -0.02746165,  0.12702392,  -0.04086893,  0.10506605,  -0.00259689,
  -0.10289292,  0.00005698,  0.16263597,  -0.08637777,  0.05240957,  0.10158136,  -0.00314958,  0.06266038,
  0.12538715,  0.05780470,  0.00892548,  -0.02815105,  -0.11011201,  0.13572940,  0.17594960,  -0.05870680,
  -0.04492811,  -0.01581685,  0.05470751,  -0.01508987,  0.12301204,  0.02956058,  -0.00772139,  0.02944897,
  -0.12769482,  0.14879352,  0.15050629,  -0.09232945,  0.05548406,  -0.04020860,  -0.07933723,  0.07711056,
  0.09930252,  0.13360935,  0.12286941,  -0.10014910,  -0.06664074,  0.02059950,  -0.01396541,  -0.01592118,
  -0.01074964,  -0.01710499,  0.02043628,  -0.06536052,  -0.01743611,  0.13536146,  0.05632709,  -0.04741456,
  -0.02931978,  0.16499905,  -0.02778476,  -0.03678459,  0.01849544,  0.05671193,  0.03527028,  -0.05023117,
  0.05133795,  0.11987672,  -0.00703240,  -0.10743490,  -0.04335186,  0.03087117,  -0.13731214,  -0.01678045,
  -0.02406367,  0.01944647,  0.03813630,  -0.02989214,  0.05154502,  0.00839018,  0.05752366,  0.00855373,
  -0.04340259,  0.08485296,  -0.15770434,  -0.00245175,  0.05473867,  0.10865757,  0.00210374,  0.05370090,
  -0.04209872,  0.07715862,  -0.00183953,  -0.03528588,  0.06276692,  -0.06133974,  -0.15959187,  0.08931395,
  -0.06236476,  0.11427546,  -0.02916816,  0.06857410,  0.00980634,  0.07843707,  -0.02465898,  -0.08764913,
  -0.00480995,  -0.00177015,  -0.14336631,  0.08501267,  -0.05552254,  0.08085176,  -0.03893600,  -0.04884320,
  -0.06970043,  0.03638556,  0.11715016,  -0.04661096,  0.05137490,  -0.06690355,  -0.04304929,  0.03061218,
  -0.05934498,  0.02202102,  0.00813192,  0.05777514,  0.02220397,  0.08760069,  0.00817457,  -0.04641809,
  0.04375270,  -0.00225760,  -0.01776710,  -0.00000851,  -0.05147143,  0.08169454,  -0.08784191,  -0.04806025,
  -0.04781974,  0.05423125,  0.06988717,  -0.10929926,  -0.00283392,  0.06714908,  0.08783619,  0.01712382,
  0.00670573,  -0.03117685,  -0.10519069,  -0.10951267,  0.02269698,  0.11028645,  -0.03806508,  -0.07323083,
  -0.05068289,  -0.06836446,  0.15745369,  -0.03322306,  0.02630408,  0.05985780,  -0.07775041,  -0.04975807,
  0.10070577,  -0.03928162,  -0.03274252,  -0.01719072,  0.06601839,  -0.05421795,  0.13446866,  -0.03705817,
  0.08002374,  -0.07660726,  0.00993355,  -0.07056181,  0.08950769,  0.02899312,  0.05005575,  -0.02315174,
  -0.09083590,  -0.00841359,  0.12185766,  -0.00230193,  -0.04194469,  -0.06870196,  -0.11312923,  0.02601698,
  -0.02687883,  -0.01349554,  -0.09726076,  -0.06328561,  -0.02799283,  -0.06487411,  0.07032008,  0.07182762,
  0.06778522,  -0.04237821,  -0.10281985,  -0.01092702,  -0.01143828,  0.01769280,  -0.01708156,  0.06438032,
  -0.04775135,  0.00264060,  -0.03560038,  -0.05219952,  -0.08100028,  -0.01861936,  0.03619398,  -0.11755160,
  0.00909767,  0.07965212,  -0.01841874,  -0.07035246,  0.01939080,  0.01563627,  -0.14079462,  0.04249023,
  0.00214429,  0.03368044,  0.07533095,  0.01432388,  -0.01795826,  0.01857517,  -0.10700297,  0.03694228,
  -0.06999758,  -0.06054121,  -0.24747768,  -0.00138165,  0.04318447,  0.04606796,  0.01093137,  0.05830821,
  -0.07747006,  0.04177943,  0.03616029,  0.09443678,  -0.03889471,  -0.00733240,  -0.21483888,  0.01325531,
  0.04332792,  0.02128906,  -0.03890203,  0.08150337,  -0.10274121,  -0.03035323,  0.03753576,  -0.02923823,
  -0.07471814,  -0.07754142,  -0.20348127,  0.02018018,  -0.02958688,  0.06498947,  0.09047221,  -0.04856522,
  -0.01092347,  -0.05121972,  -0.04613209,  -0.08141597,  -0.12923448,  -0.05009884,  -0.02988097,  -0.02502911,
  0.05817134,  -0.05703223,  -0.04345301,  0.00646831,  -0.11472564,  -0.03765605,  -0.06587133,  0.07838655,
  -0.07382276,  -0.04398754,  -0.09465492,  -0.02993206,  -0.05277025,  0.08331727,  0.11002894,  0.00161633,
  0.04257740,  -0.04324771,  -0.10565344,  -0.00499563,  -0.05796622,  -0.06068485,  0.07806807,  -0.04384486,
  0.01362206,  0.05377636,  0.02871074,  0.01003184,  0.04186410,  -0.10034898,  -0.09979433,  0.01120646,
  -0.00819975,  0.03187833,  0.12762852,  -0.00500678,  0.05494134,  -0.09038840,  0.06199855,  0.00278150,
  0.07550804,  -0.12567981,  -0.05812459,  -0.05223800,  -0.03589794,  -0.04351883,  0.06700531,  0.08607379,
  0.03957052,  -0.07726955,  0.02063512,  -0.03735921,  -0.01557820,  0.02371216,  -0.06722788,  0.06844271,
  -0.00905310,  0.03220927,  0.01936044,  0.04940147,  0.02346198,  -0.05153394,  -0.03544863,  -0.00247323,
  0.00121851,  -0.12306497,  -0.04473926,  -0.01645856,  -0.04461879,  0.09537783,  0.10926895,  0.05960180,
  -0.06363153,  0.13177197,  0.00031435,  -0.01087329,  -0.06331956,  -0.09113591,  -0.10247821,  -0.08047868,
  -0.05999722,  -0.00480802,  0.02071011,  0.00172128,  -0.07312700,  0.03519997,  0.07495808,  -0.07999217,
  -0.00445861,  -0.02529055,  -0.13110067,  -0.00029208,  0.03372765,  -0.02631596,  0.01663157,  0.12259344,
  0.04736587,  0.00630844,  -0.07129814,  -0.10057892,  -0.03437747,  -0.07986185,  -0.13809191,  -0.01245415,
  -0.00360228,  0.00341583,  -0.03667884,  0.00620202,  0.02121669,  -0.03202019,  -0.06297913,  -0.05963567,
  0.00287111,  -0.10337184,  0.03825001,  0.06983682,  0.05766178,  -0.05860746,  -0.05527290,  0.10041335,
  0.12128136,  -0.03362364,  -0.01273849,  0.01273304,  -0.06647417,  -0.08100898,  0.02734722,  -0.08591392,
  0.03625697,  -0.09971040,  -0.10824310,  0.06445245,  0.07696043,  0.08623338,  -0.01211000,  0.03610980,
  -0.06079153,  -0.07459630,  -0.08079500,  -0.06233862,  0.03578202,  0.04403076,  -0.13250661,  0.12052850,
  0.03162885,  0.06651175,  -0.05903320,  -0.02026169,  0.02106204,  -0.02512210,  -0.15100467,  -0.00786814,
  0.05449849,  -0.06753200,  -0.09686605,  0.09927461,  0.07517644,  0.07841494,  -0.09607318,  -0.13522929,
  0.01969082,  0.02151118,  -0.01506706,  -0.03608443,  0.07777513,  -0.09663881,  -0.00069058,  -0.01576982,
  0.01661736,  0.05018309,  0.05144108,  -0.02916811,  -0.04779063,  0.04379934,  0.00141439,  -0.05298284,
  0.06699649,  -0.00326518,  0.05831700,  -0.01094402,  -0.01469378,  -0.04950674,  -0.00478254,  -0.10785550,
  0.00736210,  0.05717006,  -0.04524385,  0.03102696,  0.01642635,  -0.00403608,  0.06157598,  -0.03321353,
  -0.12020366,  -0.03008944,  -0.03708848,  -0.09814852,  -0.08174627,  0.11112579,  0.02081065,  -0.02627732,
  0.03187463,  0.09420468,  0.01191538,  -0.00363765,  -0.13159779,  0.09177173,  0.02745900,  -0.05413022,
  -0.09331121,  0.10134681,  -0.00094998,  -0.13016768,  -0.04957147,  -0.02600145,  0.06002779,  -0.08108878,
  -0.02807873,  0.08467247,  0.04566796,  0.00425533,  -0.09199257,  0.01525008,  -0.09959390,  -0.03264367,
  0.04742196,  0.03167614,  -0.03017557,  -0.05881702,  -0.15439473,  0.11030520,  0.00540317,  -0.11562194,
  0.01734090,  -0.02408440,  -0.07815560,  0.07563898,  0.02685612,  -0.08318561,  -0.00285290,  -0.02411313,
  -0.04309711,  -0.00217878,  0.05222576,  -0.05774397,  -0.00794332,  -0.02735906,  -0.03187698,  -0.04955186,
  0.04016759,  0.00950083,  -0.00516601,  0.02772955,  -0.00018469,  -0.02606693,  -0.02418978,  -0.04455476,
  -0.04842098,  0.03871305,  -0.07910001,  -0.03278142,  -0.03279675,  0.01555800,  -0.01374201,  0.00661645,
  -0.01341153,  -0.01413173,  0.09306341,  -0.00555468,  -0.00694516,  0.12892339,  -0.07390901,  0.05813115,
  0.01158895,  0.11854264,  -0.02657627,  -0.06864975,  -0.05218884,  0.07664403,  0.12320124,  0.04211553,
  -0.00134292,  0.01128679,  -0.05408890,  0.03501531,  -0.08714913,  0.07291387,  -0.16449474,  -0.01300354,
  -0.03159938,  0.08016763,  0.14456765,  -0.07436503,  -0.03347938,  0.05829928,  -0.09610232,  0.05838742,
  -0.05294211,  0.07310858,  -0.10559388,  -0.02075046,  0.11387042,  -0.03971495,  0.10745388,  0.02183047,
  -0.03140320,  0.02951471,  -0.06247872,  0.01646201,  -0.00709014,  0.09970806,  -0.05572552,  0.01721455,
  0.04324477,  -0.07112762,  -0.00414643,  0.06634770,  -0.04506895,  0.09103036,  0.05886165,  -0.01533885,
  0.02263699,  0.14245059,  -0.13235986,  0.04824036,  0.06691328,  -0.10150916,  0.00621869,  0.10668220,
  0.03617204,  0.08636949,  0.12298838,  -0.01477054,  -0.00753669,  0.15111789,  -0.06055016,  -0.01004093,
  -0.00278695,  -0.01880958,  0.10063411,  0.08388102,  -0.10536034,  -0.00873572,  0.04836160,  -0.11789051,
  -0.06503452,  0.12697975,  -0.02123498,  0.04886491,  -0.15666395,  0.03132541,  0.00291092,  0.03276671,
  -0.09075361,  0.04969478,  -0.07229189,  0.02225184,  -0.06838457,  0.09647230,  -0.07044803,  0.00824049,
  -0.12752096,  -0.07872134,  0.10308012,  0.02227007,  -0.08461718,  0.11867531,  -0.11461369,  0.09134756,
  -0.08279955,  0.01519062,  0.02393549,  -0.06195051,  0.00243794,  -0.03103356,  0.01979466,  0.12141085,
  -0.00773766,  0.05467177,  0.07549842,  0.06122947,  -0.06218659,  -0.03622443,  -0.05075071,  -0.07176208,
  -0.02713806,  -0.04818090,  -0.04694305,  0.11061336,  0.07333621,  -0.03858633,  -0.04262606,  0.03984830,
  0.05728160,  -0.04712370,  -0.02588626,  -0.04672711,  0.00425233,  -0.04084456,  0.05280208,  -0.02799543,
  0.05378761,  0.05862284,  -0.01961728,  0.02556150,  -0.00190330,  -0.03780731,  0.02226660,  0.01439128,
  0.03174498,  -0.09701001,  -0.08895992,  0.08297624,  -0.09196594,  0.08012109,  0.02742911,  -0.05587950,
  -0.13348548,  0.03252431,  0.09160797,  0.00649458,  0.04124968,  0.06212454,  -0.01575657,  0.02936662,
  0.02171892,  0.06677912,  0.07324592,  0.05169458,  -0.10694210,  0.13011040,  0.00198811,  -0.05418313,
  0.04822413,  -0.11604992,  -0.01226738,  -0.01832674,  -0.02084489,  0.02684556,  0.03803273,  0.12437248,
  0.01058761,  0.08409372,  -0.01280212,  -0.03382462,  -0.03175344,  -0.09509534,  -0.00837981,  -0.03986903,
  0.00634894,  -0.03514033,  -0.03226167,  0.10419599,  0.00582057,  -0.01437072,  -0.07210276,  -0.01378978,
  -0.02688837,  0.00228670,  -0.01079736,  0.05037888,  0.01376290,  -0.02834916,  -0.01017020,  0.08878736,
  0.02851580,  -0.05291765,  -0.10169078,  0.06837158,  0.06996729,  -0.11204757,  -0.00833739,  -0.02849649,
  -0.01151748,  0.03110030,  -0.00975773,  0.06871701,  0.02202218,  -0.02462118,  -0.04525725,  0.01294173,
  0.01262502,  0.05547375,  0.01682384,  0.07322384,  -0.07002652,  0.05158728,  0.10525974,  0.08863393,
  -0.00564547,  0.02449315,  -0.15008241,  0.03732128,  -0.09790082,  -0.06506100,  -0.06965911,  -0.03024657,
  -0.03602557,  0.04441632,  0.08545372,  0.08904368,  -0.03752305,  -0.03475774,  -0.09686047,  -0.01861710,
  0.04076628,  -0.05395450,  -0.02218276,  0.10882554,  0.09538255,  0.02677828,  0.06940907,  -0.01524736,
  -0.04935639,  -0.13399489,  -0.09955846,  -0.10623438,  0.03997336,  0.01553267,  0.01698511,  -0.00573599,
  -0.05737584,  0.07042713,  0.04059851,  0.10728882,  -0.02765898,  -0.15217306,  -0.07382944,  -0.04424521,
  0.01026056,  -0.00728834,  -0.02136807,  0.02611169,  -0.04723264,  0.05142847,  0.15682483,  -0.00442110,
  0.02013272,  -0.14330524,  -0.01387525,  -0.06576858,  0.04173950,  -0.00339712,  0.00652387,  -0.00505132,
  -0.02484823,  -0.02514413,  0.08279789,  -0.01141546,  0.06351425,  -0.00255429,  0.04616404,  0.00073325,
  -0.04019191,  0.04316333,  0.00737680,  -0.02098144,  -0.04295586,  0.02789413,  -0.01279567,  0.00215487,
  0.01372312,  0.00975877,  -0.00989394,  -0.09893174,  0.08102739,  0.02018240,  0.06970935,  -0.13160399,
  -0.05584584,  0.00984794,  0.05090614,  0.04816359,  -0.08000573,  0.05153207,  0.04622006,  -0.10663653,
  0.08294784,  0.02296329,  0.00088911,  -0.06227586,  -0.04645475,  0.05503246,  0.01229609,  0.05412896,
  0.00665242,  0.03542754,  0.05687501,  -0.08670738,  -0.03274396,  -0.07223505,  0.10890540,  -0.15454324,
  0.04679887,  -0.09797133,  0.12499838,  0.08571329,  0.03937251,  0.00281897,  0.03051908,  -0.01753154,
  -0.05159694,  0.03587272,  0.06011311,  -0.10244224,  -0.05133238,  0.04802142,  0.05523681,  -0.10382433,
  0.04767245,  -0.00916527,  0.10010646,  -0.02485509,  -0.04191990,  0.06071778,  0.07484972,  -0.09157176,
  -0.09084088,  -0.03792782,  0.13287097,  0.00923051,  0.03440056,  0.12245253,  0.00143408,  -0.05646652,
  0.03110337,  0.05148619,  0.01880250,  -0.05326729,  0.01544989,  -0.01910983,  0.06582796,  -0.05757319,
  -0.02591177,  0.05437796,  -0.05084890,  0.00919276,  0.04641483,  0.01731612,  0.07040153,  -0.00230335,
  0.06007828,  0.08925541,  -0.02761285,  0.02448279,  0.01341582,  -0.00917458,  -0.15605029,  0.01795699,
  -0.00690370,  0.05832758,  -0.05177537,  -0.01056312,  0.02313299,  0.05197930,  0.02698479,  -0.00205898,
  -0.01521518,  -0.03792225,  -0.04455873,  0.00781645,  0.01015234,  -0.03839771,  0.09643191,  -0.02457747,
  0.00225041,  -0.01293353,  0.08892113,  -0.08140567,  0.09220928,  -0.10113159,  -0.02685747,  -0.07034992,
  -0.00565790,  0.04297931,  -0.03470188,  -0.00016870,  0.04730862,  0.00542360,  0.08027559,  -0.05417299,
  -0.04979821,  -0.10009576,  -0.02840534,  0.09065641,  -0.05233800,  0.00563440,  -0.05891787,  0.05739447,
  -0.01467955,  -0.00573941,  0.02228243,  -0.10375880,  0.00282814,  -0.06321727,  0.05563639,  0.07365616,
  0.03825857,  0.02069215,  0.08173546,  0.01526337,  0.01258506,  0.06571443,  -0.00230735,  -0.00826255,
  -0.00704788,  0.10443483,  0.06720956,  0.07961067,  -0.01145017,  0.05824957,  0.05253239,  -0.09515457,
  -0.03831400,  0.01367546,  -0.05009774,  -0.03116277,  -0.04042779,  0.07767043,  -0.00339249,  -0.05708231,
  -0.01893429,  -0.05863211,  -0.03267721,  0.02440473,  0.12714334,  -0.00232969,  0.08872379,  -0.06579568,
  -0.00157643,  -0.01401522,  0.07064527,  0.01838165,  -0.07674275,  -0.07170193,  0.03930007,  0.04144067,
  0.12281638,  0.06855339,  -0.02522222,  0.04447130,  -0.00557534,  0.09180945,  0.05601424,  0.03219169,
  -0.01575777,  0.00525245,  0.03537331,  0.01180119,  0.06155527,  0.12849066,  0.08353486,  -0.06077113,
  0.06650514,  0.09773583,  0.11919938,  0.00225448,  0.05137083,  0.00992166,  -0.04467284,  0.01130504,
  0.06213602,  -0.00813037,  -0.05733442,  0.05546497,  0.08933669,  0.14762470,  0.02015210,  0.12099829,
  -0.07772078,  0.05224349,  0.01039144,  -0.00204350,  0.10425008,  -0.01047084,  -0.13011508,  -0.00993290,
  -0.01457105,  0.06961282,  -0.09551418,  -0.00276140,  -0.00267710,  0.07579570,  -0.05185690,  -0.04641865,
  0.01466503,  0.11560089,  -0.09547148,  -0.05957551,  0.02743908,  -0.00730557,  -0.06516733,  -0.00310786,
  0.01059894,  -0.03293430,  -0.00943625,  0.01215422,  -0.04971228,  -0.03935461,  0.05791260,  0.03765920,
  -0.12460538,  -0.06969725,  -0.17105061,  0.00551696,  -0.09259648,  0.04347922,  -0.11302855,  -0.06462881,
  -0.01225362,  0.07981578,  -0.01956276,  0.02024933,  -0.02927677,  -0.07365759,  -0.18073621,  0.05899161,
  -0.09501528,  -0.00405340,  -0.00075457,  -0.00660765,  -0.10707229,  0.09939186,  -0.00401506,  -0.06773487,
  -0.07071212,  0.02717996,  -0.09607802,  -0.00199786,  0.00775389,  -0.04393452,  -0.08323842,  0.06929523,
  0.01469100,  0.06466763,  -0.03919959,  -0.05486540,  -0.05486000,  -0.01277134,  -0.09639454,  0.03519071,
  -0.04675252,  0.03691170,  -0.01944154,  0.02230098,  0.00730941,  -0.05671369,  -0.03157526,  -0.06342682,
  -0.10210492,  -0.03815395,  -0.08153986,  0.00288383,  -0.05507752,  0.07945310,  -0.03761543,  0.08653700,
  -0.01743991,  0.04536629,  -0.07389566,  -0.03218355,  -0.01387617,  0.01642323,  0.01269451,  -0.01960992,
  -0.11104424,  -0.00622498,  -0.10370110,  -0.00577285,  -0.02618331,  -0.02782256,  -0.01247710,  -0.06183864,
  -0.10680310,  -0.06952635,  0.08361347,  -0.07031947,  -0.09316653,  0.00741031,  -0.05269316,  0.04056194,
  -0.06925054,  -0.04170944,  -0.10075311,  -0.02634319,  -0.09842094,  -0.01279899,  -0.00723034,  -0.02133738,
  -0.03829405,  0.01529645,  -0.13306880,  0.00709604,  -0.07449455,  -0.03505374,  -0.14588653,  -0.00047641,
  -0.00290969,  0.07147398,  0.12077495,  0.04801081,  -0.07780199,  0.03739842,  -0.10461753,  -0.03412380,
  0.01189233,  -0.09141159,  -0.10461738,  -0.04901272,  -0.07692274,  0.03457284,  -0.01248537,  -0.02625437,
  -0.07791061,  0.07032460,  -0.06288856,  0.04575751,  0.07072187,  -0.02397599,  -0.17572056,  0.12184699,
  -0.03586956,  -0.12357752,  0.01553231,  -0.05645767,  -0.05052700,  0.05605118,  0.00188949,  -0.02868079,
  -0.02296811,  -0.03744650,  -0.11426055,  -0.04086971,  0.04178722,  -0.10896485,  -0.08503295,  -0.03980516,
  0.03160693,  0.03189250,  0.02456285,  0.11390948,  -0.06310406,  -0.00287113,  -0.01821407,  0.08169577,
  0.02380101,  -0.08466020,  -0.07783961,  0.09506779,  -0.01339450,  -0.02943501,  -0.06024630,  0.16949074,
  -0.01565905,  0.02961723,  -0.00157004,  -0.02813427,  0.05522892,  -0.06569378,  -0.09890816,  0.00521547,
  0.10584756,  0.04800978,  0.01184191,  0.06879021,  -0.00512944,  -0.03848256,  -0.08117492,  -0.04201315,
  0.05130466,  -0.16729426,  -0.17623474,  -0.02693628,  0.10514922,  -0.05823955,  0.01883391,  0.07056396,
  0.03451585,  0.02493110,  -0.07054543,  0.07191943,  -0.01168240,  -0.03752766,  -0.08833000,  -0.06243888,
  -0.01094425,  0.05722607,  0.02347646,  -0.01598937,  -0.04853952,  0.01560754,  -0.08712310,  0.02795009,
  -0.00011126,  -0.13785154,  -0.16103573,  -0.01363187,  0.07796013,  -0.07238850,  0.06770416,  0.14469865,
  -0.01878569,  -0.05693268,  -0.08410347,  0.02415517,  0.12857282,  -0.03621418,  0.01107681,  0.05902297,
  -0.01227059,  0.01949602,  0.03123078,  0.09075555,  -0.04189650,  -0.05974078,  0.05823074,  0.04161901,
  -0.02221218,  0.07472227,  0.02859249,  -0.07533490,  -0.02562733,  -0.01254069,  -0.03119985,  0.14244562,
  -0.09119080,  0.04425056,  0.03077909,  -0.04717400,  0.04504061,  0.07268903,  -0.01430319,  0.03432838,
  0.11019134,  -0.01781684,  -0.04774779,  -0.03486458,  0.02655362,  -0.00652271,  -0.06847288,  0.08357962,
  0.09046103,  0.03457246,  0.10384639,  -0.09035142,  0.04150040,  -0.03189933,  0.01487242,  -0.05479838,
  -0.06363666,  -0.05684501,  -0.12318140,  0.06665974,  0.08085178,  0.01582273,  0.04048005,  0.07489832,
  -0.03026037,  -0.01645589,  0.02197181,  0.01966960,  -0.04507916,  -0.03742756,  -0.00675232,  0.01049999,
  0.09162822,  -0.03349739,  0.10199447,  0.04056034,  -0.07305241,  -0.05892418,  0.10468701,  0.01958451,
  -0.10271943,  0.02710509,  0.07262515,  0.00067260,  -0.05161959,  -0.02989976,  0.00534658,  0.07578839,
  -0.04243509,  0.01770253,  0.02625810,  -0.00222215,  -0.08438707,  0.04669606,  -0.03634222,  0.00304346,
  -0.08289554,  -0.02524865,  0.05956586,  -0.03531383,  0.06527044,  0.03955645,  -0.01500615,  -0.06051933,
  -0.13172936,  0.06720899,  -0.02494245,  -0.10725518,  -0.00292779,  0.05241561,  -0.07383616,  -0.01375488,
  -0.01202050,  0.08574856,  0.05371869,  -0.01648363,  -0.11167095,  0.00501652,  0.04061062,  0.00324032,
  -0.03514038,  -0.04214270,  -0.02378946,  -0.10453203,  0.07316627,  -0.06191142,  0.04697685,  -0.06526124,
  -0.00436663,  0.08013751,  -0.07927330,  0.05661063,  -0.06538109,  0.04630166,  -0.14531599,  0.03635604,
  0.04753891,  -0.07959159,  -0.02579403,  -0.03058899,  0.07529190,  0.05248767,  0.00361527,  0.03709551,
  0.06009834,  -0.01670342,  -0.05940364,  -0.08883057,  -0.01423254,  0.00930428,  0.11867644,  -0.08695288,
  -0.00030700,  0.08084890,  0.07966553,  -0.07616656,  0.03136024,  0.05649809,  -0.08086613,  0.03788610,
  -0.02808149,  -0.03395743,  0.06495581,  0.06328185,  -0.04450354,  -0.08367874,  0.03775623,  -0.07094728,
  0.04696602,  0.04004012,  -0.04792755,  0.00882088,  0.05061576,  0.02969060,  0.05636777,  -0.01377484,
  0.05739719,  0.06099949,  -0.03717047,  -0.02832024,  -0.06277989,  -0.04369769,  -0.11570717,  0.04724192,
  -0.07389820,  0.11104333,  0.10365433,  0.06825385,  0.03643649,  -0.03551836,  -0.04799872,  -0.08863585,
  0.01824373,  0.01969388,  0.04481361,  0.01114106,  -0.00916240,  0.05591412,  0.05896583,  0.04113693,
  0.08014800,  -0.01134539,  -0.07158225,  -0.02324177,  -0.08557683,  -0.02349338,  -0.07498427,  0.01662311,
  -0.03667194,  0.06104562,  -0.04020719,  0.06870617,  0.00152098,  -0.02063887,  0.03109006,  0.06176545,
  -0.00538769,  0.00021766,  -0.04394721,  -0.05839257,  0.02436862,  0.00643539,  0.02115561,  0.06680074,
  0.00541615,  0.05138618,  0.02483001,  -0.09687208,  -0.05707605,  0.04533124,  -0.08187424,  -0.09300590,
  -0.02670158,  -0.04310997,  0.08650042,  0.00136779,  -0.04107437,  -0.00805876,  0.02221457,  -0.10095508,
  -0.05600944,  -0.00625548,  -0.07592735,  0.03895508,  0.04262832,  -0.01375287,  -0.04808225,  0.03301122,
  0.01384219,  -0.04934811,  0.01730969,  -0.05536805,  -0.05315071,  0.05566226,  0.00203981,  0.01466536,
  -0.06894585,  0.09382049,  -0.00500537,  0.04442608,  0.06608859,  -0.03288659,  -0.03477066,  -0.10503938,
  0.01107514,  0.03539850,  0.04949677,  0.09029812,  -0.10586046,  0.00869399,  -0.02504816,  -0.01883360,
  0.00972380,  -0.02305204,  0.02936154,  0.03623205,  -0.01694072,  0.12867028,  -0.11711626,  0.04232303,
  0.02312623,  0.01316527,  0.01079236,  0.02820593,  0.08831015,  0.00347939,  0.02870597,  -0.04431137,
  -0.01163808,  0.02258607,  -0.02302578,  0.02728286,  -0.02104670,  0.00423202,  -0.09702758,  0.06408492,
  -0.02781726,  -0.05187041,  0.05714628,  -0.04094324,  -0.07249308,  0.05085705,  -0.13795830,  -0.02240084,
  0.01993913,  -0.03929064,  -0.07658738,  -0.05990275,  -0.03674139,  0.08108714,  0.00863651,  -0.10979430,
  0.03254390,  0.11021750,  -0.06494760,  -0.02514319,  -0.01708133,  0.05508085,  -0.07608093,  0.01646314,
  -0.00101204,  -0.00310543,  -0.02578500,  -0.07774563,  -0.08549225,  0.05965472,  -0.13705815,  0.03917399,
  -0.04542146,  0.00376089,  0.00650496,  -0.01796423,  -0.07536791,  -0.01286366,  -0.01931262,  0.01291550,
  -0.07973632,  0.06697191,  -0.04459924,  -0.00878272,  -0.02176611,  0.02127333,  -0.12392660,  -0.03177209,
  0.04357032,  0.12672767,  0.05065187,  -0.00406547,  0.05041182,  0.03788379,  -0.02262257,  -0.04822235,
  -0.12059088,  0.00590198,  -0.01277636,  -0.00672547,  -0.07484207,  0.09693972,  -0.01273810,  -0.06977639,
  0.10355631,  -0.06542431,  -0.01685767,  0.00097433,  -0.04085867,  0.00103774,  0.00216074,  0.10461164,
  -0.01135365,  0.11202107,  0.01666599,  -0.09710896,  0.01345467,  0.02360543,  -0.08575673,  0.07652523,
  -0.09402938,  -0.01222903,  -0.06501444,  0.01477502,  -0.12534517,  -0.02651463,  0.00608048,  -0.10988168,
  -0.00797385,  0.01763494,  -0.03466557,  0.00534636,  -0.07218469,  -0.00518061,  -0.04534999,  -0.00054278,
  -0.05382435,  0.11317357,  -0.04248542,  -0.02050415,  0.06313697,  -0.01187538,  0.10305908,  0.00414681,
  0.02809311,  -0.00794060,  -0.03741500,  0.08148129,  0.04979222,  0.06895671,  0.02691674,  0.09534052,
  0.03919101,  -0.06125331,  0.05553813,  -0.03215218,  0.01079470,  -0.07388394,  -0.03758216,  -0.00262317,
  0.03833208,  0.09036036,  0.06636468,  0.01111908,  -0.08386593,  0.05741895,  0.06930999,  0.03696696,
  -0.00512032,  -0.09663589,  -0.01235520,  -0.00549911,  0.01548646,  0.05898695,  0.16129576,  0.09322286,
  -0.08880524,  0.08626614,  -0.08650254,  0.00050513,  0.14178744,  -0.04724905,  0.01302124,  0.01283566,
  -0.07513013,  0.00569213,  0.08516449,  0.05367685,  -0.13932580,  0.12366629,  -0.10005597,  0.04087066,
  0.02066959,  -0.08731578,  0.00397279,  0.07150232,  -0.09316369,  0.05755786,  0.00346871,  0.01337956,
  -0.08903879,  -0.01503919,  -0.04080765,  -0.02320571,  0.02313986,  0.04102401,  -0.07015140,  -0.00452170,
  -0.05210569,  0.03551952,  0.08161115,  0.13575919,  -0.10270625,  0.09574005,  -0.00818743,  0.04124177,
  0.09520286,  -0.06373908,  0.06102822,  0.00313319,  0.03859382,  -0.06376671,  0.08052859,  0.15696967,
  -0.00501107,  -0.03016677,  -0.11694631,  0.00135947,  -0.06342229,  -0.06269307,  0.07657924,  -0.02078173,
  -0.07944994,  0.08274759,  0.01975821,  0.14402130,  -0.11751107,  0.05816603,  -0.03864123,  -0.03028819,
  -0.07807617,  -0.10132803,  0.00029014,  0.02679410,  -0.05018315,  -0.02800770,  0.06032505,  -0.03584238,
  -0.03076879,  -0.02622120,  0.03574442,  -0.04952803,  -0.01556276,  -0.02271940,  0.02091958,  0.03169421,
  0.01443601,  -0.06098991,  0.09036261,  0.07816573,  -0.14515644,  -0.00025663,  -0.03706741,  -0.02084387,
  -0.12146344,  -0.01640113,  0.07456933,  0.03291911,  -0.05550408,  0.01241608,  -0.02810262,  -0.02500851,
  -0.07190894,  0.05755091,  -0.08928657,  -0.06937813,  -0.13965151,  0.07105161,  0.04506008,  0.07665816,
  -0.03214381,  0.04072931,  -0.03455325,  0.07270726,  -0.04920768,  -0.01855462,  0.05687575,  -0.10455338,
  -0.02807144,  -0.00061558,  0.00773269,  -0.02357015,  0.12210925,  -0.08305318,  0.01687824,  -0.02096666,
  0.04541279,  -0.07561199,  -0.06068392,  0.01806616,  -0.04770769,  0.00734813,  0.11181219,  -0.08223266,
  -0.01459217,  0.00473859,  0.04669483,  -0.04904007,  0.09415827,  -0.07868224,  -0.00577480,  -0.04751191,
  0.04093059,  -0.02641522,  -0.00308901,  -0.03159801,  -0.01701937,  -0.04737968,  0.06868930,  0.02008261,
  0.07351419,  -0.04013614,  -0.06528085,  -0.05857129,  0.08109970,  0.02878553,  0.06576514,  -0.00029184,
  0.05000366,  -0.03778203,  0.06977879,  -0.11275450,  0.09704227,  0.08331185,  0.07257567,  0.06269907,
  0.10442337,  0.03735242,  0.08831857,  -0.07127479,  0.08667668,  -0.07534281,  0.00608928,  0.05942258,
  0.08429893,  0.02582058,  0.01127908,  -0.10559174,  0.08215965,  0.00157103,  0.00431993,  -0.04215641,
  0.07770517,  0.00554626,  -0.11812475,  -0.00699146,  0.11919709,  -0.06198138,  -0.07661608,  -0.06963993,
  0.01856048,  0.04252918,  0.06414937,  -0.13523787,  0.19061296,  -0.00347574,  -0.02560996,  0.00247775,
  0.01805437,  -0.12950079,  -0.03541083,  -0.06750089,  0.04187344,  0.05507388,  -0.00314587,  0.00610980,
  0.09561229,  0.07514724,  -0.02656541,  0.04119347,  0.07446986,  -0.08466063,  0.02591463,  0.00700704,
  0.12496815,  -0.00554793,  0.02521020,  0.09644048,  0.05476339,  0.08266921,  -0.00476931,  -0.05484253,
  0.06328119,  -0.06345060,  -0.03107055,  0.06678153,  0.05946233,  -0.01290987,  -0.01058611,  0.04906689,
  0.09911963,  0.00155554,  -0.04213157,  -0.09541558,  0.13673252,  -0.13202180,  -0.16105598,  -0.01143181,
  -0.02740899,  0.10661886,  -0.03837374,  0.03931392,  0.06739810,  -0.02262172,  -0.10262131,  -0.05896350,
  0.10914005,  -0.10062671,  -0.04648516,  0.08007939,  0.02717909,  0.10656504,  -0.01208927,  -0.04528529,
  0.04082973,  -0.03499131,  -0.02961241,  -0.08346078,  -0.00026114,  -0.01639414,  -0.11208062,  0.10792438,
  -0.01456045,  0.04326320,  0.00742439,  -0.01409977,  0.01587398,  -0.03249194,  -0.09905456,  -0.10419800,
  -0.00538566,  -0.10838218,  -0.04465253,  -0.00649321,  0.01384235,  0.01897919,  -0.01607232,  -0.04237633,
  -0.05542428,  0.07982790,  0.03280149,  -0.15383331,  -0.05162337,  -0.04825969,  0.02248845,  0.07596591,
  0.11326654,  0.02591055,  -0.04423480,  0.02540824,  -0.13063957,  -0.01686208,  -0.08281399,  -0.06247047,
  0.04939363,  0.04671266,  -0.06342123,  -0.01773506,  0.03333239,  0.13589890,  -0.04770790,  0.09293148,
  -0.01929017,  0.04264186,  0.00208349,  -0.11866513,  -0.06035019,  0.08882110,  0.00953085,  -0.01327903,
  0.03009448,  0.17698950,  0.02619172,  -0.02476095,  -0.09024286,  0.06832856,  -0.06265061,  0.06079049,
  -0.01578909,  0.07725874,  -0.04816141,  0.10878929,  0.06456626,  0.01054586,  -0.02747332,  -0.01585743,
  -0.03432171,  0.08420087,  -0.02771543,  0.03473479,  -0.06149709,  -0.06828482,  0.10270326,  0.03625617,
  0.04507144,  0.04073960,  -0.09311432,  -0.06076184,  -0.07926089,  0.07785343,  -0.00558688,  0.07503429,
  0.01797877,  0.03363335,  0.02724168,  0.07084798,  0.08245884,  0.00392904,  -0.03580447,  -0.02124812,
  -0.07252063,  0.03987568,  0.02363412,  0.13554721,  -0.04733731,  0.05321350,  0.03380393,  -0.04462329,
  0.00842447,  0.08908846,  -0.05253790,  -0.10907578,  -0.09656360,  -0.04824264,  -0.11689520,  0.09799352,
  0.09032679,  -0.02903013,  -0.03885335,  -0.00196105,  -0.01690426,  0.02968043,  0.03830362,  -0.03885235,
  -0.04916951,  0.02379846,  -0.05912935,  -0.03468893,  -0.05781426,  0.05768218,  -0.03694898,  0.06912471,
  0.00466528,  0.12950420,  0.04154787,  -0.10711711,  0.01733865,  -0.04650299,  0.00447780,  0.00866562,
  -0.04204279,  0.05093376,  0.01997917,  -0.03990845,  -0.12541932,  0.09021259,  -0.04454030,  -0.01867726,
  -0.09372932,  -0.07047071,  0.01132944,  0.10156532,  -0.04310812,  -0.06219171,  -0.04677125,  -0.00377570,
  -0.02261779,  -0.00200456,  -0.02597489,  -0.02081630,  -0.10254303,  -0.07237685,  -0.04214713,  0.06770861,
  0.10737801,  0.02628293,  -0.14704974,  0.01958610,  -0.06732191,  -0.08241329,  0.05869577,  -0.05090125,
  -0.09445340,  0.02807356,  0.03354073,  0.00601777,  -0.00016011,  -0.02962421,  -0.13547429,  0.09377927,
  -0.11222156,  -0.03222893,  -0.07594875,  0.04925819,  0.02057857,  -0.01949652,  0.03526672,  -0.09393768,
  0.07187478,  0.07042406,  -0.08146549,  -0.05184510,  -0.15399152,  -0.00211180,  -0.06850698,  0.05863655,
  0.02655260,  0.01224610,  -0.09793911,  -0.04364162,  0.02531237,  0.01435846,  -0.03865290,  0.00148743,
  0.01780733,  -0.05391211,  -0.07885463,  0.00979629,  0.07915831,  -0.05658941,  -0.00093163,  0.07931960,
  -0.03850360,  0.01325437,  0.04051103,  -0.04330686,  -0.00217624,  -0.00351160,  -0.01990809,  -0.01691728,
  0.05951256,  -0.05066682,  -0.00118004,  0.05441609,  -0.05231271,  0.05495285,  -0.01610970,  0.00560242,
  0.02809192,  0.03637539,  0.05056089,  0.09182704,  0.10722900,  -0.05385434,  0.05252855,  -0.06912665,
  0.06840016,  0.08733486,  -0.02767958,  0.02699305,  0.06194063,  0.02667625,  0.03922829,  -0.09676748,
  0.01931869,  0.04708124,  0.03411458,  -0.01070357,  -0.08983555,  0.08026664,  0.00611628,  -0.03351400,
  0.05791784,  -0.01699132,  -0.05809213,  0.01761635,  0.02234695,  -0.08507387,  -0.09531335,  -0.07893465,
  -0.05149598,  -0.02916351,  0.11038771,  -0.00017747,  -0.04935256,  -0.01628444,  -0.08463620,  -0.04445244,
  0.03336946,  -0.01151953,  -0.00780204,  0.08144358,  -0.02711166,  0.02383437,  -0.04270788,  0.08229862,
  -0.00648005,  0.02851541,  -0.01117442,  0.02684588,  0.05045172,  -0.12023696,  0.00492519,  0.09463148,
  -0.07699503,  0.09575882,  -0.09696300,  0.02112937,  0.00311459,  -0.05099238,  -0.08411465,  -0.00073143,
  -0.04876339,  -0.10945266,  -0.10458919,  -0.05085624,  -0.04557809,  0.07834823,  -0.06568608,  0.05171602,
  0.00475479,  -0.03918789,  0.05398171,  -0.05070794,  0.04926881,  0.04699326,  -0.05720178,  -0.01029056,
  -0.09740893,  -0.07166140,  -0.12936845,  0.08716161,  0.01844387,  -0.07349584,  0.01871082,  0.07384025,
  0.01447026,  -0.07119889,  0.06172352,  -0.06480461,  -0.10554513,  0.06159085,  -0.12683839,  -0.04214514,
  -0.02263271,  0.07262087,  0.02372111,  0.01606402,  -0.14895882,  0.02612568,  -0.00131839,  0.02804776,
  -0.05496763,  -0.03353662,  -0.12555927,  0.02351987,  -0.00803139,  0.01461075,  0.11308070,  0.06535423,
  -0.01684633,  0.10899869,  -0.13279015,  -0.05785145,  0.01659346,  -0.08381019,  -0.11211739,  -0.00342910,
  0.02014523,  -0.03121848,  0.06282555,  -0.02204700,  -0.11072543,  0.00702756,  -0.05581264,  -0.03003955,
  0.07288996,  -0.09139939,  -0.09475677,  0.08684782,  -0.03724236,  0.05710118,  0.04243466,  0.00848325,
  -0.13159688,  -0.07637621,  -0.03814229,  0.01814959,  0.00596860,  -0.08670627,  -0.03732507,  0.00239632,
  0.04141468,  0.06783703,  0.09019518,  0.01378515,  -0.07017141,  0.06890978,  0.03644040,  -0.09498639,
  0.03973696,  0.03505960,  -0.00253394,  -0.02915395,  -0.03831783,  -0.03688150,  -0.00865518,  0.03737402,
  -0.15631710,  -0.05480179,  0.02143959,  -0.08071454,  0.03413769,  -0.03551503,  0.14596717,  -0.05423237,
  0.06349245,  -0.00272301,  0.02124606,  0.09002557,  -0.01590898,  -0.00707741,  -0.04982545,  -0.02745818,
  -0.06113531,  0.04221417,  0.11915746,  -0.01851178,  0.03702438,  -0.06131142,  0.05212601,  -0.00015353,
  -0.07895999,  -0.02891848,  -0.00575307,  -0.00491784,  -0.06105077,  -0.01268929,  0.12123337,  0.06162240,
  0.09064304,  -0.10434236,  0.11090749,  0.10095675,  0.04973952,  0.03249276,  -0.04934810,  -0.03896336,
  0.04219723,  0.04068493,  -0.05033228,  -0.00381806,  0.10250059,  0.02293489,  -0.03063463,  0.04786967,
  -0.06730947,  0.02036485,  0.00106707,  -0.07200199,  -0.07657840,  -0.04712015,  -0.04205101,  -0.09468758,
  0.04518715,  0.05004553,  0.02680270,  0.07504180,  -0.12703690,  0.01715334,  -0.01553589,  -0.04461987,
  0.04381698,  0.02997161,  -0.11910294,  0.04154609,  0.04019433,  0.02532205,  -0.00009229,  0.03074378,
  0.01071185,  -0.00721957,  -0.04987211,  -0.02068651,  0.00395585,  0.06901202,  -0.07493287,  -0.08870787,
  0.06671797,  0.06821154,  0.07909758,  -0.04848632,  -0.02285858,  -0.04840374,  -0.07698375,  -0.03683762,
  0.02255567,  0.09542814,  -0.16677240,  -0.13109776,  -0.02327253,  -0.01872991,  -0.02138916,  -0.06513786,
  0.07865883,  0.08494295,  -0.03847812,  -0.03211895,  0.04576050,  0.07018420,  -0.10931616,  -0.02903737,
  0.10380393,  -0.02595115,  0.03225506,  0.01374693,  -0.03518607,  0.08318570,  0.06541968,  0.02517612,
  0.08304389,  0.03273168,  -0.07643182,  -0.07036195,  -0.06171195,  -0.00046303,  -0.04866397,  -0.04520541,
  -0.03455963,  0.10260149,  -0.02646386,  -0.04713078,  0.07540637,  0.03707053,  -0.05997342,  -0.13773923,
  -0.05711168,  0.01393546,  -0.01820685,  0.02927215,  0.04892909,  -0.01415540,  -0.06136792,  -0.13506442,
  -0.07429966,  -0.05166864,  -0.02692755,  -0.10696176,  0.08445700,  0.08180544,  -0.04265466,  0.02386316,
  -0.07767568,  0.06834708,  0.01320991,  -0.04417852,  0.06511477,  -0.02960034,  -0.01320233,  -0.03828852,
  -0.01935125,  -0.03937945,  -0.11511374,  0.06753542,  0.02383436,  0.03990779,  -0.09970815,  0.01666174,
  0.06239358,  -0.03842886,  0.08531945,  -0.12808222,  0.10099194,  0.05804319,  -0.05315134,  0.03836452,
  -0.03973161,  -0.00961027,  0.08673059,  -0.03667884,  -0.01905737,  0.00943397,  0.03990497,  -0.04712230,
  -0.04787246,  -0.11210245,  0.03172592,  -0.11705463,  -0.02253766,  0.06850500,  0.06445897,  0.05571405,
  0.00406587,  -0.06397467,  -0.03830838,  -0.12611155,  0.08942516,  -0.10238909,  0.02854242,  -0.11288922,
  0.06245234,  0.07538436,  0.07886558,  -0.14418466,  -0.10750943,  -0.00629284,  -0.06803799,  -0.01369704,
  0.07664739,  -0.11975894,  -0.13245912,  0.00935865,  0.02983615,  -0.01574139,  0.08004684,  -0.09611673,
  0.04248504,  0.06622001,  -0.08142741,  -0.10658187,  0.02568826,  0.03051058,  -0.06676977,  -0.05245563,
  -0.01056643,  -0.01161932,  0.04256802,  0.04215214,  -0.07487791,  0.09678603,  -0.07845606,  0.01030154,
  0.02729467,  0.03017380,  -0.05526491,  -0.05771894,  -0.04174505,  -0.05852623,  -0.09426682,  0.04793948,
  0.02953403,  -0.03055854,  -0.18599501,  -0.01048481,  0.06890605,  -0.10705849,  -0.04517333,  -0.05370858,
  0.06014402,  -0.07314383,  0.03836858,  0.09509772,  0.04772440,  0.07447010,  -0.17552951,  0.03514111,
  -0.00492029,  -0.02256752,  0.04363734,  -0.01698408,  0.04679406,  -0.01465441,  0.00748548,  0.03518709,
  -0.05223358,  -0.04966915,  -0.16994494,  -0.02812078,  -0.09658168,  -0.10222597,  -0.00552764,  0.00751452,
  -0.08279347,  -0.08699916,  0.07523904,  -0.06223163,  0.02321797,  0.05569349,  0.00375574,  0.02986859,
  0.01306040,  -0.09869306,  -0.00158931,  0.03028177,  -0.10347031,  -0.00643609,  -0.01706234,  -0.01465627,
  -0.09441867,  -0.03596222,  -0.10739541,  0.03841452,  -0.00650698,  -0.03418562,  0.08649476,  0.01218394,
  0.06835338,  -0.12437126,  -0.05812068,  -0.02516869,  0.04785144,  0.00700663,  0.06774306,  0.04298951,
  -0.07485140,  -0.03746806,  0.08558046,  0.10213491,  -0.01973553,  -0.00054180,  0.04747515,  -0.05162791,
  -0.01101042,  -0.08747537,  -0.02257114,  -0.01832564,  -0.07986953,  -0.07313850,  0.10657433,  0.08376250,
  -0.00698453,  -0.12843588,  0.07567442,  -0.07568938,  0.00192251,  -0.00976858,  0.01019751,  0.01496750,
  0.01117058,  -0.07353738,  0.02043826,  0.07717412,  0.01354921,  -0.00090848,  0.09851557,  -0.00729520,
  -0.06389003,  -0.06403507,  -0.14273603,  -0.00012262,  -0.03231640,  -0.05017670,  -0.03876595,  -0.01949917,
  0.01567910,  -0.01953110,  -0.09626009,  0.02720511,  0.03756660,  -0.06300529,  0.04951916,  -0.04066825,
  -0.02555711,  -0.07185893,  0.01074979,  -0.04819113,  0.01268399,  -0.04848838,  0.04496609,  0.02303959,
  0.02010849,  -0.06156153,  0.05791828,  -0.03094181,  -0.03392490,  0.05624932,  -0.07082586,  -0.02829810,
  0.02381980,  -0.00086710,  -0.08751111,  0.00473731,  -0.12964752,  0.06876482,  0.07230271,  0.03574003,
  -0.14528300,  0.02868644,  -0.15958378,  0.03449380,  -0.06284905,  0.01479820,  -0.09080400,  0.04337476,
  -0.04121167,  0.04420492,  -0.00512457,  0.03099655,  -0.06291667,  -0.02827036,  -0.10770362,  -0.01609748,
  0.07476302,  0.01577023,  -0.05122026,  0.07911168,  -0.00730817,  -0.02039619,  0.04762734,  -0.01067591,
  -0.04779897,  0.02407383,  -0.02333398,  0.08963794,  0.11950295,  -0.09401093,  -0.06211145,  0.02888305,
  0.02286487,  -0.10833260,  0.08557176,  -0.00220682,  -0.02229931,  -0.03165500,  0.00283282,  0.13071401,
  0.06329918,  -0.01393269,  -0.02918151,  0.13266894,  0.07628243,  -0.02833567,  -0.00521430,  0.09070516,
  -0.05730532,  -0.12700313,  -0.01765593,  0.08675302,  0.06472044,  -0.09835275,  -0.10255017,  0.05466988,
  0.04704100,  -0.04386018,  -0.15410301,  0.11197735,  0.09588469,  0.00349979,  -0.10796010,  0.17135131,
  -0.02023041,  -0.12158209,  -0.01910470,  -0.02779628,  0.08700199,  -0.12501866,  -0.08498096,  0.09961496,
  0.01505812,  -0.04540736,  0.05220045,  0.01381676,  0.05686315,  -0.08599593,  -0.11274194,  0.02499720,
  -0.03315042,  -0.09856171,  -0.11641269,  -0.00740326,  -0.04068666,  0.05298215,  -0.06943783,  0.08388200,
  -0.03774272,  -0.05344037,  -0.11204813,  0.01120732,  0.02993830,  -0.10024438,  -0.06649870,  0.10844445,
  0.05351060,  -0.08097439,  -0.06904323,  0.09819396,  -0.02172823,  -0.11978570,  -0.08835720,  0.05016642,
  0.03752435,  -0.03371246,  -0.16566190,  -0.00939755,  0.09896661,  -0.01593719,  -0.02293141,  0.06382417,
  -0.00336160,  -0.02495321,  -0.08932438,  -0.01147710,  0.11444074,  0.01939029,  0.03127236,  0.06400460,
  -0.01307063,  -0.00068657,  0.05458394,  0.14849427,  0.06167589,  0.05069131,  0.07002828,  0.09921363,
  0.10280628,  0.06496793,  0.02233806,  0.05844127,  0.06889847,  0.07207842,  0.01548943,  0.15228850,
  -0.09550694,  -0.08595926,  0.00552220,  -0.01034458,  0.04039709,  0.00629841,  -0.01387214,  0.05386118,
  0.06574785,  0.10961100,  0.02434597,  -0.03037251,  -0.04340987,  0.02383742,  -0.10665976,  -0.04803400,
  0.11414477,  0.13159125,  0.01206220,  -0.09554543,  0.04831887,  -0.01841324,  0.08742531,  0.03159462,
  -0.06397978,  -0.01706742,  -0.01101432,  0.06452659,  -0.03032716,  0.02441798,  0.15533704,  0.05051570,
  -0.05633184,  -0.05874622,  0.09300929,  0.00728110,  0.02828518,  -0.03521539,  -0.06180147,  0.00088053,
  0.04742293,  0.09679991,  0.07248583,  -0.00644969,  0.08536015,  -0.01692922,  0.07916757,  0.06611967,
  0.01542712,  0.05231728,  -0.08912607,  0.02777340,  -0.02359725,  -0.05519349,  0.06082686,  -0.07092068,
  -0.09378666,  -0.11428784,  0.10057879,  -0.08440751,  -0.06231090,  0.05246058,  0.04984254,  -0.03744214,
  -0.09439071,  0.08395521,  -0.00784236,  -0.03432313,  -0.05717210,  0.00920749,  0.11057551,  -0.12145715,
  -0.04790330,  0.05588726,  -0.08024813,  -0.00051200,  0.02875335,  0.05019932,  0.00501475,  -0.01975967,
  0.07184031,  0.02631755,  0.06367996,  -0.02570603,  0.01003274,  0.09913810,  -0.09927379,  -0.06797693,
  0.03473504,  0.00189369,  -0.07301469,  -0.06961596,  0.06723260,  0.00615345,  0.08357248,  -0.12031899,
  0.00399106,  0.06058063,  -0.03394043,  -0.07623028,  -0.05993098,  -0.05839831,  -0.16866975,  -0.03838137,
  0.00588970,  -0.00952500,  0.05049194,  0.03299112,  0.00381859,  -0.06499027,  -0.05019791,  -0.02707279,
  0.06904500,  0.07050876,  -0.16991840,  0.00641310,  0.05300274,  -0.03900367,  -0.03368728,  -0.03942713,
  -0.10219857,  0.06630703,  -0.04183377,  0.02940431,  -0.01016734,  -0.06995240,  -0.12204179,  -0.04336868,
  -0.06909979,  0.00735253,  0.10794538,  0.02836964,  -0.07360870,  -0.02379391,  -0.04622499,  -0.02166899,
  -0.03578843,  -0.05425807,  -0.02925866,  -0.09199607,  0.04217524,  -0.04699927,  -0.00760913,  0.08681557,
  -0.02664483,  0.08143423,  -0.08012442,  0.05742272,  0.01612897,  0.04699386,  0.03298856,  -0.07375311,
  -0.02750833,  0.10215950,  0.09117969,  -0.06083285,  0.03031190,  -0.02728079,  -0.07940692,  0.05519500,
  -0.07147104,  -0.01726096,  -0.02053306,  -0.04975739,  0.01752320,  -0.04181537,  0.04056044,  0.03437937,
  0.08262941,  -0.06594427,  -0.08017598,  0.00369848,  -0.00733021,  0.02389258,  0.01302520,  0.00818845,
  -0.06405839,  0.00328767,  -0.00973176,  -0.03650285,  0.05986538,  -0.00126456,  0.02729866,  0.09107701,
  -0.00377944,  0.03267141,  0.06812435,  -0.07228328,  -0.07118788,  -0.03070316,  -0.04388403,  0.05570062,
  0.00376260,  -0.01119162,  0.10193311,  -0.05401850,  0.03562628,  -0.01565547,  -0.03441040,  -0.07333265,
  0.05170424,  -0.04688046,  -0.04431635,  0.01984571,  0.00977275,  0.04823892,  0.05211205,  0.02600165,
  0.07463042,  -0.00988306,  -0.03726784,  0.05705529,  0.08316731,  0.02410499,  0.03644690,  -0.00398120,
  -0.08694356,  0.03527082,  0.03410527,  0.04073677,  -0.03210325,  0.05292705,  0.08129157,  0.02744603,
  -0.04660788,  0.10821629,  0.04927053,  0.04429149,  -0.06541190,  0.03472543,  0.06430829,  -0.01975579,
  0.02177708,  0.08711258,  -0.06274232,  0.10106336,  0.02303359,  0.00372926,  0.05167473,  -0.09735909,
  0.07707763,  -0.03762000,  0.00869845,  -0.07983673,  -0.01147279,  0.01521936,  0.01769356,  -0.06254922,
  -0.00567007,  -0.10755586,  -0.10783509,  0.01412220,  0.03660631,  0.02983352,  -0.03443163,  0.06186313,
  -0.01047098,  0.01143111,  0.01262349,  0.02582996,  0.00112523,  -0.08990540,  -0.04824328,  -0.04366186,
  0.02060218,  -0.01547967,  0.10349540,  0.05243398,  0.05071158,  0.18228984,  -0.14505653,  -0.03108822,
  0.07309339,  -0.04686818,  -0.04289310,  0.08655642,  0.00015662,  0.08806500,  -0.07896845,  0.01996719,
  0.05195500,  0.05039467,  -0.10732708,  -0.02950655,  -0.08355241,  -0.00353167,  0.02217882,  0.06745222,
  -0.00452240,  -0.01521611,  -0.03745536,  -0.03976852,  0.04953898,  0.05643271,  -0.09140296,  -0.01575175,
  -0.12583154,  -0.05002161,  -0.09229085,  -0.01174795,  0.06966484,  -0.05818406,  0.04779470,  -0.01238410,
  -0.01683060,  0.04040249,  -0.03524076,  -0.07379670,  -0.10178851,  -0.01127899,  -0.05947807,  0.08669783,
  -0.08740935,  0.11444213,  0.07085601,  0.00403531,  0.10647108,  -0.04533706,  -0.08240350,  0.07880612,
  -0.05615158,  -0.03617666,  -0.06772271,  0.02049977,  -0.00843477,  0.03829101,  0.06343982,  -0.04961152,
  0.03944007,  -0.02255805,  0.01810763,  0.00337614,  -0.13109700,  -0.09687520,  -0.02330764,  0.12399583,
  -0.06666625,  0.05829610,  0.02901709,  -0.05858361,  0.07598807,  0.04637377,  -0.05332457,  -0.01013384,
  -0.12650739,  -0.04955899,  -0.05031833,  0.11867752,  -0.11296094,  0.03871318,  0.12858748,  -0.07353621,
  0.05028094,  0.03978734,  0.00490540,  -0.00693853,  -0.07229424,  -0.05647735,  -0.06404699,  0.07594682,
  -0.01631405,  0.04234124,  0.00974344,  -0.08027116,  -0.07452489,  0.02043862,  -0.03231967,  0.00418716,
  -0.00344615,  0.00941850,  0.05770988,  0.00022769,  0.02755445,  0.05567065,  0.00633687,  0.00948095,
  0.05483864,  -0.04483074,  0.01013196,  -0.04532767,  -0.05879285,  -0.04203802,  -0.02090108,  0.12312696,
  0.07919743,  0.08035184,  -0.00990260,  0.05622276,  0.00296087,  0.02761814,  -0.04322938,  -0.01797007,
  0.06524804,  -0.10800847,  0.04790398,  -0.01157140,  0.00019097,  0.05432196,  0.13106689,  -0.00645267,
  -0.06790943,  0.06205598,  -0.06223287,  0.09959689,  0.05867043,  -0.09687356,  -0.01014181,  -0.05574977,
  -0.06550527,  0.06045514,  0.04236146,  0.09528010,  -0.12619483,  -0.01977130,  0.03140457,  0.08224919,
  0.01075255,  0.03573779,  0.06840995,  -0.05660808,  -0.01026746,  0.08692040,  0.02503715,  0.02123528,
  -0.05860367,  0.01291555,  -0.05489181,  -0.06369600,  0.07966970,  0.02076400,  0.07512551,  0.06083869,
  -0.03423739,  -0.06272316,  -0.03579656,  0.13765542,  -0.09082025,  0.00565564,  0.03950543,  -0.06840957,
  0.04739749,  -0.04152578,  0.00630654,  0.04267442,  -0.06802921,  -0.01013525,  0.10059977,  0.15714732,
  -0.02306768,  0.01121867,  -0.00799995,  0.05972990,  -0.06313328,  -0.04653020,  -0.00140557,  0.09226861,
  0.00822427,  -0.04131628,  0.14908558,  0.10312545,  -0.05613114,  -0.10307255,  -0.03284113,  0.01810925,
  0.06871053,  -0.04579314,  0.09573016,  0.11539381,  0.01696772,  0.01935507,  0.01620164,  0.06832515,
  -0.02885313,  -0.07189261,  0.06357506,  0.02685104,  -0.07774272,  -0.00219413,  0.01117050,  0.07944011,
  -0.06497300,  0.04945198,  -0.00377496,  0.05262287,  0.00318955,  0.03689674,  -0.04509240,  -0.09120139,
  -0.06855913,  0.06176071,  0.09920617,  0.10101578,  0.00968462,  0.03848402,  0.04745196,  0.03102821,
  0.05288469,  0.05085741,  0.07659313,  -0.12326223,  -0.00597237,  -0.07865824,  0.08601137,  -0.02779222,
  0.08192331,  0.04118798,  0.11001937,  0.02771488,  -0.07341810,  -0.06336723,  0.08961885,  0.03900426,
  -0.10342106,  0.06765556,  0.08805773,  0.07942968,  0.12905031,  -0.11831097,  0.08030970,  -0.02456824,
  0.01325280,  -0.03381962,  0.00859360,  -0.04372409,  -0.06267022,  0.04380815,  0.09761707,  -0.09801850,
  0.00317850,  -0.09999145,  -0.00913535,  -0.06755865,  0.02869803,  -0.06409535,  -0.04155507,  -0.07115607,
  -0.05887974,  -0.00825456,  0.04998479,  -0.09807166,  0.01042430,  -0.07162771,  0.10553447,  -0.09801146,
  0.07335764,  -0.00719167,  -0.04664622,  -0.10544384,  0.08807904,  0.05643383,  0.06032464,  -0.02903645,
  -0.03199054,  -0.05852158,  0.02308144,  0.02428270,  0.03453868,  0.04258762,  0.05302031,  0.05325851,
  -0.01488164,  0.08297968,  0.01333621,  0.01986772,  0.05430035,  -0.08963697,  -0.05320597,  0.07937738,
  0.00831188,  -0.03002750,  0.01582780,  -0.05630450,  0.05403719,  0.01503111,  -0.01607960,  -0.03809937,
  0.02682721,  -0.02525368,  0.01242956,  -0.02183501,  0.10968803,  0.01945904,  0.02715865,  -0.04384074,
  0.07058563,  0.02812414,  0.05905188,  0.01449607,  0.09514860,  -0.00386769,  0.05061069,  0.02707796,
  0.10828818,  -0.09808026,  -0.01471585,  0.01467789,  -0.03474399,  -0.03342699,  -0.03945370,  0.05259474,
  0.08172246,  0.04005823,  0.01048722,  0.04608668,  0.10906336,  -0.13184877,  -0.04481680,  0.00056163,
  0.04496126,  -0.05176043,  0.02007930,  0.12629567,  0.07930329,  -0.02064071,  0.04444630,  0.00162221,
  0.10235675,  -0.06879912,  -0.07597909,  0.02439087,  0.01908301,  0.12794927,  -0.00864759,  -0.01513772,
  0.00552534,  0.08350996,  -0.05144886,  -0.08836871,  0.05571562,  -0.11203274,  -0.05061064,  -0.00759349,
  0.03268101,  0.15284587,  0.02242713,  0.02092319,  0.08516892,  0.06252449,  0.03922811,  -0.11053617,
  0.09469911,  -0.01617384,  -0.15527406,  0.07312179,  0.05739946,  0.00633009,  -0.03937760,  0.09600551,
  -0.01664327,  0.05699329,  -0.00987446,  0.02353306,  0.07241620,  -0.01307464,  -0.09860273,  -0.00203242,
  0.05189158,  0.01200777,  -0.04007749,  0.10289780,  0.00314528,  0.04586992,  -0.03052346,  -0.13151461,
  -0.06072016,  -0.08526103,  0.00816724,  0.11038440,  0.05566667,  0.13223925,  0.03052852,  0.05718267,
  0.06690177,  0.09581085,  0.07871214,  -0.13645163,  0.01619871,  -0.05207709,  -0.04972742,  0.08776481,
  0.02225946,  0.07285336,  -0.06350141,  0.06052154,  0.02350310,  -0.03326302,  -0.01533918,  -0.02092204,
  -0.03202096,  0.00616262,  -0.06605791,  0.04770677,  0.03856900,  0.06115443,  -0.03540520,  -0.01639757,
  0.00507401,  0.08557498,  -0.09888897,  -0.06417897,  -0.03319789,  -0.01952676,  -0.00661423,  0.10604313,
  -0.01121469,  0.08357088,  0.02897521,  -0.01440512,  -0.09560709,  -0.02174836,  -0.02491674,  0.12098981,
  -0.05992796,  0.00098609,  -0.00119370,  0.06465783,  -0.00051713,  -0.00565444,  0.00071016,  0.00677540,
  -0.07245833,  -0.06927800,  0.00024145,  0.09311998,  0.10067346,  0.01539538,  0.12896904,  0.10439732,
  0.03053894,  0.07813112,  -0.00838575,  0.10685547,  -0.07106255,  0.01054443,  -0.06884930,  0.05432229,
  0.04997684,  -0.01828970,  0.02008154,  0.08060595,  0.03681586,  -0.04060106,  0.03178735,  0.11471795,
  -0.19348808,  0.05821792,  -0.04567800,  0.09634824,  0.02398744,  -0.02826373,  0.04627899,  0.01762845,
  0.06946531,  -0.05862411,  -0.02162769,  -0.00819436,  -0.16146526,  -0.07076590,  -0.11066435,  0.11510219,
  -0.05332423,  -0.09121005,  0.01071318,  0.01063336,  0.01477297,  0.03184332,  -0.10692153,  -0.01254433,
  -0.10942610,  -0.08400130,  -0.04948033,  0.09269597,  -0.02836061,  -0.02181945,  0.04334505,  0.01167002,
  -0.05966287,  0.11317246,  -0.08151517,  -0.05793839,  -0.11218093,  0.02894409,  -0.06958807,  0.12037376,
  0.01803821,  -0.04952643,  0.02385082,  -0.01685141,  -0.03284927,  0.09176046,  0.01328096,  -0.03771312,
  0.03104316,  -0.01015865,  -0.05964959,  -0.00683380,  0.12101042,  -0.01329352,  -0.14301433,  -0.08474956,
  0.01246826,  -0.08359955,  0.00484586,  -0.02788126,  -0.09756517,  -0.02643945,  -0.00659254,  0.06996943,
  0.10114598,  0.00242775,  -0.16256879,  0.03330448,  0.04915233,  -0.08058309,  -0.06328798,  -0.02172825,
  -0.02690128,  -0.05485559,  0.06821574,  -0.05265662,  -0.02269282,  0.07404301,  -0.04070882,  -0.03742919,
  -0.09409535,  -0.03140744,  -0.07022212,  -0.00640835,  -0.09075207,  -0.02371649,  -0.02736761,  0.02331340,
  0.07225700,  0.11162341,  -0.09117220,  -0.03843220,  -0.11273079,  0.00202592,  -0.06948049,  0.01125044,
  0.06941268,  0.03799441,  -0.01812985,  -0.01155496,  -0.00915003,  0.03165361,  -0.08721597,  0.03094628,
  0.04777951,  -0.05740343,  -0.02419552,  -0.03248989,  0.04780393,  0.01453185,  -0.00027880,  -0.05755026,
  -0.04665600,  -0.08257562,  -0.01970235,  0.01932926,  -0.05557879,  0.02105219,  -0.02013455,  0.01161923,
  0.07267319,  -0.09215515,  0.01506941,  0.10659581,  0.04192313,  -0.01786375,  -0.01970273,  -0.08318217,
  0.00799587,  -0.05445848,  0.04318303,  0.01266709,  0.11281485,  0.02967256,  -0.00411478,  0.07725930,
  -0.01361046,  0.01716049,  0.10480082,  -0.08689600,  0.03650020,  0.02189657,  0.00721798,  0.05461969,
  -0.04340840,  0.06111356,  -0.08641525,  -0.02002648,  -0.12333319,  -0.02013804,  0.00785952,  -0.00963165,
  0.03395391,  -0.01449807,  -0.03065688,  0.07554331,  0.05116144,  -0.03564541,  0.01625269,  -0.07214011,
  0.01617054,  0.05537288,  -0.02543254,  -0.01098622,  0.06154694,  0.07275724,  0.02326359,  0.00650621,
  0.01196743,  0.03238708,  -0.09769110,  0.04034666,  -0.01429344,  0.08050753,  0.03821593,  -0.06621692,
  0.07134224,  -0.09666334,  0.02435528,  0.03909136,  0.11121629,  0.02814445,  -0.08232562,  -0.04813855,
  -0.07976262,  0.03807670,  -0.05067160,  -0.02929459,  -0.05263912,  0.02144681,  0.05495711,  -0.08854733,
  0.08089448,  0.04947206,  0.05847349,  0.02784350,  -0.00134269,  -0.06292126,  -0.06165481,  0.01680437,
  0.04118583,  0.00296806,  0.02561777,  0.03442516,  -0.02040683,  0.03108028,  0.00230867,  -0.08440243,
  -0.08420587,  0.01982420,  -0.04220412,  0.04148648,  0.02428100,  0.04913558,  -0.05946228,  0.07344267,
  0.03192399,  0.09104283,  0.04288939,  -0.07160470,  -0.05376989,  0.09471186,  -0.17122407,  0.01560523,
  0.01999541,  -0.00818388,  0.00210631,  0.04156399,  -0.03615676,  0.04414452,  -0.11525009,  -0.02513887,
  -0.09095464,  0.06789556,  -0.07867315,  0.09103069,  -0.07973690,  -0.02832258,  0.01847004,  0.10550687,
