// Auto-generated by generate_c_from_tf.py
#ifndef MODEL_INFERENCE_H_
#define MODEL_INFERENCE_H_

#include "tf_ops.h"

#define MODEL_INPUT_H 2
#define MODEL_INPUT_W 7
#define MODEL_INPUT_C 256
#define MODEL_INPUT_SIZE (MODEL_INPUT_H*MODEL_INPUT_W*MODEL_INPUT_C)

static const float sequential_conv1_kernel[9216] = {
{
  -0.06880858,  -0.14102578,  -0.01085957,  0.04288633,  0.05454550,  0.06127889,  0.01202216,  -0.02455972,
  0.01478575,  0.09320584,  0.10898652,  0.17784317,  0.09192672,  -0.12293229,  -0.00756221,  -0.03150740,
  -0.04156455,  0.05253584,  -0.10083047,  -0.07415017,  0.06533595,  0.06296045,  0.01905848,  0.13002479,
  0.07481121,  -0.10678659,  -0.00050407,  -0.06448888,  -0.14340040,  0.03571183,  -0.07644844,  -0.11522444,
  -0.02209584,  0.08186390,  0.02158905,  0.15762195,  -0.05215080,  -0.09751046,  -0.04770183,  0.04253399,
  -0.16234405,  0.01611077,  -0.05945087,  -0.16437145,  -0.03018306,  0.04560099,  0.02812811,  0.23054905,
  0.04675440,  -0.11235549,  -0.06711813,  0.02809572,  -0.18262929,  0.03680630,  -0.08118222,  -0.04379296,
  0.00182358,  0.05992513,  0.12651294,  0.19961515,  -0.06718630,  -0.06426053,  0.00471724,  0.04269254,
  -0.11760996,  0.01279586,  0.00547409,  -0.15665978,  -0.00270840,  -0.06504241,  0.05111817,  0.10173235,
  0.01025275,  -0.06544337,  0.00242767,  -0.06084704,  -0.05986478,  -0.06550328,  0.00607252,  -0.01492882,
  -0.10807962,  -0.08796814,  0.05666547,  0.14274764,  0.16147618,  -0.02691747,  -0.03335562,  -0.04280835,
  0.01112203,  0.01231120,  -0.10451506,  -0.03619613,  0.00718789,  -0.11673409,  0.00028319,  0.04569499,
  0.04064754,  -0.15415910,  -0.04641862,  0.00169432,  -0.09442956,  0.05844329,  -0.07615305,  0.00409203,
  0.00511561,  -0.12979534,  -0.01400088,  0.12700975,  0.18185048,  -0.14036044,  -0.10559867,  0.05228216,
  0.02075759,  -0.10445373,  -0.11520374,  -0.00051866,  0.02578448,  -0.13448507,  -0.13505958,  0.16553754,
  0.08514840,  -0.09260721,  0.00546115,  -0.01867806,  0.03597286,  0.09996706,  -0.03819930,  0.09956897,
  -0.10076690,  -0.15273088,  -0.05112148,  0.00693058,  0.00176150,  -0.06362924,  -0.06826750,  -0.00995697,
  0.01450651,  0.05309546,  0.01460180,  -0.02328014,  -0.06362762,  -0.15055488,  -0.09007288,  0.00748467,
  0.11333703,  -0.02404590,  0.05537132,  -0.04325835,  -0.03108424,  -0.02162303,  -0.05193177,  0.04841409,
  0.02071370,  -0.10488400,  -0.13395250,  0.07725262,  0.00820358,  0.07393172,  0.05614054,  -0.04674539,
  -0.05224263,  0.02057816,  0.01489986,  -0.03303335,  -0.01317986,  -0.02991001,  -0.13369814,  -0.00115872,
  0.14650255,  0.04758732,  -0.03485502,  -0.09118623,  -0.03951804,  0.09048162,  0.01729247,  -0.02411888,
  -0.04742431,  -0.11807130,  -0.17821521,  0.07542479,  0.04224925,  0.02985196,  0.10600677,  -0.00584861,
  0.07525086,  0.15186062,  -0.12124033,  -0.08204094,  -0.09384236,  -0.03900481,  -0.11588213,  -0.07381399,
  0.00163279,  0.20824845,  0.06632708,  -0.09228906,  -0.07691126,  0.21373308,  -0.00368306,  -0.01646989,
  0.05844164,  -0.12564085,  -0.01120636,  -0.04823538,  0.14715081,  0.26505911,  -0.04747466,  -0.11374807,
  -0.06142644,  0.17137393,  -0.00302180,  0.00559744,  0.04683475,  -0.06100946,  0.01570660,  0.04137780,
  0.04567289,  0.13834772,  0.07649303,  -0.03151788,  -0.01398497,  0.11085621,  -0.01726115,  0.00177240,
  0.05698142,  0.08485252,  -0.02117858,  -0.12664443,  0.11925776,  0.15017112,  0.00916728,  -0.05076566,
  0.01702712,  0.14150998,  -0.06822228,  0.00647277,  0.10421371,  0.01114088,  -0.10417799,  -0.05371585,
  0.00664658,  0.17226672,  -0.12328505,  -0.06409840,  0.04993863,  0.21977440,  0.02084891,  -0.09196839,
  0.04505080,  0.04062114,  -0.01544893,  0.06938718,  0.08394411,  0.20144285,  -0.07571990,  -0.03395400,
  0.05777672,  0.25444454,  0.03474870,  -0.08036855,  0.08457874,  -0.02997769,  -0.09931660,  -0.00531286,
  0.01403364,  0.15515120,  -0.10249846,  -0.07328899,  0.09933136,  0.09981875,  -0.12524867,  0.06816985,
  0.03893877,  -0.08302816,  -0.05701209,  0.08238022,  -0.00984113,  -0.02153944,  -0.16710930,  -0.08370939,
  -0.00341368,  0.10243324,  -0.13431834,  0.05466153,  -0.02217748,  -0.00116186,  0.01200284,  0.05372809,
  -0.05537434,  0.00512008,  -0.05278680,  -0.05498880,  0.09368318,  0.17784800,  -0.08776133,  0.01536771,
  0.07529108,  -0.01136012,  -0.03471082,  -0.02971825,  0.06784853,  -0.03152611,  -0.10910604,  0.10529701,
  0.00795095,  0.09848256,  -0.18006541,  0.08877216,  0.03076999,  -0.13697377,  -0.04630518,  -0.01504775,
  0.02566324,  -0.02693892,  0.02917851,  -0.01116108,  0.03964758,  -0.01386626,  -0.12540480,  0.04378276,
  -0.05859049,  -0.11009059,  -0.04426136,  -0.13770340,  0.06981853,  -0.07631899,  0.03374065,  -0.01865130,
  0.01200051,  -0.00360985,  -0.14947233,  0.12280053,  -0.04082879,  -0.03129924,  0.01265762,  -0.16726387,
  0.03285519,  -0.05578239,  0.10983033,  0.06915160,  0.12136585,  -0.03077035,  -0.22615398,  0.21268196,
  -0.07002939,  -0.00621348,  -0.09535003,  -0.13096330,  -0.05761575,  0.02281209,  0.14475805,  -0.04145964,
  0.07018255,  0.06602831,  -0.29146576,  0.22760700,  0.03340909,  -0.10734560,  -0.08619257,  -0.11163814,
  -0.08649541,  0.01629503,  -0.02340579,  -0.04756180,  -0.01208183,  -0.02440450,  -0.13921580,  0.14776182,
  0.05414749,  -0.07578786,  -0.01443277,  -0.02612081,  -0.07459553,  -0.06494077,  -0.01585871,  -0.14691320,
  -0.03728210,  0.12968533,  -0.24260086,  0.14869268,  -0.07882305,  -0.05865400,  -0.11244206,  0.02411476,
  -0.14063911,  -0.04556285,  0.00260203,  -0.04265796,  -0.08539294,  0.17033589,  -0.14204958,  0.07370319,
  0.00685670,  0.01043183,  -0.06198616,  -0.01992067,  -0.13384897,  -0.06792456,  -0.06337033,  -0.00000154,
  0.01096077,  0.21929239,  -0.16617437,  0.10564970,  -0.05853192,  0.01189682,  -0.03672137,  0.06334046,
  -0.08695458,  -0.05488922,  -0.07904307,  -0.04364449,  -0.06792065,  0.12491275,  -0.10919630,  0.10803110,
  0.06502283,  -0.01052715,  -0.03043653,  0.02146557,  -0.01456987,  -0.10856606,  -0.10602897,  -0.12533623,
  0.07489587,  0.13269201,  0.03882331,  -0.00597616,  0.02980036,  -0.01373606,  0.02098085,  0.00516786,
  0.01973705,  -0.00089642,  -0.05759581,  -0.00481127,  0.03966155,  0.05631832,  0.08477668,  -0.05501702,
  0.10271392,  0.03499259,  0.04064560,  -0.04220342,  0.02986626,  -0.01439278,  0.00322163,  -0.04470098,
  0.06224538,  0.14693889,  0.05243172,  -0.01751790,  0.03105375,  0.04436675,  0.13127647,  0.01512516,
  0.06298672,  0.00831625,  0.05452645,  -0.00762743,  0.01794853,  0.11354171,  0.10332199,  -0.08174727,
  -0.02050664,  0.03358442,  0.12023968,  0.11252409,  0.03097431,  -0.09571131,  0.07719866,  -0.13211375,
  0.10910156,  -0.06315098,  0.11308215,  0.04547686,  -0.05480665,  -0.01193303,  0.18295927,  0.05341802,
  0.05464650,  -0.17837736,  0.15209134,  0.00409376,  0.11799246,  -0.05062145,  0.17352790,  -0.07083120,
  0.03377674,  0.01745501,  0.17399976,  0.17245428,  0.18044998,  -0.16615927,  0.22216792,  0.00173892,
  0.15700871,  -0.10060543,  0.18673809,  0.03864868,  0.01464226,  -0.07304832,  0.01074253,  0.01789883,
  0.22070991,  -0.16331084,  0.25272101,  0.07298149,  -0.01669014,  -0.02573218,  0.18066078,  0.00310722,
  -0.03246274,  -0.08683305,  0.07660247,  0.02630939,  0.19537535,  -0.14190361,  0.14194013,  0.05772225,
  0.04819612,  -0.11548398,  0.11800830,  -0.02518658,  -0.01174636,  -0.07286992,  -0.00497665,  0.03805885,
  0.08484073,  0.00776722,  0.15929133,  0.05649231,  -0.03659288,  -0.03033973,  0.04806778,  0.06336502,
  -0.03987410,  -0.10655566,  0.07692702,  0.03607521,  0.01303733,  -0.05477320,  0.00951215,  0.11674786,
  -0.03806780,  -0.16243008,  0.14959744,  -0.05226893,  -0.10258521,  -0.02398361,  -0.13808534,  0.11866239,
  0.09478188,  -0.00325644,  0.00119466,  0.01682205,  -0.02045254,  -0.16004957,  0.02317851,  0.01733729,
  -0.09641939,  -0.04488698,  -0.08864319,  0.11883187,  0.00582436,  -0.07693584,  -0.01366520,  0.10184304,
  -0.18333314,  -0.12914006,  0.03443647,  0.06691978,  -0.03187518,  -0.05178663,  -0.01841956,  0.08835988,
  0.06461913,  -0.01554579,  -0.11747804,  -0.06781927,  -0.03911027,  -0.05746861,  0.12736982,  0.05704061,
  -0.06672779,  0.01674104,  -0.05082807,  0.17104769,  0.07150873,  -0.07539737,  -0.06737021,  -0.04834772,
  0.02392889,  0.04528938,  0.00210578,  -0.04641455,  -0.00920959,  0.02273639,  -0.16511188,  0.09649914,
  -0.05682978,  0.02031914,  -0.03217469,  0.01408066,  0.09095535,  -0.03714130,  -0.02266558,  -0.05586577,
  -0.04581955,  -0.12976882,  -0.06087969,  0.07308645,  -0.01994294,  -0.03525012,  0.09032762,  0.02620419,
  0.09015770,  -0.05706287,  0.03025843,  -0.07650569,  -0.10037783,  -0.08649559,  0.12797694,  -0.02122726,
  0.13565001,  -0.08055663,  0.04543074,  0.02969675,  0.13870369,  0.04913611,  0.01360136,  -0.03689316,
  0.03437390,  -0.06136464,  0.22868174,  -0.06119047,  0.10480977,  -0.08589102,  0.16967084,  -0.06805738,
  0.09454116,  0.07102072,  -0.02202253,  0.04628524,  0.05073459,  -0.07301383,  0.12145174,  -0.11895216,
  0.04432217,  0.00555305,  0.16980462,  -0.03964369,  0.13575958,  0.11854645,  0.05917851,  0.10350683,
  0.06156874,  -0.02782397,  0.18242587,  0.01202476,  0.07265446,  0.00634509,  0.03717597,  0.04692871,
  0.11199580,  0.25171444,  -0.06493542,  0.11635052,  -0.06414222,  -0.07372922,  0.10160185,  -0.12182052,
  -0.07147659,  0.04315478,  0.00670148,  -0.06249546,  0.04306773,  0.14429665,  -0.11758715,  0.15801834,
  0.04043764,  -0.05439625,  0.09364372,  -0.02646795,  -0.10655397,  0.05573845,  -0.04428703,  -0.06821458,
  -0.00260906,  0.03909386,  -0.02616923,  0.17572445,  0.00160114,  -0.00393008,  0.05390745,  -0.08294981,
  -0.01917369,  0.02843288,  -0.09072820,  0.08479130,  -0.05375113,  -0.03327502,  -0.16847429,  0.09296929,
  0.02341651,  0.01744534,  0.20601693,  0.05493432,  -0.03016347,  0.07220786,  -0.13790423,  0.11357962,
  0.02988418,  -0.04997757,  -0.00289245,  0.05809017,  0.02057768,  -0.02291202,  0.08970002,  -0.04579280,
  -0.04377444,  0.03339773,  -0.22949859,  0.00602947,  -0.07276198,  -0.01354732,  -0.05105188,  0.06376734,
  -0.00809079,  -0.09750654,  0.01497467,  0.09612424,  -0.05212176,  -0.03154335,  -0.18429421,  0.04835375,
  -0.08881310,  -0.05966561,  -0.11970132,  0.09955808,  0.10445412,  -0.11969690,  0.12130491,  0.01691426,
  0.04031522,  -0.01068162,  -0.16485371,  -0.03519095,  -0.04488416,  -0.11431485,  -0.05342201,  -0.01339362,
  0.01877416,  0.02100993,  0.10571954,  0.05728867,  -0.08095127,  -0.00174711,  -0.08139625,  0.06314199,
  0.12101442,  -0.10385524,  -0.13926409,  -0.02567844,  0.11090474,  0.00303241,  0.11286646,  -0.01157738,
  -0.06731986,  -0.03131652,  -0.07964164,  -0.01205250,  0.15199479,  -0.13764359,  -0.16468859,  0.01152759,
  0.13871315,  0.04754533,  0.02780640,  -0.01140838,  0.02307763,  0.03850242,  -0.06518764,  0.07958297,
  0.18425520,  -0.12550826,  -0.17361201,  0.09741496,  0.10770787,  0.04487566,  0.08363227,  -0.01114406,
  -0.07167884,  -0.05495597,  0.01834122,  0.01301568,  0.04299965,  -0.03517105,  -0.16468307,  0.11615661,
  0.15098786,  -0.05393666,  -0.02793405,  -0.02567100,  0.03435294,  -0.06983494,  -0.06630419,  -0.01273281,
  0.12114809,  0.02076705,  -0.02055680,  0.02753027,  0.10559715,  -0.04073830,  -0.01984168,  -0.04249028,
  -0.08936667,  -0.02550953,  -0.06703998,  0.02714500,  0.05678374,  -0.06090752,  -0.13782552,  0.04635056,
  0.06523520,  0.02995635,  0.06849384,  -0.07241809,  -0.06224586,  -0.00926096,  0.08115848,  0.10376909,
  -0.00540173,  0.07205412,  -0.12608829,  0.02827712,  0.08120301,  0.00488248,  0.05731859,  -0.11916025,
  -0.00941621,  -0.03843460,  0.07656336,  0.12169953,  -0.01292969,  -0.03005858,  -0.08065996,  0.02846625,
  0.08866632,  -0.08658687,  0.08707545,  -0.10107953,  0.05284714,  0.03272280,  -0.01482031,  0.04617534,
  0.04267793,  0.13071692,  -0.06255327,  -0.08455355,  0.05845142,  -0.08945666,  -0.02088211,  -0.10733154,
  -0.10126563,  0.09121545,  0.05676157,  -0.00316570,  -0.01054189,  0.09912851,  0.01231246,  -0.03213236,
  -0.01256690,  0.00812151,  0.08639611,  -0.16940433,  -0.03023038,  0.04344025,  0.00188414,  0.11024473,
  -0.12264030,  0.00001998,  -0.10559268,  -0.01454606,  0.02807525,  -0.11046600,  0.16392606,  -0.05765625,
  -0.06305349,  0.01376336,  -0.07939278,  0.09241847,  -0.01878949,  -0.02348699,  -0.00527123,  -0.08437660,
  0.01168546,  -0.00864344,  0.17127623,  -0.12266499,  -0.11139960,  0.15010035,  -0.00935871,  0.00242773,
  -0.09417462,  0.03699883,  -0.04433176,  -0.07653110,  -0.15114288,  -0.04253787,  0.09760585,  -0.05053221,
  0.01571944,  0.10193110,  -0.00351213,  0.12181447,  -0.08838846,  0.00627098,  -0.02652281,  -0.04893335,
  -0.10135029,  -0.05994584,  0.19153194,  -0.08294092,  -0.10110050,  0.13749950,  -0.08096129,  0.07731274,
  -0.00517201,  -0.07798421,  0.01118480,  -0.09064570,  -0.08933990,  0.07225582,  0.06039795,  -0.08947194,
  0.06446048,  0.09489600,  -0.12866457,  0.18050840,  -0.03551175,  -0.01654042,  0.02765670,  -0.08073652,
  -0.16283418,  0.09463732,  0.01922388,  0.04776491,  -0.02524940,  0.03553673,  -0.10463703,  0.09506088,
  0.00412943,  -0.11709654,  -0.00735274,  -0.04904329,  -0.15938078,  -0.00454764,  0.10261819,  0.05323175,
  0.12076125,  0.07282606,  -0.02436187,  0.21954498,  0.00682321,  0.01016985,  -0.00644009,  -0.01722460,
  -0.12992887,  0.01202995,  -0.00772504,  0.02722814,  0.09392270,  0.02493952,  0.11808839,  0.17585723,
  -0.04040494,  -0.08240087,  -0.03511485,  -0.04525673,  -0.03180121,  0.00604009,  -0.09037782,  -0.01829636,
  0.15374175,  0.01115149,  -0.01529706,  0.16217147,  0.00996496,  0.07173053,  -0.01919574,  0.00546108,
  -0.05835151,  0.13680968,  -0.09072389,  0.10226723,  0.15550932,  -0.03235473,  0.06858810,  -0.00546143,
  -0.06052855,  0.06513593,  0.10324488,  -0.07329173,  -0.13486739,  0.02300831,  -0.11163057,  0.09283465,
  0.13556814,  -0.01851318,  0.06617725,  0.07141257,  0.01603660,  -0.02043104,  0.09179153,  0.02902586,
  -0.03243527,  -0.00462709,  -0.10024013,  0.01683309,  0.11735125,  -0.10568535,  0.11406501,  -0.10152429,
  0.09493034,  0.03865616,  0.08255154,  0.02619378,  -0.04043009,  0.00938553,  -0.05978076,  0.06377878,
  0.10488599,  -0.12809181,  0.10146827,  0.05196354,  0.00102869,  0.06422792,  0.00853769,  -0.00271294,
  -0.00761740,  -0.01231323,  -0.07114385,  0.02262940,  0.03634642,  -0.08799296,  0.00585025,  0.04184928,
  0.08816126,  0.22276238,  0.02812498,  -0.02545508,  0.01632402,  -0.09601604,  -0.04160325,  0.11295644,
  0.13556570,  -0.09805898,  -0.01416684,  -0.01685376,  0.09123331,  0.28880686,  0.10300039,  -0.06352437,
  0.08609884,  0.04355684,  -0.06265263,  0.14882131,  0.05854113,  -0.09620826,  -0.06297650,  0.04760429,
  0.02951387,  0.21004558,  0.00857704,  -0.12915316,  0.07632555,  -0.03574575,  -0.07662146,  0.02330971,
  -0.04305626,  -0.02985497,  -0.14279048,  -0.01385753,  0.02011889,  0.24883910,  -0.01655174,  0.00255869,
  0.05467900,  0.06077001,  0.03436809,  0.12766503,  -0.02515074,  0.00264128,  -0.15497884,  -0.03355439,
  -0.12423456,  0.18189502,  0.02631324,  -0.04334137,  0.09022231,  0.00048503,  -0.04065835,  0.05227362,
  -0.00956118,  -0.06528504,  -0.01515344,  -0.07265889,  -0.09398993,  0.10581741,  0.05817744,  0.12463995,
  0.12340152,  -0.07024783,  0.03518813,  0.16148442,  0.01702375,  -0.13287647,  -0.02356386,  0.01050947,
  -0.10561897,  0.04332438,  -0.05731478,  0.09133311,  0.11768290,  0.00454373,  -0.10627045,  0.12079880,
  -0.06983847,  -0.15152507,  -0.01430033,  -0.04064230,  -0.12092941,  0.04718805,  -0.05179456,  0.11442787,
  0.09115685,  -0.05150166,  -0.02461080,  0.02013043,  -0.01129410,  -0.07485238,  0.05632679,  -0.02554874,
  -0.02056034,  0.10148166,  -0.10103213,  0.13551645,  0.06898351,  -0.10408414,  -0.03552859,  0.10652874,
  0.00241487,  -0.12124499,  0.02558914,  -0.10388752,  0.05793964,  -0.01810134,  -0.08214465,  0.06111468,
  0.05825316,  0.02561515,  -0.11356132,  0.10229445,  0.08614299,  -0.06140156,  0.10940710,  -0.14513712,
  0.01744048,  -0.08510668,  -0.16719343,  0.10895281,  0.06491332,  0.00809018,  -0.09169678,  -0.03573536,
  0.02585495,  -0.05443528,  0.15703082,  -0.18731025,  0.11990913,  -0.04245585,  -0.16520193,  0.13680716,
  0.02752838,  -0.11362994,  -0.03866400,  0.03230584,  0.10173669,  -0.09917136,  0.05239572,  -0.15739709,
  0.13748059,  -0.08176536,  -0.05424158,  0.13937160,  0.05262689,  -0.08361837,  -0.08210962,  -0.12791273,
  -0.03216418,  0.00209978,  -0.01285641,  -0.15784630,  0.03816413,  0.00546315,  -0.16999102,  0.10285025,
  0.02329598,  0.14396381,  -0.12308919,  -0.00435146,  0.12114999,  -0.09099569,  0.03776030,  -0.23392324,
  0.07560448,  0.07536545,  -0.06516111,  0.04027075,  0.11500543,  0.04084575,  -0.08249110,  0.04375358,
  0.11748515,  -0.01932976,  -0.04413937,  -0.17565836,  0.02049228,  0.01763137,  -0.11651807,  0.00876524,
  0.04924469,  0.02310849,  -0.11919474,  -0.03500133,  0.07423193,  0.02956512,  -0.12203293,  -0.17138985,
  -0.16306414,  -0.03354723,  -0.03420568,  0.02834423,  0.04544277,  0.02543352,  -0.10879476,  -0.00727211,
  0.16331497,  -0.01711723,  -0.16968688,  -0.24914819,  -0.24323215,  0.04229561,  -0.04662397,  -0.05212659,
  -0.00175750,  -0.02536864,  -0.01875662,  0.04843899,  0.16060700,  0.02336819,  -0.01876286,  -0.10749330,
  -0.11580340,  -0.06402557,  -0.11623282,  -0.06786751,  0.00965899,  0.03261371,  -0.06122633,  -0.00725511,
  0.05694877,  0.06474833,  -0.12628298,  -0.14200467,  -0.20615050,  -0.03661642,  -0.01428438,  -0.00193840,
  -0.00544880,  0.05470919,  -0.03883405,  -0.01927030,  0.01115324,  0.03846341,  -0.12361863,  -0.08242858,
  -0.13462712,  -0.12819040,  -0.00374375,  -0.02809438,  0.12023094,  0.04875265,  0.07574889,  0.02543242,
  0.06519984,  0.09035441,  -0.00223249,  -0.16312078,  -0.09336125,  -0.06767508,  -0.10104231,  0.03772533,
  0.11391558,  -0.04785715,  0.03180867,  0.00011591,  -0.00529649,  -0.04982014,  0.00746691,  -0.11772858,
  0.01848441,  -0.07738236,  0.01836190,  -0.05544951,  0.01143923,  -0.06762152,  -0.01959072,  -0.06930549,
  0.08201960,  -0.05570206,  0.09877720,  -0.06366768,  0.06868813,  -0.09927907,  -0.02572730,  -0.02790329,
  0.03394317,  -0.12223175,  0.03989355,  -0.15921356,  0.01904740,  -0.05098774,  0.11715703,  0.04607496,
  0.01541010,  -0.01456001,  0.08190008,  0.04100180,  0.02793792,  -0.06004798,  0.00443323,  -0.08181601,
  -0.00209316,  0.04039158,  0.03737593,  -0.01935000,  0.11497595,  0.00012999,  0.02868659,  -0.06671792,
  0.10807496,  -0.18647860,  -0.06281451,  -0.11372320,  -0.11429825,  -0.08821356,  0.06335092,  0.08599031,
  0.06039724,  -0.03491856,  0.19748631,  0.07236922,  -0.03303743,  -0.13172165,  0.01420233,  -0.06092307,
  -0.01600891,  -0.04017917,  0.07667821,  0.03070339,  0.02674285,  -0.01189269,  0.05827744,  -0.07760080,
  -0.04533527,  -0.06562939,  -0.03161542,  0.00646946,  -0.07844125,  0.05188081,  -0.02458429,  -0.01340768,
  -0.01650748,  -0.15552650,  0.09156148,  -0.05429420,  -0.12859035,  -0.12999934,  -0.00168652,  -0.00517576,
  -0.00278720,  0.00709532,  0.02090479,  -0.01473463,  -0.08748476,  0.04795079,  0.16696802,  -0.02452279,
  -0.04181471,  -0.13874523,  0.04286921,  -0.08489844,  -0.10536842,  0.09585353,  -0.00651740,  -0.02231660,
  -0.02883955,  -0.05062074,  0.07255872,  -0.13571258,  -0.04709833,  -0.19204347,  0.04830611,  0.03354746,
  -0.10846347,  0.02991867,  -0.17184964,  -0.01061027,  -0.12109780,  0.03270722,  0.11313599,  -0.00312541,
  -0.07185110,  -0.11190670,  0.16785797,  0.01043742,  -0.09239221,  0.06728908,  -0.13687180,  -0.05295542,
  -0.08363409,  0.08004990,  0.13613221,  -0.04602547,  -0.08783790,  -0.02958462,  0.10233162,  -0.02306534,
  -0.05802376,  0.02204562,  0.04500418,  0.00568176,  -0.03573468,  0.10120188,  0.19804597,  -0.08587705,
  -0.03156347,  -0.03269643,  0.16718581,  0.09296666,  -0.04395857,  0.00924006,  0.08575068,  0.01762636,
  0.08613689,  0.18414038,  0.07769645,  0.01668024,  -0.13849321,  -0.08252943,  0.17141370,  -0.00576490,
  -0.01112862,  -0.01231341,  -0.00071206,  -0.10541786,  0.08160351,  0.07269108,  0.10026608,  0.06565388,
  -0.18494155,  0.06740596,  -0.00491035,  -0.13702193,  -0.08508834,  -0.19000147,  0.11161331,  -0.09020834,
  0.06661136,  0.19497041,  -0.00286905,  0.06092504,  -0.12282293,  0.12857883,  0.14965151,  -0.17717892,
  -0.11411414,  -0.06799577,  0.19729760,  -0.12019567,  0.11416073,  0.05535695,  0.15161555,  0.06893630,
  -0.08752052,  0.05411135,  -0.04410877,  -0.01589059,  -0.05684544,  -0.02530999,  0.18496564,  -0.05742279,
  0.08665573,  0.21035068,  0.06818993,  0.10487623,  -0.09359971,  0.12580758,  0.04007022,  0.00033748,
  -0.07570899,  -0.10506977,  0.07755132,  0.05330095,  0.13467242,  0.15970775,  -0.02444925,  0.05152782,
  -0.01883764,  0.06170497,  0.09265993,  -0.04022111,  0.00936484,  -0.08264947,  0.01766306,  -0.03303590,
  0.02650793,  0.05976946,  -0.04812266,  -0.01686730,  -0.00680217,  -0.00231010,  0.14119470,  -0.09580565,
  -0.00123540,  -0.01099863,  -0.09423932,  0.04812669,  -0.04480742,  0.03096164,  -0.03605762,  0.04462786,
  -0.01062871,  0.13135049,  0.09430964,  -0.10452557,  -0.01151161,  0.04339579,  -0.11021777,  -0.00371824,
  0.02121424,  -0.01897283,  -0.00960290,  -0.01589384,  -0.03201027,  -0.03553503,  0.17414536,  0.01162453,
  -0.07775564,  0.03929307,  -0.01302604,  0.14060239,  -0.09121847,  -0.02656336,  -0.10178865,  0.05595658,
  0.01839923,  0.08745700,  0.12890103,  -0.02659300,  -0.20398234,  0.10533320,  -0.06152816,  0.03732682,
  -0.09797323,  -0.12505570,  -0.07981066,  0.00410705,  0.09109930,  0.00583531,  0.06779633,  -0.00405034,
  -0.12973741,  -0.01604905,  -0.09825030,  0.08751653,  -0.05125608,  -0.09268168,  -0.08231900,  -0.01220930,
  0.08813852,  0.08538941,  0.10982489,  -0.07617290,  -0.10564344,  0.07234310,  -0.06548715,  0.11775483,
  -0.06569144,  -0.03109878,  -0.05260053,  0.06699665,  0.10640090,  0.06691245,  0.09810974,  -0.02746693,
  0.01899547,  -0.09549582,  -0.03564850,  0.05351697,  -0.04746934,  0.00257489,  -0.03976288,  -0.00585478,
  0.04942270,  -0.07469532,  -0.00111048,  -0.04315243,  -0.02741198,  0.02981419,  0.04363855,  -0.01707937,
  0.05517937,  0.03679080,  -0.04573301,  -0.08888781,  0.13216010,  -0.01131348,  0.04916620,  -0.05190216,
  -0.01910251,  -0.01797777,  -0.00632013,  0.01290173,  0.14652608,  0.03685882,  -0.00855409,  -0.09977346,
  0.09564033,  -0.06964837,  0.05549943,  -0.00977816,  -0.01227620,  -0.01969745,  0.13151439,  0.01688639,
  -0.00973858,  0.13557132,  -0.03633331,  -0.02796710,  0.02018029,  -0.03485033,  0.04787331,  -0.07966705,
  -0.05685392,  -0.01647771,  0.02896148,  0.04766616,  -0.00603635,  0.07389788,  -0.10192071,  0.05038871,
  0.06100449,  -0.00764091,  0.09337635,  -0.00462650,  -0.00527614,  -0.03923218,  -0.06754535,  0.11234283,
  -0.04920509,  0.05650182,  -0.07288605,  -0.04402825,  0.10933747,  0.04041184,  -0.03978394,  -0.07459164,
  -0.05412327,  0.01582795,  -0.01669784,  0.09184903,  0.04477338,  0.14353092,  0.02239184,  -0.13087484,
  -0.02463129,  0.09120385,  -0.02259446,  -0.03659657,  -0.14288127,  0.07123925,  -0.02870023,  -0.00496461,
  -0.05467755,  0.05376716,  0.10251525,  -0.02324185,  0.04463893,  -0.00981783,  -0.00905716,  -0.05861876,
  -0.03168998,  0.10712075,  -0.04792334,  0.01119375,  -0.00348115,  -0.01348341,  0.07388073,  -0.13383615,
  -0.01334197,  -0.03305403,  0.09027515,  -0.01750223,  -0.12968923,  0.09140992,  0.05146673,  0.00493274,
  0.08759532,  0.05055201,  -0.04172708,  -0.03446430,  -0.05626373,  -0.04509810,  0.08496346,  -0.08154156,
  0.01955513,  0.15070581,  -0.05963856,  0.06959709,  -0.00409831,  -0.05026379,  0.03747975,  -0.05776213,
  -0.03494380,  -0.05034333,  0.12441917,  0.02843755,  -0.04610406,  0.09774357,  0.07552794,  0.06469271,
  -0.00602017,  -0.08881385,  -0.09643303,  -0.01988265,  -0.11523528,  -0.00340945,  0.10161294,  0.01285982,
  -0.02805400,  0.11919051,  0.05929327,  0.04104253,  0.06344589,  0.03155236,  0.01355662,  0.10723241,
  -0.11537506,  0.05862588,  0.08274779,  -0.10664610,  -0.11595945,  0.01242465,  -0.04339758,  0.06003824,
  -0.00099698,  0.09786516,  0.01403167,  -0.00314405,  -0.08453664,  0.03984113,  0.02947486,  0.02702249,
  -0.08818638,  -0.00361730,  0.00905963,  0.09190291,  -0.10374684,  -0.03042908,  -0.02997247,  -0.07606356,
  -0.08817623,  0.08524922,  0.10972450,  0.03974343,  -0.01761212,  -0.10563588,  -0.03330057,  -0.04286182,
  -0.13717538,  -0.04389543,  -0.07116383,  -0.06679236,  0.04988465,  0.03607596,  0.04887019,  -0.02491265,
  -0.02661675,  -0.10178875,  -0.03999456,  -0.00405222,  -0.01995459,  0.06749058,  -0.03159816,  0.04410018,
  -0.09007723,  0.01605231,  0.00604891,  -0.09133911,  -0.01556664,  -0.11584143,  -0.06402873,  0.05420689,
  -0.13423571,  0.06775501,  0.11079522,  -0.02521847,  -0.03687008,  -0.02017826,  -0.00907408,  -0.04489547,
  -0.11016709,  -0.10206044,  -0.08025893,  -0.00961905,  0.01092870,  -0.02055161,  0.01439511,  -0.05898657,
  0.11582525,  0.02626478,  -0.09958547,  0.07690255,  -0.06020154,  -0.13749312,  -0.13185695,  0.00632654,
  -0.03907393,  0.00227800,  -0.04730460,  -0.02160832,  -0.02295916,  0.06476560,  0.03225581,  -0.01394880,
  0.00685566,  -0.12370986,  -0.08018420,  0.09968902,  -0.02573110,  -0.00863875,  0.00085764,  -0.00660561,
  0.10253046,  0.08671159,  -0.02662967,  -0.03948892,  -0.02032292,  -0.07777959,  -0.04080202,  0.06283668,
  0.00157498,  0.09079733,  0.06610209,  -0.08360364,  0.10767222,  0.05350243,  -0.00819337,  -0.03398406,
  -0.01702434,  -0.05309871,  -0.17976338,  -0.02593758,  0.09717263,  0.01999725,  -0.06918796,  0.00308371,
  0.00391433,  0.07462277,  0.00717209,  -0.02044360,  -0.03153665,  -0.02839642,  -0.04094369,  0.06806035,
  0.15541588,  0.11967852,  -0.01276944,  0.02576103,  0.14372736,  0.08300459,  -0.03518586,  -0.02703875,
  0.02740782,  0.01775251,  -0.18473172,  0.02290170,  0.14292838,  0.13819554,  -0.04543712,  -0.03997414,
  0.08153024,  0.08448318,  0.03967917,  0.04503874,  -0.03453588,  0.03420941,  -0.02837064,  0.05609015,
  0.13010934,  -0.04266218,  0.09608526,  -0.02770975,  0.10283742,  0.13185145,  -0.05605067,  -0.06272720,
  0.12945233,  -0.06657963,  -0.03076833,  -0.01212770,  0.08074368,  -0.09948681,  0.00567583,  -0.06183107,
  0.14556405,  0.06909700,  -0.02335188,  0.05261265,  0.07938367,  -0.03117983,  -0.06361612,  0.03354397,
  0.01618318,  0.04350098,  0.06554461,  -0.13261048,  0.06270718,  -0.01099346,  0.11145024,  -0.07146300,
  0.15768857,  0.08186101,  0.07138237,  0.08738458,  -0.16379094,  0.12335221,  0.07010558,  -0.12414850,
  0.05178757,  0.07389152,  -0.02168984,  -0.02210956,  0.09885248,  0.06270723,  -0.06409759,  -0.04832822,
  -0.16586621,  0.15527862,  -0.03233993,  -0.12196202,  0.10385152,  0.08689789,  -0.10928826,  -0.04636640,
  -0.00372406,  0.09677953,  0.05399630,  0.07142832,  -0.08208309,  0.04830072,  -0.00835651,  0.00042117,
  -0.07026156,  0.01540810,  -0.06203125,  -0.03729665,  0.09431002,  0.11799722,  0.01174700,  0.03097475,
  -0.05162087,  -0.01550626,  0.13355422,  -0.04568182,  -0.06699998,  0.06428275,  -0.16138215,  0.04637444,
  0.17264548,  -0.05242665,  0.02437652,  -0.16272958,  -0.09682050,  0.03969764,  0.07815214,  0.03849050,
  -0.00451702,  -0.03427600,  -0.07280070,  0.04517450,  0.21192800,  -0.03374945,  0.11313397,  -0.08750405,
  0.03912037,  -0.00560845,  -0.02533184,  -0.08495761,  0.00269014,  -0.01145389,  -0.14094019,  -0.08409037,
  0.11567077,  -0.06656813,  0.05228253,  -0.15296176,  0.09361682,  0.03916301,  0.07556953,  0.00797785,
  -0.08960374,  -0.05888186,  -0.25890106,  -0.05384548,  0.08521573,  -0.00177633,  -0.00925243,  -0.05604566,
  0.09370328,  0.02334466,  0.03916648,  -0.04150575,  -0.03406703,  -0.06851558,  -0.24703538,  -0.04656757,
  0.00405459,  -0.06548706,  -0.00374846,  -0.07484791,  0.11345696,  0.11943099,  0.04889158,  -0.07417484,
  -0.06499334,  -0.08428483,  -0.26901311,  0.08912122,  0.18949987,  0.00316465,  -0.00166664,  -0.11783627,
  0.03942445,  -0.02721000,  0.02171266,  0.08482438,  -0.05131067,  -0.13003014,  -0.19361374,  0.02164059,
  0.14008574,  0.05724319,  -0.00569136,  -0.08292510,  -0.02812164,  0.06443696,  -0.10428948,  0.04493250,
  -0.08130910,  0.01254786,  -0.00642202,  -0.01669187,  0.08326524,  0.12306426,  0.05181852,  -0.14393978,
  -0.05554066,  0.08778542,  -0.07835652,  0.07312453,  0.03053213,  0.07059696,  0.02168941,  -0.04049451,
  0.15663834,  0.03416047,  -0.00078671,  -0.20406452,  -0.22967425,  0.14712752,  0.04758542,  0.07950816,
  0.03792494,  -0.02659583,  -0.00885735,  -0.09845766,  0.12261674,  0.05162761,  -0.06486413,  -0.03268408,
  -0.14923218,  0.02401550,  0.01619507,  0.05972892,  -0.02055019,  0.00109205,  -0.01989353,  0.01011354,
  0.04650616,  0.03233339,  -0.03279082,  -0.14816794,  -0.20097147,  0.14553834,  0.05736314,  -0.07658887,
  0.05195813,  -0.00409619,  0.02563657,  0.00394117,  0.05591220,  0.02076747,  -0.03353819,  -0.00517571,
  -0.03521899,  -0.00637668,  -0.04588640,  -0.00646340,  0.08747847,  -0.00934789,  -0.02094818,  0.00052716,
  0.00252495,  -0.04048266,  0.03272916,  -0.02128151,  -0.05799095,  0.05169211,  -0.01623588,  -0.03739771,
  0.03844854,  -0.01796013,  -0.05433794,  0.08350929,  0.06474874,  0.07520375,  -0.05669246,  -0.06258472,
  -0.06508160,  0.08196876,  0.10875512,  0.10877282,  0.04091428,  0.11907672,  -0.03642373,  0.06407398,
  0.07309721,  -0.02905237,  0.00585384,  0.07633156,  0.07717911,  0.00517363,  0.11258369,  0.15181199,
  -0.00820038,  0.12113689,  -0.07682357,  -0.04229480,  0.01596522,  0.04231970,  -0.01543389,  0.05201254,
  0.18270423,  -0.05956542,  0.05311405,  0.15010819,  -0.09345247,  0.11835328,  -0.18447149,  -0.13589312,
  0.02854784,  -0.00849346,  0.07233151,  0.00871193,  0.17163041,  -0.03947558,  0.06176066,  0.12464946,
  -0.06280152,  0.05443927,  -0.11106995,  -0.18411128,  0.01765644,  0.09447058,  0.01373972,  -0.05181738,
  0.12566529,  0.00915514,  -0.04567137,  0.10137507,  -0.06262896,  0.07858740,  -0.07463985,  -0.09398744,
  -0.04381888,  -0.02245992,  -0.02319310,  -0.00438223,  0.00978619,  -0.03195186,  0.04745458,  0.08221123,
  0.02053663,  0.06033408,  -0.15210283,  -0.05454582,  -0.05505351,  -0.01171823,  0.00219103,  -0.03305846,
  -0.01600700,  0.00386498,  0.07343224,  0.07474198,  0.03287525,  -0.02039232,  -0.00302673,  -0.16633505,
  -0.12599236,  0.08796059,  -0.04614818,  -0.00706605,  -0.10135099,  -0.01463759,  0.05283908,  -0.01953549,
  -0.06032609,  0.05833023,  0.05435209,  -0.13823131,  -0.09710549,  0.03643987,  0.04618999,  -0.10549320,
  -0.02412434,  -0.00441822,  0.11258406,  -0.03876568,  -0.03627254,  0.10553681,  0.03841782,  -0.12715107,
  -0.12667143,  0.06773840,  -0.04325731,  -0.11021654,  -0.19617917,  -0.07819658,  0.00450594,  -0.03016545,
  0.08929651,  0.01962819,  0.00554356,  -0.13254087,  -0.11206377,  0.12872815,  0.10649274,  -0.04138965,
  -0.16549769,  -0.04762147,  0.08064997,  0.00389840,  0.00226998,  -0.02953061,  0.11127365,  -0.04497716,
  -0.02571604,  0.14755867,  0.07303460,  -0.02725205,  0.00104939,  0.10623254,  0.03690521,  -0.00123931,
  0.04328742,  0.05535740,  0.18358956,  -0.06491119,  -0.01691969,  0.10745696,  0.09194864,  -0.04564537,
  -0.04107622,  0.12471526,  -0.02613802,  -0.00237279,  -0.06636703,  0.00287748,  0.08498435,  -0.17535245,
  -0.07256931,  0.14691575,  0.01028911,  0.03434960,  0.05436185,  0.05861552,  0.02664967,  0.03291007,
  0.06835975,  0.08972219,  0.06451619,  -0.04968921,  -0.18727277,  0.08686713,  0.04137443,  -0.02273054,
  0.17309438,  0.04915655,  0.00669505,  -0.08956942,  0.04580510,  0.09227447,  0.07959141,  -0.01966556,
  -0.03633471,  0.05126499,  0.03299081,  -0.00600869,  0.08717171,  -0.08312892,  0.06501514,  0.03896201,
  0.14087789,  0.08544691,  0.06210350,  -0.10394210,  -0.10236301,  -0.04115282,  0.00942349,  0.11449073,
  0.19157293,  -0.09378824,  -0.03293016,  0.01175205,  0.04730598,  -0.03842507,  -0.00230111,  -0.00946419,
  -0.07509016,  0.04784421,  0.05216920,  0.16747244,  0.01456093,  -0.09261860,  0.09008079,  0.10177577,
  0.05518706,  0.05009690,  0.06407814,  0.04171272,  -0.15567897,  0.03663896,  0.06791370,  0.03236493,
  0.02485811,  0.11768056,  0.08617023,  -0.03535655,  0.05431077,  -0.01569502,  0.08699581,  -0.00166595,
  -0.11991563,  -0.02730134,  0.10537975,  -0.01008681,  0.08620047,  -0.03683710,  -0.01671858,  0.06365858,
  -0.05743808,  0.08836036,  0.10633327,  -0.05938768,  -0.12230731,  -0.04667658,  0.02166005,  0.08802879,
  -0.01814630,  -0.03037467,  0.05763639,  -0.07390918,  0.06753126,  -0.01786120,  0.16596217,  0.09814984,
  0.00364753,  0.03441676,  0.00015752,  -0.04765308,  -0.03215501,  -0.01378476,  0.00936563,  -0.04937049,
  0.05793717,  0.11145885,  0.16708271,  0.07574331,  0.05002884,  -0.01783624,  -0.08338422,  0.00074478,
  -0.05944891,  0.02435570,  -0.01460513,  0.02736062,  -0.04870328,  0.10226855,  0.12317276,  0.05391177,
  0.07576778,  -0.06169622,  -0.10953221,  0.02424940,  0.00855850,  0.09798933,  0.01167618,  0.01359513,
  -0.06058299,  0.04846875,  0.11174887,  0.04302463,  0.07390170,  0.01633782,  0.03299357,  -0.02902131,
  -0.11162199,  0.01654296,  0.06992630,  -0.04113032,  -0.00943860,  0.02713357,  0.02412758,  0.02204577,
  -0.04689501,  -0.07561919,  -0.00942828,  -0.02699356,  -0.14279038,  -0.00331331,  0.04158154,  -0.12123334,
  0.07532118,  0.13906541,  0.13479568,  0.00209815,  -0.03422297,  0.02691058,  0.05196378,  -0.04070727,
  -0.03622136,  0.14204878,  0.00829238,  0.02274359,  0.03084524,  0.03043219,  0.04897384,  0.13868365,
  0.08382002,  0.07462793,  0.09298509,  0.13223188,  0.05173064,  0.12707561,  -0.04883921,  -0.06825973,
  0.01053973,  0.00999562,  0.14334603,  0.14525495,  0.01310656,  0.01225489,  0.02889022,  0.10013086,
  -0.01585742,  0.14309698,  -0.06709968,  0.00877364,  -0.01752081,  -0.03745889,  0.19867951,  0.11344413,
  -0.01984517,  -0.01461569,  0.01319971,  0.05272173,  0.08009221,  0.14668517,  -0.13013376,  -0.02863804,
  0.01645425,  -0.00951166,  0.16084351,  0.00838067,  -0.04392029,  0.00074736,  0.02028534,  0.01251877,
  0.02266460,  0.09163011,  -0.01789538,  -0.02678230,  -0.06260900,  0.00333917,  0.06784170,  0.06389513,
  -0.12978657,  -0.01162026,  -0.06665693,  0.12483817,  0.06023770,  0.11416979,  0.04214210,  -0.12076319,
  0.05698577,  -0.00914060,  0.13818477,  0.09626855,  0.03784890,  -0.00391882,  -0.07350082,  0.16466117,
  0.06689004,  -0.00225012,  0.01051558,  0.03416257,  0.07778934,  0.03010450,  0.10035169,  -0.05182382,
  0.04658791,  0.06333263,  -0.01600261,  0.12563473,  -0.02409290,  0.04194025,  -0.13568018,  -0.04764198,
  0.01699030,  -0.05852928,  0.13074164,  -0.03689481,  -0.01250957,  -0.01099587,  -0.05795606,  0.05978867,
  0.03396579,  0.04769210,  -0.10343626,  -0.09322214,  0.21004611,  0.04547627,  0.02646564,  -0.04021709,
  -0.01498449,  0.00739057,  -0.12143466,  0.15270732,  0.05333466,  -0.04445922,  0.00283950,  -0.04688776,
  0.13799858,  -0.02761728,  0.08082675,  -0.15735596,  -0.12192439,  -0.03374300,  -0.10492264,  0.12132297,
  -0.03483855,  -0.02229733,  -0.03513363,  -0.09423970,  0.16763690,  -0.03143272,  0.11400103,  0.01778460,
  -0.05461415,  0.02713262,  -0.00316179,  0.01735829,  0.05374577,  0.05482395,  0.05702921,  -0.03590686,
  0.17693071,  -0.04042498,  0.00436463,  -0.07277712,  -0.06948820,  0.05628932,  -0.09158989,  0.02699105,
  0.00497848,  0.02969221,  0.14399190,  -0.01526082,  0.15573581,  0.07726152,  0.06550086,  -0.09294917,
  -0.09305621,  0.11014762,  0.02531351,  0.03816731,  -0.09667347,  -0.01639311,  0.00099643,  0.02213361,
  0.12408881,  -0.12707464,  0.06114956,  -0.00718933,  -0.16385341,  0.12656805,  0.03331696,  -0.06950656,
  0.00553649,  0.10081907,  0.12020542,  -0.00251251,  0.02277027,  -0.03971463,  -0.05528900,  -0.07929578,
  -0.18148588,  0.10074031,  0.11094089,  -0.13831711,  0.10363512,  0.03892014,  0.18400492,  -0.02163766,
  0.07225626,  0.01382100,  -0.07572450,  -0.16680220,  -0.11711496,  0.12565348,  0.04914703,  -0.05299877,
  0.03429029,  -0.05819669,  0.04828541,  0.07786462,  -0.00121642,  -0.00299633,  -0.06323297,  -0.05227216,
  -0.07371789,  0.08388485,  -0.00067188,  -0.16273597,  0.14710164,  -0.15143923,  -0.02383928,  0.07002337,
  -0.02872434,  -0.05485091,  -0.01838227,  -0.17647463,  0.02650765,  -0.04264104,  0.06418838,  -0.03101088,
  0.13396010,  -0.19170102,  -0.01021109,  -0.02033016,  -0.07418565,  -0.03347757,  0.09732682,  -0.01181367,
  -0.04640028,  0.00030891,  -0.03132368,  -0.13562796,  0.08314467,  -0.04519022,  0.06760166,  0.08716071,
  -0.04839630,  0.06632633,  -0.00298869,  -0.12394876,  0.02015636,  0.07970887,  -0.04610967,  -0.10281886,
  0.07337702,  -0.15792884,  0.06792982,  -0.06241028,  -0.08692122,  -0.04213441,  -0.01537354,  -0.11413346,
  0.06820756,  0.09685644,  -0.07123106,  -0.08723934,  0.07278678,  -0.10649832,  0.03268560,  -0.02920572,
  -0.02353636,  -0.01729105,  0.06491534,  -0.02832543,  -0.03747775,  -0.01557261,  -0.11998931,  -0.06606814,
  0.01264600,  -0.10344173,  -0.10379665,  -0.10298130,  -0.00886672,  0.05849234,  -0.03518150,  -0.05267790,
  -0.14683612,  0.09963264,  -0.16596583,  -0.05356518,  -0.02427152,  -0.09549727,  -0.03318442,  -0.08144292,
  -0.07806268,  -0.02277122,  -0.00487791,  -0.04120760,  0.01274205,  -0.00349114,  -0.04712779,  -0.05487403,
  -0.01212269,  -0.00923473,  -0.20094907,  -0.11679173,  -0.02582734,  0.08847287,  -0.01989739,  -0.17215759,
  0.00666583,  0.00833791,  0.01446534,  0.02130186,  -0.03285023,  -0.05373915,  -0.08565980,  -0.02344600,
  0.00262996,  -0.01342075,  0.00712865,  -0.13587999,  0.04416865,  0.10424041,  -0.02047280,  -0.05047925,
  -0.05695443,  -0.05757549,  -0.00255762,  -0.16416767,  0.02883308,  0.01316506,  -0.04179756,  -0.22114691,
  0.04615244,  -0.07807239,  0.05621291,  0.04265982,  -0.09024482,  -0.11466499,  -0.04868074,  -0.08475779,
  -0.08172006,  0.06884192,  -0.10327342,  -0.14092270,  0.02490865,  0.06770888,  0.01489246,  -0.02538270,
  -0.11852136,  0.07838748,  -0.06418517,  -0.17853831,  0.01769895,  0.05814024,  -0.08130036,  -0.03292378,
  0.00207825,  -0.03191697,  0.14438441,  -0.05260944,  -0.10813870,  0.02086926,  -0.06262069,  -0.16019864,
  0.07865585,  0.03266732,  -0.10357725,  -0.02378198,  0.07505337,  -0.01733175,  0.10572805,  -0.09916380,
  0.01409890,  0.05070021,  -0.05219649,  -0.15417132,  0.03161344,  0.08814225,  -0.14533637,  -0.12157406,
  0.04628579,  -0.09876256,  -0.05265883,  0.08610763,  0.07952537,  0.05431472,  -0.05707585,  -0.14822857,
  0.10098393,  0.03625169,  -0.08351823,  -0.13331112,  0.02309364,  -0.11838712,  0.03169698,  -0.05013331,
  0.15367503,  0.10654751,  -0.03583081,  -0.07564248,  0.10701517,  0.12109099,  -0.20597702,  0.03064577,
  0.08433361,  -0.07893410,  -0.02020108,  0.02206958,  0.14776614,  0.02954447,  -0.01025892,  -0.20560871,
  0.09287662,  0.11434536,  -0.24907500,  0.04943725,  0.01569493,  -0.09902853,  -0.13355899,  0.00817953,
  0.10164315,  0.04363080,  0.07618435,  -0.20163894,  -0.07076241,  0.09018960,  -0.10991997,  0.07525898,
  0.06388339,  -0.17313543,  -0.06879766,  -0.06818464,  0.24866554,  0.08177811,  -0.01467073,  -0.13392822,
  -0.04551880,  -0.03958851,  -0.05340856,  0.02778625,  0.09143821,  -0.02086493,  -0.12623864,  -0.04284229,
  0.10708871,  0.11032291,  0.10516217,  -0.13698781,  0.03510397,  0.08527245,  -0.09735104,  0.07648586,
  0.03290629,  -0.09737126,  -0.04585439,  0.01214273,  0.17463897,  0.07517280,  0.09315152,  -0.04985442,
  -0.07280296,  -0.00242789,  -0.04918970,  -0.00927519,  -0.01207096,  -0.10230601,  0.00578874,  -0.09366427,
  0.05412097,  0.10761134,  0.12279238,  -0.02722023,  -0.11085083,  0.05725839,  -0.08361677,  0.00207725,
  -0.08585834,  -0.10040284,  0.10984087,  -0.03438246,  0.00989116,  0.11592001,  0.10075174,  -0.01999751,
  -0.05967400,  0.07611609,  0.07339392,  0.05557409,  0.01831020,  0.04813909,  0.18399793,  -0.11817952,
  -0.07583360,  0.01588807,  0.04180981,  -0.02928423,  -0.14243694,  -0.00016636,  0.07709330,  0.05019619,
  0.15951173,  0.06388419,  0.07005745,  -0.11528646,  -0.05115612,  0.09433623,  0.11775712,  -0.01171301,
  -0.05906488,  0.11488786,  0.07736237,  0.04950427,  0.07367556,  0.06759743,  0.15878372,  -0.03657497,
  -0.05130490,  0.03033553,  0.01072777,  0.00725148,  -0.05710695,  0.11789042,  0.06409629,  -0.03742024,
  0.01058843,  0.07188468,  -0.00933856,  -0.13305023,  0.03685459,  -0.04927952,  0.06107387,  -0.03115805,
  -0.06147410,  0.01966556,  -0.12821610,  -0.01416828,  0.06348370,  0.06160622,  -0.04320930,  -0.01544993,
  0.01129484,  -0.05077760,  0.12005302,  0.05064736,  -0.11243614,  -0.00516499,  -0.11969390,  0.02967090,
  -0.09526180,  0.09519324,  0.00369025,  0.01900104,  0.03985236,  0.03955193,  0.07842742,  0.05945317,
  -0.04281441,  0.10371613,  -0.14007735,  0.03405870,  0.03021285,  -0.03347145,  -0.11351165,  -0.07555740,
  0.00756898,  0.00815882,  0.16723721,  0.08603831,  0.01165655,  -0.00169959,  -0.10512433,  0.02109220,
  0.00266346,  0.06505476,  -0.09331530,  -0.04631978,  0.07837492,  -0.05704347,  0.05344092,  0.11414459,
  -0.02957128,  0.04133328,  -0.13443187,  -0.00878408,  -0.07170337,  0.05740266,  -0.15421958,  -0.14608508,
  0.08423579,  -0.01420615,  0.06971155,  0.13994113,  0.02281893,  0.04933912,  -0.15448496,  0.02863833,
  -0.08539769,  0.01879666,  -0.10396937,  -0.13917407,  0.20690468,  0.01559839,  -0.07641561,  0.12318712,
  -0.05176348,  0.10791818,  -0.10822393,  0.02007851,  -0.03927309,  -0.02093661,  -0.07477703,  -0.21989360,
  0.12324966,  0.03064030,  0.03554312,  0.04102275,  -0.00172949,  -0.02783360,  -0.09798112,  -0.04773961,
  -0.07355421,  0.07231024,  -0.09060885,  0.03774815,  -0.08018940,  -0.07591297,  -0.00648258,  -0.04896294,
  -0.11198077,  0.08324688,  0.05622714,  -0.05059053,  -0.00963074,  0.10119888,  -0.00337629,  0.07705562,
  -0.02298498,  -0.07936776,  0.03021522,  -0.08177066,  -0.07487203,  0.09704430,  0.06278781,  -0.04210044,
  -0.05632712,  -0.00106474,  -0.01496186,  0.06920969,  -0.05874186,  0.00328812,  -0.07779662,  -0.08547181,
  0.03963486,  0.10950008,  0.14609170,  0.01625936,  -0.09595449,  0.05791897,  -0.15853977,  0.17241952,
  -0.02464739,  -0.07870651,  -0.02655407,  -0.11229082,  -0.03635764,  0.03534466,  0.10426438,  -0.00269943,
  -0.10541376,  0.03601130,  0.02952320,  0.07624671,  -0.03853654,  -0.20851643,  -0.10582713,  0.02443483,
  0.07943850,  0.05883167,  0.07245173,  -0.00280988,  -0.02765612,  -0.05833703,  -0.01141731,  0.00963009,
  -0.01372457,  -0.01898945,  -0.00300906,  -0.08284745,  0.14605735,  0.03395018,  0.06276054,  -0.02156702,
  -0.06815133,  -0.10251261,  -0.10490210,  0.09106223,  0.08501946,  0.11180082,  -0.11936504,  -0.02385863,
  -0.02195866,  -0.01765766,  0.00436486,  0.04764416,  -0.12519802,  -0.03260843,  -0.01352386,  0.00966145,
  0.13324475,  0.16927435,  -0.12121665,  -0.00685954,  0.09312956,  -0.05420501,  -0.03499119,  0.03652377,
  0.01748149,  -0.04413681,  0.05116059,  -0.00893590,  0.04130660,  0.15023206,  -0.07789923,  -0.12531073,
  0.15196252,  -0.01710591,  0.08501931,  0.05905375,  0.00662661,  -0.10436631,  -0.03032609,  0.14249665,
  0.06573412,  0.16166812,  -0.00837639,  -0.00395706,  0.05413821,  -0.08027148,  0.02151790,  0.07481114,
  -0.00041810,  -0.04540166,  0.03340492,  0.11835706,  0.08451652,  0.10098042,  -0.12827997,  -0.08640778,
  -0.00160897,  -0.06367906,  0.07187889,  0.06362478,  0.08845906,  -0.06394930,  -0.00924154,  0.00138545,
  0.00974100,  0.18958971,  -0.13567068,  -0.02723952,  -0.01625916,  0.04577772,  0.01932619,  -0.01409891,
  -0.03867774,  0.04071119,  -0.12670296,  0.06761816,  0.07453533,  0.11781685,  0.00732872,  -0.01682395,
  0.01878037,  0.00462208,  0.09002786,  -0.12246671,  -0.08553611,  0.10055222,  -0.03454704,  0.05870730,
  0.06678215,  0.10666368,  0.05659168,  -0.07240173,  0.00937632,  0.04095704,  0.00245309,  -0.01973857,
  -0.10923362,  0.04037122,  -0.04748741,  0.00751974,  0.02302818,  0.07810290,  -0.05221815,  -0.10605862,
  -0.02073956,  0.06176979,  0.02184317,  -0.04003552,  0.01878223,  0.11616504,  -0.02344117,  0.12852648,
  -0.00251856,  -0.01643075,  -0.01158145,  -0.08017422,  -0.11596123,  -0.00847648,  0.06216092,  -0.07052184,
  -0.01631902,  0.11553398,  -0.06021861,  0.03314692,  0.05934975,  -0.00079604,  -0.01850359,  0.07373759,
  -0.09351419,  -0.16105039,  0.05213568,  -0.03360732,  0.05427642,  0.00661376,  0.05822754,  0.05088033,
  0.07613630,  0.03761370,  0.06693076,  0.09289432,  -0.04692103,  -0.10804962,  0.14319003,  -0.12323358,
  -0.07437173,  -0.04144292,  -0.05659826,  0.01488306,  -0.03612739,  -0.02430578,  0.06483500,  -0.03027981,
  -0.11545223,  -0.03673124,  0.04027893,  -0.00767628,  -0.03711851,  0.04472589,  -0.02674633,  -0.00672021,
  0.00002139,  -0.05599228,  0.03948081,  0.08187041,  -0.09037275,  -0.05675130,  0.02953988,  -0.15696783,
  -0.09036817,  -0.02515886,  0.03496697,  0.14245501,  -0.04895598,  -0.02045589,  0.02616864,  0.06634654,
  -0.08919308,  -0.03874578,  0.08037484,  -0.11812451,  -0.09577848,  -0.04231511,  0.08047859,  -0.02552035,
  -0.08721200,  -0.07862920,  -0.03891297,  -0.03077891,  0.02312836,  0.04824318,  -0.07481171,  -0.15138127,
  -0.00125488,  -0.10525953,  0.00979929,  0.05297809,  -0.03926610,  -0.02022208,  -0.04278375,  0.03696062,
  -0.06663762,  -0.00535713,  0.04628833,  -0.17004606,  0.03559003,  -0.08410887,  0.01654688,  0.00587843,
  -0.11788864,  -0.05948199,  0.06655151,  -0.11023181,  0.04442132,  -0.03029079,  -0.05282386,  -0.05650721,
  0.03322385,  -0.03937162,  -0.02353694,  0.09317987,  -0.02766985,  -0.12007575,  0.05454138,  -0.07539584,
  0.12034537,  -0.04540487,  -0.12535343,  -0.04876650,  -0.09099073,  -0.08043082,  -0.03591282,  0.11487491,
  -0.01633896,  -0.05691956,  0.01865597,  -0.07441635,  0.04925770,  0.08226925,  -0.05329867,  -0.00884363,
  0.11777489,  -0.05011061,  -0.05454029,  -0.02313972,  0.13348855,  -0.06282895,  0.00129666,  -0.01303277,
  0.13498841,  -0.01221604,  0.04791261,  -0.01469269,  0.14152282,  -0.06009165,  -0.15149152,  0.02942318,
  0.15817510,  0.01333465,  0.05388986,  -0.03994139,  0.08444276,  0.01509727,  0.06274070,  -0.02813036,
  0.07665453,  -0.05752442,  -0.19805746,  0.01640680,  0.14372432,  0.07216912,  0.07944213,  -0.01567523,
  0.09357812,  0.03762354,  -0.04578454,  -0.01755656,  0.11622152,  0.03574774,  -0.14115506,  -0.06655505,
  0.17718399,  0.01443119,  -0.03353984,  -0.09153303,  0.11307611,  0.07840417,  -0.06239939,  -0.04212946,
  0.07058579,  -0.01293316,  -0.10898189,  -0.05962423,  0.24999481,  0.09269536,  0.10384572,  -0.09274840,
  0.02186898,  0.04952292,  0.01312883,  0.03410895,  0.01016273,  -0.01277033,  -0.14904447,  -0.00751073,
  0.20661277,  -0.04437555,  0.01405915,  -0.02790043,  0.13853732,  0.03273586,  -0.02371675,  -0.04529494,
  0.04417320,  -0.03940760,  0.07857736,  0.07863868,  -0.00304393,  0.03150665,  -0.03112264,  -0.14056587,
  0.09752177,  -0.02481702,  -0.01863817,  0.06579787,  0.17313805,  0.09389083,  0.02332828,  0.02860030,
  -0.05542492,  0.04716108,  0.03734928,  -0.08964126,  0.09567896,  -0.00396279,  -0.00894306,  0.03389812,
  0.17342451,  -0.04899802,  0.06223321,  0.12181254,  -0.03270328,  0.14270777,  0.05044649,  0.02622770,
  0.05834358,  0.11284192,  0.05501228,  -0.07987887,  0.11968497,  0.15426093,  0.05432847,  0.07255583,
  -0.07438209,  0.01395732,  0.08112116,  -0.08953332,  0.06757139,  -0.05102830,  0.02069565,  -0.01893209,
  0.15297151,  0.00686206,  -0.06564706,  0.03536896,  -0.08483761,  0.09977285,  0.03194515,  -0.12019403,
  0.09090751,  -0.01640557,  -0.14804076,  -0.03715397,  0.09494227,  0.12790786,  -0.02959141,  0.08197947,
  -0.10728754,  0.05333998,  -0.03597082,  -0.09105042,  0.07098734,  0.01504211,  -0.07402676,  -0.04880454,
  0.08090308,  0.09855692,  0.07461680,  -0.10209850,  0.02186710,  -0.03682109,  -0.01343897,  0.03318076,
  -0.05617274,  0.01999889,  -0.20866591,  -0.04360387,  0.12305303,  0.07055604,  -0.04584038,  -0.12666856,
  0.00528229,  -0.00217439,  0.00336472,  -0.10353557,  -0.03166925,  -0.13161750,  -0.26107925,  0.01711386,
  0.07835057,  -0.06192619,  0.00683541,  -0.04124768,  0.02967307,  0.03632940,  -0.08574177,  0.02338437,
  -0.13162401,  -0.13868988,  -0.22054076,  -0.06756494,  0.16563731,  0.05118131,  -0.04400158,  -0.02881844,
  0.18455300,  0.04139772,  -0.02313329,  -0.01169730,  -0.07551575,  -0.14658487,  -0.31129336,  -0.01288400,
  0.15850699,  0.08781486,  -0.03074878,  -0.12842497,  0.03742145,  0.05953212,  -0.05099522,  -0.04142477,
  -0.07419187,  -0.14513826,  -0.29459232,  0.08445340,  0.12288499,  -0.02754966,  0.05598976,  -0.13695481,
  0.01127031,  0.03422344,  -0.03684542,  0.00730746,  -0.04736101,  -0.03328149,  -0.12248066,  -0.00054585,
  0.21799348,  -0.05469316,  -0.00138070,  -0.13618709,  -0.05791282,  0.12467457,  -0.00967628,  0.05793823,
  0.05360388,  0.02082485,  0.00243449,  0.01343320,  0.21671508,  -0.00696855,  -0.09379487,  -0.09041754,
  0.00437725,  0.18819797,  -0.11778484,  0.00390383,  -0.02922404,  0.04241715,  -0.00653708,  0.02699843,
  0.21861398,  0.14527099,  -0.04276782,  -0.06106973,  -0.07965808,  0.06089859,  -0.02466305,  0.01822419,
  -0.01141238,  0.06321535,  0.04218947,  0.06323891,  0.21656287,  0.11709295,  -0.04178597,  0.00963692,
  -0.11910642,  0.14945437,  -0.05037643,  -0.04609651,  0.06201502,  0.00141906,  0.13809298,  0.07488018,
  0.09364202,  0.07583557,  -0.04767587,  -0.11197715,  -0.10423876,  0.16917440,  -0.05238965,  0.00424049,
  0.04434353,  -0.06823965,  0.08077081,  0.03208437,  0.01816964,  0.03770042,  -0.11189013,  -0.05364180,
  -0.03875761,  0.06024746,  -0.00956756,  0.04833601,  -0.02792485,  -0.06459327,  0.09608790,  0.04697471,
  0.03751802,  0.05310263,  -0.11986474,  0.07387593,  -0.07617834,  0.02352794,  0.03033027,  -0.05098547,
  0.09327311,  0.04028483,  0.00837958,  0.08289484,  0.09407003,  -0.03681022,  -0.06629671,  -0.02212078,
  0.04477169,  0.13534635,  -0.05534792,  0.09067719,  0.10468079,  0.11703090,  -0.08885542,  0.02498790,
  0.03400295,  -0.04988798,  -0.02855674,  0.03565512,  0.12690006,  0.09156805,  0.06435886,  0.15990317,
  0.03223130,  -0.04872649,  -0.16017038,  -0.05746406,  -0.11059812,  -0.03371696,  0.08485366,  -0.05012149,
  0.09525542,  -0.01416595,  -0.02907047,  0.16800517,  -0.04419599,  -0.01182022,  -0.15510522,  -0.04807669,
  0.03374811,  0.08180127,  -0.04888603,  -0.07631131,  0.11118736,  -0.00373918,  -0.00410711,  0.09056885,
  -0.02847796,  0.11780690,  -0.06769485,  -0.10674453,  0.03047398,  -0.04527103,  0.00401684,  0.02234753,
  0.13061278,  -0.05620738,  0.05804246,  0.09907179,  0.03795266,  0.03720733,  -0.13073781,  -0.15835638,
  -0.07769073,  0.05424952,  -0.00092402,  -0.01276245,  0.11185858,  -0.07160783,  0.07818054,  0.13927867,
  0.06760793,  0.11512486,  -0.04662178,  -0.09224916,  0.01302219,  0.08993182,  0.02693558,  -0.07603983,
  -0.07189983,  -0.00765721,  0.06869445,  0.16068920,  0.02129978,  0.07506123,  -0.05475660,  -0.13810103,
  -0.05374752,  0.02107010,  0.03823040,  -0.15886125,  -0.05062295,  -0.04260014,  0.07025366,  -0.02018640,
  0.01661663,  0.10867827,  -0.10869447,  -0.07073959,  -0.17329191,  0.03158877,  0.06750377,  -0.16552998,
  -0.13742019,  -0.02219341,  0.03946504,  0.06078427,  -0.05052513,  -0.00196880,  -0.02793510,  0.02182285,
  -0.08076757,  0.11123831,  -0.02142895,  -0.08446738,  -0.12254329,  -0.08744544,  0.15290679,  -0.00665101,
  -0.04994497,  -0.04239802,  0.04459669,  -0.07172646,  -0.01769082,  0.03741954,  0.12706043,  -0.07705975,
  -0.13603795,  0.00107331,  0.09786380,  0.08343903,  0.09420504,  -0.05091290,  -0.01326383,  -0.11275818,
  -0.10572909,  0.05098043,  0.03219085,  -0.18978636,  -0.05213984,  0.03268607,  0.02722403,  0.09339766,
  -0.03559211,  -0.04250969,  0.11009889,  -0.20504551,  -0.05676097,  0.01751430,  0.03031136,  -0.15642568,
  0.03682455,  0.15807506,  0.02877167,  -0.00236730,  -0.00535148,  -0.08603492,  0.14081363,  -0.17669408,
  -0.09286644,  0.12500361,  0.05582044,  -0.06413172,  0.02726375,  0.11868905,  -0.03821723,  0.08275095,
  -0.02045070,  0.05942313,  0.05061514,  -0.10726005,  -0.13670179,  0.00930287,  0.08456995,  -0.00401636,
  0.06754974,  0.10564030,  -0.01018894,  0.04356997,  -0.00662656,  0.02051272,  0.05476128,  -0.00053262,
  -0.07499798,  -0.02052308,  0.12662540,  0.03779415,  0.18368571,  -0.02363046,  0.04798204,  -0.02601741,
  0.02993880,  0.00941762,  0.12759645,  -0.05299329,  -0.02147598,  0.03377609,  0.07461980,  0.14504428,
  0.19095838,  0.00767965,  0.07350847,  -0.02474009,  0.06854534,  -0.02183099,  0.08837815,  -0.15139097,
  0.02144330,  -0.02124766,  -0.03685791,  0.14428043,  0.17240049,  -0.01586095,  -0.00626429,  0.01071914,
  0.10542008,  -0.09877070,  0.05440933,  -0.00115608,  -0.13325411,  0.01328618,  0.10106593,  0.08622047,
  -0.01174388,  0.06282222,  0.05309338,  0.05840805,  0.08707460,  0.06039067,  0.07964136,  0.01154465,
  -0.09201726,  -0.06444345,  -0.05857873,  0.03747750,  0.00281218,  0.06590281,  0.04086152,  -0.03868482,
  0.00954112,  0.08074270,  -0.02586691,  -0.06797661,  -0.01293204,  0.04121248,  0.01059883,  0.13630326,
  0.12689202,  -0.02200169,  0.07345814,  -0.00774809,  0.03698522,  -0.00007772,  0.14948407,  -0.09699322,
  0.07906315,  -0.06039171,  0.05087866,  -0.04365460,  0.06018839,  -0.02289313,  0.03417925,  -0.08390026,
  0.08550499,  -0.01327928,  0.14237374,  -0.05509811,  0.00078999,  0.00281059,  -0.07624338,  0.02697542,
  -0.09729583,  -0.04161283,  0.09469377,  -0.07487754,  0.08990211,  0.07605594,  0.10577276,  0.00498823,
  0.13495407,  -0.04357831,  -0.01818287,  0.02291657,  -0.11954088,  0.02965208,  -0.01310565,  -0.09840952,
  -0.04341371,  -0.00859874,  0.07949115,  -0.04645672,  0.10279884,  0.07568123,  -0.02204281,  -0.00812055,
  0.01270020,  -0.01931038,  0.04433488,  -0.11981873,  -0.06065708,  0.03183592,  -0.04480697,  -0.03016046,
  0.03754344,  0.03246387,  -0.03659479,  0.00471874,  0.01387701,  0.02287054,  0.03478117,  -0.04295962,
  -0.06795635,  0.08422185,  0.01836248,  0.10551628,  0.06046997,  0.00308106,  -0.05731605,  0.11642361,
  -0.03032793,  0.14643534,  0.03512112,  -0.07747059,  -0.04520859,  0.13569234,  0.12365766,  0.10932002,
  0.06424795,  0.06988848,  0.07909369,  0.12391493,  0.02105754,  0.07826919,  -0.04699438,  0.01554598,
  -0.05141307,  0.03719904,  0.05927365,  0.06634015,  0.02103639,  -0.10820346,  -0.01533827,  0.08051737,
  0.03649749,  0.11909765,  -0.01404759,  0.00564592,  -0.01743530,  -0.03797794,  0.04608632,  0.08565088,
  0.09900271,  -0.03081439,  -0.03120141,  0.20412989,  0.10236762,  0.13122576,  -0.08154289,  -0.06374668,
  0.01983158,  -0.01415156,  0.08905513,  0.15466876,  -0.02486661,  -0.08722587,  0.05164102,  0.11877638,
  0.08275351,  0.10628574,  -0.03210519,  -0.05653495,  0.07275785,  -0.04952078,  0.08945195,  0.01776044,
  -0.10199613,  0.12390257,  -0.01985792,  0.10670654,  0.16578323,  0.00095627,  0.03301868,  -0.08684532,
  0.04557175,  -0.10529224,  0.13570631,  0.16656929,  -0.10352933,  0.04273815,  0.01528383,  0.14195953,
  -0.00210462,  0.02352041,  -0.04261774,  -0.07894774,  0.05110203,  0.00875245,  0.15759626,  0.10929672,
  -0.06063410,  0.01571960,  0.02819380,  0.12331092,  0.03287750,  -0.10282124,  -0.08720896,  0.02747785,
  0.17128959,  -0.00586528,  0.04007684,  -0.05659314,  -0.07751688,  0.07127517,  -0.08960494,  0.12935108,
  -0.00332100,  0.07132148,  -0.04571118,  -0.07354165,  0.16932438,  -0.06557784,  0.16501464,  -0.08274753,
  -0.06030594,  0.05993685,  -0.11156852,  0.04082303,  0.03475833,  -0.06790269,  -0.11852085,  -0.04325782,
  0.05008107,  0.01824734,  0.13668512,  -0.00191029,  -0.13514508,  0.08746909,  -0.02014367,  0.11219007,
  -0.03010545,  0.03423040,  0.06909730,  -0.03678424,  0.09551223,  -0.00007835,  0.11320561,  -0.06858507,
  -0.17863767,  0.00226127,  -0.12711632,  0.02535353,  0.08415675,  -0.04127876,  0.06159928,  -0.11668905,
  0.04241099,  0.05188197,  0.08940453,  0.04932831,  -0.06972475,  0.05969643,  -0.00447523,  0.04574975,
  0.00462215,  0.12165049,  0.01418440,  -0.06860165,  0.08121251,  -0.06966866,  0.10629863,  -0.09147317,
  -0.01357924,  0.13291489,  0.04441623,  0.04839366,  -0.04898821,  -0.01726963,  -0.01444589,  0.00276612,
  0.08321451,  -0.14007758,  0.05222019,  -0.02855098,  -0.05200104,  0.04659727,  0.05796812,  -0.08045140,
  -0.00937965,  0.03617331,  0.03464932,  -0.03142778,  0.06226357,  -0.13581003,  0.09515657,  -0.05680716,
  -0.15671341,  0.09309908,  0.04470364,  -0.11986023,  -0.00508797,  0.03867764,  0.00796921,  0.12244601,
  0.04679650,  -0.00378810,  -0.06155397,  -0.00285583,  -0.13853687,  0.11370844,  0.11957592,  -0.11679083,
  0.03646424,  0.04384436,  0.13130224,  0.10101712,  -0.04760183,  -0.10424114,  0.07210013,  -0.10110052,
  -0.15974575,  0.08132248,  0.14788239,  -0.11426602,  0.07001624,  -0.00129160,  0.06740706,  0.13578840,
  -0.01930026,  0.01581352,  0.10468913,  -0.06652231,  -0.06333198,  0.07634173,  0.05063929,  -0.01331806,
  0.05211677,  -0.05379507,  0.09220678,  0.05789270,  -0.08895073,  -0.00314600,  -0.01273836,  -0.13574845,
  0.08544491,  0.14936012,  -0.00996135,  -0.11479131,  0.05547961,  -0.06511895,  0.13301128,  -0.05710572,
  -0.08659200,  0.01062671,  -0.00454054,  -0.03585180,  0.09338359,  0.11152390,  -0.09442876,  -0.11223780,
  0.10627091,  -0.04103361,  0.08202021,  -0.04684244,  -0.15900367,  -0.04282088,  -0.02962900,  -0.00844854,
  0.03239509,  0.00714220,  -0.09191342,  -0.00743694,  -0.02248518,  -0.02814663,  -0.02121856,  -0.13789107,
  -0.15588813,  0.03411097,  0.02694505,  0.04726015,  -0.09045602,  0.14827654,  -0.21527313,  0.02929824,
  0.07573506,  -0.06995206,  -0.01361992,  -0.14306161,  -0.06131463,  0.01869707,  0.08851103,  -0.03635962,
  -0.09688856,  0.14376350,  -0.22908859,  -0.00722115,  -0.02132809,  -0.11854394,  -0.04252686,  -0.07805835,
  -0.07330686,  -0.03727139,  0.05466646,  -0.04276429,  -0.01623309,  0.13847318,  -0.12962444,  0.02020400,
  -0.07149714,  -0.03943506,  -0.10370513,  -0.15356125,  -0.09114853,  0.02832494,  0.04075002,  -0.17639945,
  0.02677398,  -0.01289667,  -0.05637810,  -0.00755537,  -0.06914414,  -0.04993589,  -0.09145466,  -0.17228377,
  0.04020949,  0.04804441,  -0.08253828,  -0.12288007,  0.13972180,  0.10360895,  0.06250767,  -0.02728286,
  -0.04205233,  -0.06245388,  -0.15267545,  -0.15711792,  -0.04105672,  0.09430550,  -0.08460060,  -0.20040961,
  0.10886560,  -0.09732823,  0.02267088,  -0.02373639,  -0.19241019,  -0.08478422,  -0.06421656,  -0.12309307,
  0.05550980,  0.01157384,  0.01602497,  -0.09491056,  0.02250189,  0.02364027,  0.12315228,  0.09135348,
  -0.06879637,  -0.01604638,  -0.04212605,  -0.05505835,  -0.01146402,  0.09515318,  -0.01075609,  -0.16479629,
  0.18520552,  -0.02664313,  0.17435880,  0.00070151,  0.01533536,  0.05748428,  -0.03886387,  -0.11250424,
  0.00199480,  0.01669310,  -0.08424183,  -0.11582136,  0.08910446,  -0.08598551,  0.12912232,  0.03440303,
  -0.01707128,  -0.09756950,  -0.02596738,  -0.21184519,  -0.00315158,  0.07158095,  -0.04567087,  -0.11346160,
  0.06581342,  -0.12139107,  0.07957058,  -0.01835226,  -0.04559711,  0.03259486,  -0.04949402,  -0.09548237,
  0.06687015,  -0.05268731,  -0.13043316,  -0.00144142,  0.09828407,  -0.09737029,  -0.01002911,  0.03200854,
  0.11788972,  0.11272877,  0.00292335,  -0.10481138,  0.04162960,  -0.01023310,  -0.14140099,  -0.10922116,
  0.05097529,  -0.12357391,  -0.16437310,  -0.06632240,  0.06350303,  0.00553971,  0.00414034,  -0.15097181,
  0.06664023,  0.12474939,  -0.13472304,  -0.10772815,  0.01689722,  -0.10005061,  -0.08567377,  0.04272584,
  0.18050155,  0.03063544,  -0.04468137,  -0.08521794,  -0.02185402,  0.11759068,  -0.12478232,  0.03887161,
  0.11770771,  -0.08254972,  -0.10599351,  0.00875616,  0.06372686,  0.02759919,  0.06283297,  -0.17545658,
  0.11080095,  0.00794057,  -0.07981525,  0.10892101,  0.04722054,  -0.05770246,  -0.17815994,  0.01693179,
  0.09178790,  -0.02650845,  0.11277913,  -0.11996337,  0.03818800,  0.09935068,  -0.15744241,  -0.05776599,
  0.12397673,  0.01491352,  -0.07941330,  -0.09688120,  0.10700508,  0.18410954,  0.11384976,  -0.12562782,
  -0.11001834,  -0.02278376,  -0.15212645,  -0.05263345,  0.03648318,  -0.07414509,  0.01156924,  0.00300368,
  0.03245770,  0.24959284,  0.05720810,  0.01043150,  -0.03625837,  0.12163116,  -0.01342627,  -0.04526443,
  0.06652506,  -0.10911991,  0.10576299,  -0.03780127,  -0.06443416,  0.21077773,  0.13746347,  -0.02812312,
  -0.12143020,  0.09530852,  0.01513365,  -0.11685567,  0.04663680,  -0.03229132,  0.06116445,  -0.16563731,
  0.05325625,  0.09082928,  0.01556858,  -0.06413712,  -0.10386384,  0.00553425,  0.06491115,  -0.04282078,
  0.18309605,  -0.02245899,  0.05233895,  -0.09876566,  -0.07263105,  0.08934308,  0.07888719,  0.05021513,
  -0.12246739,  0.00919090,  0.01922883,  0.00167447,  0.05451327,  0.06205174,  0.03331827,  -0.09042569,
  -0.00177031,  0.04903836,  0.02350091,  0.07530238,  -0.01002170,  0.06071457,  -0.01277515,  0.00199101,
  0.06774693,  0.01487926,  0.09374373,  -0.09863050,  0.10744321,  -0.00415524,  0.00851462,  -0.02614538,
  -0.02742527,  0.07399462,  -0.10935956,  0.06215829,  0.02807540,  -0.00801094,  0.04139347,  -0.04517456,
  -0.02203034,  -0.01751616,  0.08970869,  0.09778197,  -0.11258686,  0.06930834,  -0.16709132,  -0.04805044,
  -0.01755295,  0.02326371,  -0.02741392,  -0.02429005,  -0.04475471,  -0.05679601,  0.03964112,  0.07002711,
  0.02765007,  0.08735288,  -0.18505184,  0.02207160,  -0.05061396,  -0.03320808,  -0.20681328,  -0.06391649,
  -0.03266520,  0.03471413,  0.00311201,  0.11259045,  -0.12460995,  0.05389581,  -0.08120318,  -0.05429003,
  -0.10095078,  -0.00175998,  -0.20685388,  -0.01370680,  0.09983393,  0.03346830,  0.04538446,  0.06149851,
  0.02177354,  0.08361542,  -0.05715443,  -0.02258478,  -0.06932472,  -0.01180460,  -0.10840488,  -0.11258467,
  0.09238056,  0.05082076,  0.09461366,  0.06527371,  -0.08516567,  -0.04739031,  -0.09581033,  -0.03645665,
  -0.04848830,  -0.04898547,  -0.05152378,  -0.09572706,  0.11863340,  -0.01098485,  -0.04349210,  0.06051537,
  0.04386269,  0.04316146,  -0.05283074,  0.04255857,  -0.04356061,  -0.02344701,  -0.04908157,  -0.25920343,
  0.08128354,  0.07564805,  0.03925728,  0.03815174,  -0.02038660,  -0.12136424,  -0.03610091,  0.02017221,
  -0.08379587,  -0.05672248,  0.00608302,  -0.22776839,  0.00940577,  0.04575385,  -0.06477249,  0.06890258,
  0.12641564,  -0.06347463,  -0.01774270,  0.12800968,  -0.13582933,  0.09963657,  0.13511762,  -0.16622758,
  -0.10232605,  0.07799647,  -0.07013237,  0.14770842,  0.07066984,  -0.07446993,  0.08318336,  0.03565807,
  -0.06115365,  0.10226570,  0.15285899,  -0.17019166,  0.01950263,  -0.01158403,  -0.02392914,  0.08269376,
  0.12052755,  -0.17532353,  0.00505629,  0.10081581,  -0.08306646,  -0.01908168,  0.15247488,  -0.20372345,
  -0.13884321,  0.06365357,  0.00070638,  0.02501053,  0.04801319,  -0.18465558,  0.08065262,  0.13414226,
  -0.04642581,  -0.00285754,  0.13552505,  -0.09556776,  -0.05566972,  0.07223792,  -0.06829511,  0.09158049,
  0.13829747,  -0.11064266,  0.07880751,  0.08046653,  -0.14281730,  -0.00942083,  0.10702819,  -0.08751829,
  -0.16240397,  0.05624854,  -0.12440231,  0.09092438,  0.09370448,  -0.14236064,  0.09092428,  0.07671470,
  -0.12730011,  -0.01352499,  -0.11830544,  -0.09678959,  -0.19596371,  -0.08776599,  -0.02616758,  -0.00550853,
  0.06990343,  -0.05701450,  0.02994641,  0.04984784,  0.01988416,  0.08789046,  -0.01374285,  -0.02634675,
  -0.12683953,  -0.04438488,  -0.06402504,  -0.03230314,  0.20289111,  -0.07322941,  -0.04932394,  0.09709491,
  -0.01791041,  -0.04513223,  -0.05957723,  -0.03710933,  -0.07683395,  0.01908563,  0.08285714,  -0.08378302,
  0.06754357,  -0.04535034,  -0.04136905,  -0.04104728,  -0.10522820,  -0.01504947,  -0.00802270,  -0.05344075,
  0.06491710,  -0.03455583,  0.06228952,  -0.08863124,  0.09728393,  -0.00732347,  -0.09262048,  -0.02577972,
  0.02525574,  0.08616935,  0.08145217,  -0.06486804,  -0.01520222,  -0.02484100,  -0.01722565,  -0.06215931,
  0.06502559,  -0.04703871,  -0.07545440,  -0.14425354,  -0.13940865,  0.01097085,  0.09578510,  -0.07278452,
  0.06004967,  0.00914639,  -0.03592962,  -0.06004523,  -0.01114682,  -0.02748450,  0.01770777,  -0.08043929,
  -0.13303380,  0.10932527,  0.08206058,  0.05382589,  0.00275289,  -0.09915886,  -0.02441942,  -0.08950723,
  -0.01584086,  0.05974078,  0.00766700,  -0.09384380,  0.00338946,  0.10150448,  0.13115183,  0.03638927,
  -0.07764547,  -0.13517404,  0.12473889,  -0.14990301,  -0.05787709,  0.02963218,  0.07152497,  -0.00643706,
  -0.08205672,  0.07208780,  0.12929878,  0.03817153,  -0.06789608,  0.01892683,  0.06474112,  -0.02384290,
  -0.04330681,  -0.01748002,  0.00433578,  -0.11085268,  -0.08083821,  -0.00027739,  0.06248784,  0.10840691,
  -0.23444337,  0.01128624,  0.10549849,  -0.03002911,  -0.01975085,  0.11727844,  0.13364945,  -0.17048676,
  -0.08669040,  0.10306473,  0.01972545,  0.14301088,  -0.20068397,  0.02838712,  0.01469943,  -0.07870249,
  -0.00790622,  0.00273066,  0.10939096,  -0.01715698,  -0.05748116,  0.04493411,  -0.03454136,  0.19341010,
  -0.13942389,  -0.02200055,  -0.04398738,  -0.05888953,  -0.03590911,  0.06957427,  0.06346015,  -0.08924810,
  -0.02997269,  0.07438616,  -0.12946852,  0.09222668,  -0.12833099,  -0.09466537,  0.08684896,  -0.07640173,
  0.02908092,  0.12493371,  0.07673351,  -0.08634205,  -0.08167125,  -0.02958796,  -0.08341124,  0.19262512,
  -0.02548833,  -0.02377278,  -0.01436268,  -0.04218523,  0.01793352,  0.01214936,  0.06010032,  -0.11541500,
  -0.11599156,  0.10452107,  -0.09807844,  0.07424211,  -0.05874698,  0.05339215,  0.07557842,  -0.03706994,
  -0.02984156,  0.04580578,  0.13529104,  -0.10855258,  -0.14629297,  -0.05755379,  -0.05538117,  0.07964449,
  0.01560831,  0.05338591,  -0.03209715,  -0.04130694,  0.04798502,  0.13296731,  0.05929309,  0.03302883,
  -0.14414164,  -0.03512961,  0.02331698,  0.20682134,  -0.01144883,  0.03559863,  0.07988584,  -0.09278487,
  0.09717633,  0.01018560,  0.02786686,  0.01718451,  -0.12132166,  -0.02275266,  0.09156853,  0.17597830,
  0.10080712,  0.01582810,  0.04404301,  -0.07476452,  0.08701994,  0.08422010,  0.18382101,  0.00591762,
  -0.02660781,  -0.05504651,  0.09886029,  0.17303869,  0.14365263,  0.13690390,  0.04014892,  -0.12224794,
  0.00178279,  0.01511403,  0.19383529,  -0.03361678,  -0.07113710,  0.00429586,  0.11819414,  0.11357589,
  0.07021160,  0.04965990,  0.06559435,  0.00286742,  0.06975275,  0.07522849,  0.12487099,  0.02749519,
  0.01982570,  -0.10805421,  0.14179909,  0.10272893,  0.10760576,  0.04827348,  0.07252178,  -0.02873287,
  0.20436569,  0.12130187,  0.02251607,  -0.00436813,  -0.00419885,  -0.06202002,  -0.00690904,  0.03501305,
  -0.09581347,  -0.04218487,  0.02457262,  -0.08871061,  0.07267459,  0.07157791,  -0.02660896,  0.01000618,
  -0.06469599,  -0.10376181,  -0.13347934,  0.18514132,  -0.14435524,  -0.00776759,  -0.02791725,  -0.01491283,
  0.13165243,  0.11675909,  0.01485424,  0.08381409,  0.05300291,  -0.02166305,  -0.03622342,  0.12737942,
  -0.17911455,  -0.06401838,  -0.05189825,  0.00630034,  0.12764452,  0.11111308,  0.14089793,  0.05117581,
  0.00992993,  0.07660670,  -0.17341344,  0.06938276,  -0.12365606,  0.03602249,  0.01414841,  -0.11512130,
  0.08843293,  0.02281260,  0.03307335,  0.04682426,  -0.02717902,  -0.00502439,  -0.12315659,  0.00948874,
  -0.15077077,  0.02392136,  0.11293931,  -0.08149282,  0.10076052,  0.10344689,  -0.02713537,  0.05933890,
  0.04432024,  -0.03367626,  -0.05979614,  0.02810444,  -0.01939378,  0.06766877,  -0.00592879,  0.02270045,
  -0.07536732,  0.14524503,  -0.02491764,  0.05800743,  -0.01079814,  0.07185238,  0.01549322,  0.01542823,
  0.00588155,  0.13955809,  0.05493736,  -0.02222920,  0.03119816,  -0.02347779,  0.10349347,  0.02707982,
  0.03109811,  0.01519015,  0.06919052,  -0.04148180,  -0.07307684,  -0.06107961,  0.05877728,  0.05135657,
  -0.07293474,  0.07394463,  0.03779306,  0.04744968,  -0.01712025,  -0.03162794,  0.11115327,  -0.13531648,
  0.00536126,  0.02236541,  -0.05737025,  0.05946665,  -0.11436041,  -0.05881638,  0.11937613,  0.08684012,
  -0.00549624,  -0.06710906,  0.13498856,  -0.06600770,  0.04452903,  0.08123913,  -0.02606862,  -0.00539317,
  -0.06739807,  -0.05275238,  0.06184503,  -0.01763616,  -0.03377226,  -0.08328158,  0.13013898,  -0.04975715,
  -0.00832115,  0.13672046,  -0.00700837,  0.09679879,  0.02539952,  0.03489579,  0.02256504,  0.10146963,
  -0.06591143,  -0.09059685,  -0.02297998,  -0.06375391,  -0.06790465,  0.02645224,  -0.01717106,  0.01114649,
  -0.07088049,  0.07040546,  0.13439669,  0.14209187,  -0.06719413,  -0.15372093,  -0.01205744,  -0.00978217,
  -0.00683772,  0.11307620,  0.03511250,  -0.00151834,  -0.09488182,  -0.01086730,  0.04223435,  0.17928110,
  -0.10816129,  -0.09117319,  -0.10239468,  -0.12037627,  -0.02610301,  0.09903561,  -0.02707766,  0.08359955,
  -0.19439907,  -0.09041718,  -0.02132464,  0.14852613,  -0.08617964,  -0.00874218,  -0.20031890,  -0.07071193,
  -0.10994481,  0.03596886,  0.10802277,  -0.02517057,  -0.18220796,  0.04671002,  -0.00923892,  0.06742527,
  -0.01101203,  -0.03949061,  -0.22521056,  -0.03403997,  -0.05176172,  -0.08768305,  0.09079709,  -0.02068930,
  -0.04091743,  0.06798608,  -0.03925442,  0.12110732,  0.03073404,  0.02896292,  -0.16246744,  -0.03589083,
  -0.02006364,  -0.07219712,  0.06367744,  0.00161081,  0.01260013,  -0.07364636,  0.04630068,  0.05693826,
  0.06519021,  0.05467023,  -0.15604348,  0.10797784,  -0.08569990,  -0.06721809,  -0.04378610,  0.07197902,
  -0.04350293,  -0.01659278,  -0.09467328,  0.08326013,  0.05266617,  -0.01712522,  -0.03317915,  0.07414793,
  0.11011285,  0.07117671,  -0.01705881,  -0.11328483,  0.00452544,  -0.07112056,  -0.01688815,  0.05154400,
  0.05079591,  0.08787486,  0.07118601,  0.06563856,  0.08094367,  0.09788368,  0.09036916,  -0.09355212,
  -0.00295880,  0.04515404,  0.04382009,  0.00120548,  0.17124894,  0.00496992,  0.07450289,  0.06610420,
  0.10542019,  -0.02259423,  -0.02517834,  -0.08083738,  0.08435107,  -0.01860606,  -0.07690306,  -0.13690108,
  0.07930419,  0.20303926,  0.09765656,  -0.02816407,  0.15944868,  -0.00866284,  -0.00977262,  -0.15363029,
  0.05598893,  -0.05340710,  -0.03081588,  -0.12912661,  0.08185140,  0.15405700,  0.11190403,  -0.09274050,
  0.06819862,  0.04853709,  -0.00090950,  -0.14112265,  -0.07950981,  -0.02543595,  -0.10262600,  -0.12023640,
  0.11641080,  0.04558605,  -0.01665024,  -0.01124599,  0.09416514,  0.08828389,  0.03994676,  -0.07546607,
  -0.06727165,  0.00826813,  -0.05592094,  0.03837977,  0.04695335,  0.10534883,  0.04916592,  -0.01717828,
  0.04017102,  0.00300068,  -0.11034971,  -0.16100287,  0.00036700,  -0.08243820,  -0.09505391,  -0.03854938,
  0.06390671,  0.03743990,  -0.06717615,  -0.03278354,  -0.00724235,  0.03279282,  -0.12961259,  -0.16392089,
  -0.14437528,  -0.09937565,  -0.03653871,  0.03589850,  0.13657154,  0.07297186,  -0.17153177,  -0.07921796,
  -0.02075824,  0.08062766,  -0.06172097,  -0.25198063,  -0.05662369,  -0.16735981,  -0.10774968,  0.04187382,
  0.14095117,  0.14496821,  -0.21181287,  -0.06983645,  -0.05986410,  0.04577135,  -0.14580570,  -0.09556504,
  -0.00460535,  -0.16069280,  -0.25885403,  0.03047002,  -0.01527168,  0.10284074,  -0.14098640,  -0.09488611,
  -0.11907865,  0.14755452,  -0.09772868,  -0.13641748,  -0.16073221,  -0.04980818,  -0.18514240,  0.00104649,
  0.13758633,  0.12074165,  -0.12296642,  -0.04118910,  -0.06321152,  0.00957879,  -0.02233746,  -0.14166035,
  -0.17363672,  0.01688875,  -0.06850721,  0.03628399,  0.05715166,  0.03890910,  -0.07900051,  0.02094502,
  -0.00204253,  0.13122231,  -0.00201594,  0.03214196,  -0.05672828,  -0.07252555,  -0.02889769,  -0.00719816,
  0.01154120,  0.06260173,  0.14194512,  -0.02135978,  -0.02041932,  -0.01804222,  -0.10657708,  0.11897849,
  -0.01597270,  -0.09083691,  0.06035095,  0.03961115,  0.17055321,  0.04497807,  0.02974784,  -0.02455463,
  -0.03621795,  0.00185009,  -0.05529252,  0.11073307,  -0.13080035,  -0.00775769,  0.10188738,  -0.02806075,
  0.10027222,  0.07638508,  0.06680367,  -0.02315000,  0.08746409,  0.14479615,  0.03288558,  0.04567790,
  0.00866277,  -0.10782854,  0.04888554,  -0.07390834,  0.10531972,  -0.00514384,  0.03433120,  0.06653158,
  -0.03916277,  0.20581590,  0.03859405,  0.01847390,  0.01906623,  0.03103015,  -0.02557710,  -0.03816967,
  0.08456640,  0.04263351,  0.02977101,  0.06097252,  -0.01128974,  0.06565472,  0.16171086,  0.13156641,
  -0.06202206,  -0.01978568,  -0.05521870,  0.00025454,  0.02992005,  0.06869252,  0.00327893,  -0.06859573,
  -0.11819971,  0.04805933,  0.13421758,  0.06442902,  -0.05870064,  -0.08317062,  -0.03249288,  -0.00401695,
  0.07955939,  0.08855275,  -0.06563789,  -0.01407617,  -0.17341439,  0.12637165,  0.18872690,  0.08786339,
  0.02021857,  0.01831999,  -0.11149497,  -0.04431838,  0.05879577,  0.08561909,  -0.05955575,  -0.09958736,
  -0.14804961,  -0.00823082,  0.13858955,  0.10027731,  0.07397687,  0.01504255,  -0.22059247,  -0.06671236,
  0.10269941,  0.03269501,  -0.07541551,  -0.05992066,  -0.20962965,  0.02067864,  0.15878409,  0.00113886,
  0.08085277,  0.02243381,  -0.20242116,  0.05164303,  0.09927783,  0.05905510,  -0.23441575,  -0.02900185,
  -0.17528613,  0.11329605,  0.07376654,  -0.05068517,  0.05187265,  0.12761898,  -0.23014280,  0.00508678,
  0.08687171,  -0.06620675,  -0.07744427,  -0.14842501,  -0.02821014,  0.16252038,  0.14983952,  0.02040737,
  0.10437519,  0.09235193,  -0.06598688,  0.02675901,  -0.04858505,  -0.03214645,  -0.02862958,  -0.14868303,
  -0.13466869,  0.13535565,  0.18800089,  -0.06253426,  -0.02192695,  0.12942284,  0.00650141,  0.01787044,
  0.09870274,  0.01136611,  -0.13681942,  -0.08095349,  -0.02014080,  0.14526245,  0.20415899,  0.05210199,
  -0.03441023,  0.14836621,  0.03917262,  0.06118893,  0.08235289,  -0.07882211,  0.06451640,  -0.09580794,
  -0.01130558,  0.02762689,  0.16563264,  0.09813972,  -0.00694020,  0.22431642,  -0.00418430,  0.03762872,
  0.09245881,  0.00981516,  -0.04969814,  -0.23945183,  -0.02792486,  0.12512471,  0.20425124,  0.05290984,
  0.12170758,  0.24461395,  0.06376300,  0.05691847,  -0.04199104,  0.02545504,  0.08211111,  -0.13596921,
  -0.13413930,  0.03827072,  0.15979816,  0.02592354,  -0.06813355,  0.23730388,  -0.00082015,  0.05640008,
  -0.02552957,  -0.00708565,  0.10086244,  -0.14220169,  -0.06605881,  0.06273640,  0.12154321,  0.03412619,
  0.04430289,  0.19453128,  -0.01998116,  0.15379433,  0.03969556,  0.02696971,  0.09324113,  -0.11755058,
  -0.11597358,  0.03287515,  0.04904278,  0.07731803,  0.02124266,  0.02130867,  -0.02039940,  0.04361518,
  -0.09480800,  -0.01244698,  0.11315749,  0.00989187,  -0.18981794,  0.02342221,  0.04792915,  0.04471068,
  -0.02864398,  0.01577129,  0.00855346,  0.12595691,  0.01315876,  -0.05145018,  0.13645788,  -0.05078616,
  0.02785165,  -0.04145911,  0.11981074,  0.03433439,  0.02393157,  0.08526977,  0.06434629,  0.05330288,
  -0.02927738,  0.04617137,  -0.01663426,  -0.03561292,  0.00554324,  0.05731630,  0.05875591,  0.00608608,
  0.10983777,  -0.00919756,  -0.04621302,  0.06745453,  -0.09477798,  -0.05076037,  0.11063576,  0.08229046,
  -0.04584265,  0.02413412,  0.07545006,  0.01210810,  0.05220760,  -0.07145594,  -0.06751594,  0.02433551,
  -0.12999244,  -0.06285231,  0.00804491,  -0.00190452,  0.05151126,  -0.05661818,  0.09722138,  -0.08661065,
  0.01957221,  0.03711172,  -0.06771637,  0.05476476,  -0.15875326,  -0.04655847,  0.00577852,  0.01874187,
  0.12332901,  -0.06646364,  -0.06598683,  0.01919642,  -0.07742967,  -0.04878001,  -0.07739812,  -0.03628369,
  -0.13746499,  -0.06791162,  -0.03325795,  -0.06461091,  0.07270290,  0.01864026,  0.01331198,  -0.07711573,
  -0.04646676,  -0.13384111,  -0.07738788,  0.04991465,  -0.05065611,  0.00130520,  -0.00406263,  -0.08505533,
  0.15306830,  -0.02157808,  -0.05093583,  -0.08256788,  0.03312300,  -0.10589688,  -0.15543926,  -0.00021917,
  -0.05763951,  -0.04101969,  -0.06771586,  0.04647426,  -0.05122237,  0.11771122,  0.03063910,  -0.09099662,
  -0.02862222,  -0.08511019,  -0.12339248,  -0.01578738,  -0.17184103,  -0.02581545,  -0.06629489,  -0.02869822,
  0.02714782,  0.04748542,  0.01552510,  0.00932283,  -0.03510439,  -0.02426990,  -0.00286819,  0.02799751,
  -0.03369418,  -0.01971924,  -0.00647233,  0.03155759,  -0.08858860,  -0.07063767,  -0.13269769,  0.00997118,
  -0.11579435,  -0.01132250,  -0.03707158,  -0.01225648,  -0.12687279,  0.01672791,  0.01370877,  0.02040993,
  -0.10077822,  0.10055508,  0.01744345,  -0.05767310,  0.05727798,  -0.08492739,  0.00274445,  -0.05723503,
  -0.15167825,  0.08637661,  0.03980252,  -0.00979977,  -0.04246946,  0.02627004,  -0.16333421,  -0.03941440,
  -0.10910688,  -0.06313042,  -0.02194996,  -0.00226469,  -0.13830557,  0.11564413,  -0.07900216,  0.15412088,
  -0.04856876,  0.03838969,  -0.02026280,  -0.02124713,  -0.11387546,  -0.08952875,  0.01924156,  -0.05805925,
  -0.20491165,  -0.02201473,  0.08721425,  0.03856560,  -0.11594065,  0.01592568,  -0.18652886,  -0.07458682,
  -0.10421444,  -0.02188097,  0.08334807,  -0.08285552,  -0.18600990,  0.09268793,  0.14655422,  0.06804795,
  -0.10574175,  0.07935967,  -0.07864020,  -0.11367255,  -0.00072903,  -0.03505760,  0.17104664,  -0.09606978,
  -0.10574690,  0.12760867,  0.11430740,  0.02808445,  -0.10257223,  -0.06991480,  -0.01503881,  -0.04320744,
  0.00060935,  0.03931498,  0.07416119,  -0.00420032,  -0.11171137,  0.09696988,  0.09523024,  0.17622520,
  -0.05194234,  0.03810710,  -0.10923304,  -0.08526038,  -0.01998115,  -0.02729074,  0.07712600,  -0.05451944,
  -0.18515547,  0.00027876,  0.13867401,  0.20854828,  0.04758495,  0.04197695,  -0.08806464,  -0.06831065,
  0.06644980,  -0.12098440,  0.10066856,  -0.06885508,  -0.20910901,  0.01291796,  0.09345339,  0.18919884,
  -0.00792444,  -0.06404888,  -0.03848109,  -0.10097072,  -0.03316000,  -0.01628420,  0.00909214,  -0.10114045,
  -0.21274650,  0.02502948,  0.02327018,  0.13092016,  -0.06263184,  -0.03845591,  -0.02623489,  -0.09798203,
  0.10277483,  0.04186506,  0.11479027,  -0.10393177,  -0.08445935,  0.13449447,  -0.09935556,  0.12233572,
  -0.19639196,  -0.02454074,  -0.02451931,  -0.06169398,  0.10013353,  0.04401045,  -0.02235912,  0.02579908,
  -0.04336896,  0.08874013,  -0.12255918,  0.06723180,  -0.20379055,  -0.04168002,  -0.01567041,  -0.07617918,
  0.08522063,  -0.08328178,  -0.06961404,  0.01524463,  -0.05020558,  -0.03898610,  -0.14508884,  0.13761358,
  -0.10716568,  0.01245755,  0.01589942,  -0.07628507,  -0.02187487,  0.07054981,  0.04516973,  -0.04743312,
  -0.06585822,  -0.05684461,  -0.11039926,  0.07143706,  -0.05742698,  0.12914634,  0.06536911,  -0.01546119,
  0.08633488,  -0.07037191,  -0.10043704,  0.05668465,  -0.03117554,  0.06248555,  -0.15220317,  -0.05810545,
  0.00784188,  -0.01225192,  -0.08648232,  -0.00209092,  0.02268553,  -0.02528440,  -0.00845153,  0.05386733,
  -0.07865475,  -0.03228448,  -0.02164078,  0.01028959,  0.05008473,  0.01782552,  0.00671874,  -0.05686894,
  -0.00020473,  -0.04859278,  -0.00326159,  0.03814830,  0.07015841,  0.10216828,  -0.04618174,  -0.07088222,
  0.05417925,  -0.03473025,  0.14931040,  -0.13020122,  0.02123318,  -0.02206083,  0.05474272,  -0.01613879,
  0.12613408,  -0.05087874,  0.10234201,  -0.02316498,  0.18328567,  0.03387870,  0.05736158,  0.02342719,
  -0.07360417,  -0.11798008,  0.05954414,  -0.13034040,  0.03655461,  0.08680934,  0.02114488,  -0.02036727,
  0.24087992,  0.06349281,  0.07042143,  -0.04180973,  -0.07905252,  -0.07215473,  0.17022325,  -0.04834043,
  0.15240736,  0.02403959,  0.16005407,  -0.00806816,  0.14378653,  0.07934655,  0.11747956,  -0.10606057,
  -0.11333819,  0.02671977,  0.14169388,  0.00789601,  -0.00903935,  -0.02825052,  0.02899056,  -0.00092788,
  0.09525720,  0.09450541,  0.10733744,  0.02536686,  -0.12651704,  -0.01350147,  0.04032223,  0.09055719,
  -0.05667464,  0.00750233,  0.01510223,  -0.06827312,  0.00013215,  0.11881700,  -0.02904853,  -0.07952845,
  -0.09201997,  -0.02112346,  0.09010559,  0.01782552,  -0.13395679,  -0.11125037,  -0.04608748,  -0.01916548,
  0.05245519,  0.03883000,  0.01091199,  -0.01898550,  -0.19976313,  -0.04281924,  0.14343412,  0.16668463,
  0.04023011,  -0.14548470,  -0.19805518,  0.02837185,  -0.05410875,  0.12482578,  0.02500828,  0.01544097,
  -0.28531596,  0.09581292,  0.05006033,  0.04800607,  0.09888140,  -0.00628813,  -0.14554508,  0.12754105,
  -0.04805094,  0.03680824,  0.07889388,  0.03635951,  -0.23332728,  0.12979640,  0.04351855,  0.11091957,
  -0.04285080,  -0.15197682,  -0.22772762,  0.08285565,  -0.06541741,  0.01140691,  0.05792137,  -0.02367791,
  -0.20468333,  0.05700740,  -0.03173587,  0.02006652,  0.02854204,  -0.09029539,  -0.15112397,  0.09163662,
  -0.04912398,  0.03238337,  -0.01391614,  0.02782756,  -0.24528503,  0.04443587,  0.08149430,  0.04125256,
  -0.08958253,  -0.06593566,  -0.22512348,  0.10527743,  -0.07339275,  -0.02845923,  0.11657997,  -0.06821867,
  -0.20208643,  0.13323104,  -0.11008191,  0.06926483,  -0.06817331,  -0.13321443,  -0.09268438,  0.11900876,
  0.03904146,  -0.07744144,  0.00358593,  -0.01594806,  -0.17128630,  0.05045379,  0.00950613,  0.06592430,
  -0.00368406,  -0.17144191,  0.03980214,  0.02819435,  -0.01310396,  -0.03499914,  0.09709466,  0.04032981,
  -0.09330398,  0.06218679,  -0.09091531,  -0.02074949,  -0.08307473,  -0.11498018,  -0.00457184,  0.02706273,
  0.02170052,  0.10679628,  0.00957560,  -0.09672327,  -0.08507624,  -0.03456498,  0.03644399,  -0.01180046,
  -0.11965075,  -0.07444613,  0.06449788,  -0.11235249,  0.04370975,  0.14224236,  0.07977456,  -0.07230362,
  0.03488471,  0.08144206,  0.04194973,  -0.01131797,  -0.12958397,  -0.04895853,  0.04290353,  -0.11557750,
  -0.01554779,  0.07054868,  0.13361599,  -0.14534670,  -0.03708550,  0.05960525,  0.04497578,  -0.07153164,
  -0.03146306,  -0.10834046,  0.18988010,  -0.11843465,  -0.06131086,  0.07383753,  0.10839933,  -0.09872470,
  0.04134480,  -0.04768942,  0.01838401,  0.07648960,  0.04450919,  -0.02854341,  0.01636253,  0.01375135,
  -0.01308785,  -0.01400753,  0.02869162,  -0.13358782,  -0.03008592,  0.02477025,  0.00658772,  0.07096198,
  0.06687193,  -0.07243764,  -0.03202065,  -0.02775927,  -0.07402715,  0.05331741,  0.02555075,  -0.17323691,
  0.05139500,  0.01713593,  -0.00707655,  0.08292603,  -0.04937525,  -0.10329277,  -0.09057143,  -0.08874158,
  -0.17580298,  -0.01162907,  -0.06908614,  -0.19527711,  0.05371868,  -0.11435139,  -0.06502405,  0.04345593,
  -0.02124305,  -0.05556445,  -0.04057994,  -0.12235785,  -0.22704904,  0.10159527,  -0.00407689,  -0.09408382,
  0.00970648,  -0.09602506,  -0.14785859,  0.10685717,  -0.12745023,  0.00316885,  -0.18924542,  0.04730420,
  -0.11670845,  0.04537809,  -0.02468729,  -0.07020979,  0.09978736,  0.01277692,  -0.06475794,  0.00383448,
  -0.06676084,  0.09704148,  -0.12569086,  0.03829913,  -0.10532243,  0.03879448,  0.05248548,  -0.11357575,
  -0.05615918,  -0.02830771,  -0.09112094,  0.08242583,  -0.09112630,  -0.05228239,  -0.08555969,  0.01244748,
  -0.06712316,  -0.05965776,  -0.05099863,  -0.03149210,  0.04789149,  -0.10543995,  0.01307643,  0.05772136,
  -0.12854496,  -0.02351447,  0.02306607,  -0.11996517,  0.04927034,  0.02456880,  -0.01078012,  0.03764927,
  0.14905141,  -0.04016447,  -0.09747722,  -0.00203329,  -0.12508784,  0.06266674,  0.05197423,  -0.06965947,
  -0.06957762,  0.01781443,  -0.16030499,  0.09150334,  0.15455115,  -0.12472025,  0.09666806,  -0.05404264,
  -0.06420191,  0.05510830,  0.11127854,  -0.19771980,  -0.06720106,  0.09288174,  -0.08775302,  0.16283041,
  0.11933567,  -0.13062420,  0.13959108,  -0.01848288,  -0.10087185,  -0.02866600,  0.12426709,  -0.13229033,
  0.01763233,  0.01296816,  -0.00473727,  0.08262680,  0.09295012,  0.00188746,  -0.02092773,  0.05103960,
  -0.01744133,  0.00489113,  0.09412085,  -0.04886132,  -0.13704984,  0.14934076,  -0.09624150,  0.09106740,
  0.14910439,  -0.08949151,  0.05856451,  0.06085442,  -0.12938701,  -0.01840844,  0.09869774,  -0.11981334,
  -0.14538430,  -0.01625493,  -0.01408075,  0.08917917,  0.10207877,  -0.11880076,  0.05898364,  0.12294190,
  -0.11870409,  0.02461566,  -0.09383684,  -0.10397156,  -0.14101532,  0.04797873,  0.01270105,  -0.02646820,
  0.06456521,  -0.10772065,  0.06983589,  0.08633304,  0.03269929,  -0.10952447,  -0.01402720,  -0.07815174,
  -0.05951086,  -0.02981399,  -0.03199807,  -0.00326572,  0.16384426,  0.02898829,  -0.02147141,  0.03460665,
  -0.02101502,  0.00607897,  -0.12634622,  -0.11060911,  0.06243706,  0.04840032,  0.07352546,  -0.00117536,
  0.09734366,  -0.03411440,  -0.00999458,  -0.01601067,  -0.05321081,  0.07469617,  -0.09752703,  -0.04522762,
  -0.02701695,  -0.04575898,  0.06958681,  0.00761078,  0.04914457,  -0.07612156,  0.00276490,  0.06324587,
  0.04928545,  0.06962796,  0.04117270,  0.03192957,  0.08831781,  -0.07952956,  0.09088559,  0.04593307,
  0.04223426,  0.08315925,  -0.07856694,  0.03079719,  -0.11719292,  0.03651135,  0.04023869,  -0.00889511,
  0.10742386,  0.04973006,  0.04941728,  0.03209688,  -0.01799008,  0.09761430,  -0.04619700,  -0.15790541,
  -0.04205880,  -0.01313573,  0.01147642,  -0.09452784,  0.00329142,  -0.16539165,  0.13281956,  0.01121667,
  0.06857853,  0.03205483,  -0.01600223,  -0.01576691,  -0.03103329,  0.05113451,  0.13936062,  0.06527252,
  0.03594095,  -0.05379789,  -0.00233666,  -0.10195865,  0.08381984,  0.02961521,  -0.01491194,  0.00721050,
  -0.02672303,  0.16032948,  0.09814942,  0.09244296,  0.01265035,  -0.07620115,  0.11924510,  -0.13303715,
  0.03754109,  0.04757513,  0.07397852,  -0.10161480,  -0.07306780,  0.02662829,  0.01017561,  0.01334082,
  -0.07972856,  0.06279008,  0.02310055,  -0.00384162,  0.00510455,  0.14749964,  0.04004103,  -0.03064015,
  -0.09420763,  -0.00907657,  0.06964657,  0.09177145,  -0.16704527,  -0.05150516,  0.14563271,  -0.08488268,
  -0.08822031,  0.00155017,  0.00636722,  0.03601947,  -0.15202276,  0.08724596,  -0.02988805,  0.06381103,
  -0.07379489,  -0.05689888,  -0.02657320,  -0.03008313,  -0.02263010,  0.13573453,  0.11060965,  0.05881975,
  -0.05347422,  0.12598407,  0.05775788,  0.12967481,  -0.10452151,  -0.00798169,  0.00011088,  0.06096379,
  0.04778925,  0.00458446,  0.04687641,  0.03659281,  -0.15103200,  0.01453511,  -0.08422375,  0.00566555,
  0.03634301,  -0.07513558,  0.00336955,  -0.06910462,  0.00085595,  0.09509905,  0.03722922,  0.03718738,
  0.00152991,  0.06451355,  0.08982971,  0.11918649,  0.09549450,  -0.00257420,  0.05947311,  -0.00327898,
  0.02706261,  -0.01213050,  0.08871533,  -0.03588370,  -0.05615443,  0.04597140,  -0.00788702,  0.07674235,
  0.13382412,  0.03499451,  0.03076543,  -0.15876921,  0.08559097,  0.04965148,  0.05094853,  0.08653349,
  -0.13969690,  -0.04580913,  0.04012297,  0.02739331,  0.17343058,  -0.10504469,  0.02116843,  -0.16448559,
  0.14826488,  0.10214239,  -0.01236203,  0.10253243,  -0.11721007,  -0.11379813,  0.13077913,  0.04705414,
  0.13324590,  -0.06215589,  -0.01546499,  -0.03522523,  0.02478586,  0.10906461,  0.16184336,  0.09557457,
  -0.10999581,  -0.05577271,  0.09762658,  0.07157806,  0.16870449,  0.08614539,  -0.03704010,  -0.04603980,
  0.11534389,  0.12305042,  0.07688030,  0.01397372,  -0.04128622,  -0.07178233,  0.11116979,  -0.02238188,
  0.13914219,  0.14617255,  0.02796922,  0.00981766,  0.05071366,  0.01991920,  0.02700673,  -0.06151421,
  0.01817357,  -0.08565594,  0.01704573,  0.11082408,  0.05093558,  0.18653709,  -0.05153459,  -0.11064579,
  0.15084943,  0.14489602,  0.04634571,  -0.00934023,  -0.09797742,  0.03436167,  -0.06943260,  0.08473774,
  -0.09124316,  0.05530217,  -0.10173655,  -0.01017067,  0.13815930,  0.02772623,  0.04052075,  0.09516168,
  0.04616231,  0.11593905,  -0.01241546,  0.08165490,  -0.00313410,  0.06771099,  0.03487872,  -0.04204043,
  0.04609578,  0.13276246,  -0.07657880,  0.04324625,  -0.00325298,  0.11238536,  -0.09347061,  0.13707732,
  -0.08885527,  -0.01203488,  -0.06339952,  0.00408896,  0.07206871,  0.07443625,  0.09695932,  0.06393322,
  -0.05039803,  0.00235161,  -0.19411044,  0.16753453,  -0.12402303,  0.03360784,  0.07816961,  -0.00313977,
  0.01267838,  0.06834434,  -0.05466743,  0.05263405,  0.02018508,  0.08502930,  -0.12205612,  0.04021652,
  0.00360218,  0.08950973,  0.05904453,  -0.06111732,  0.09801736,  -0.00047677,  0.05330671,  0.10155723,
  0.00494500,  0.03633624,  -0.00495608,  0.00238322,  -0.10419677,  0.12599270,  -0.06547823,  -0.05110801,
  -0.09509824,  0.07849378,  0.01806508,  0.02511424,  -0.06502115,  0.01205751,  -0.03005862,  0.09969330,
  -0.04461194,  0.20628221,  -0.06736311,  0.05275749,  0.06607736,  0.08016071,  0.04589658,  -0.05487015,
  -0.04366378,  0.01258582,  0.09535825,  -0.05092613,  0.09054860,  0.03524902,  -0.12536906,  0.14134961,
  0.01215376,  -0.07924305,  0.01619237,  -0.02151848,  -0.00617286,  0.02734232,  0.12023272,  -0.11112491,
  -0.03745901,  0.03569988,  -0.11281469,  0.14638019,  -0.04287045,  -0.06378280,  0.10011064,  -0.10085684,
  -0.05543256,  0.08621351,  0.09793226,  -0.04579849,  0.12120064,  0.14865708,  -0.09603597,  0.00692727,
  -0.07654447,  0.00471644,  0.12771480,  0.03712291,  0.04634324,  0.02104708,  0.01766319,  -0.09760357,
  0.05976203,  0.09531946,  -0.10023540,  0.11275485,  -0.08579492,  0.01084975,  0.05388829,  -0.00249578,
  -0.07937171,  -0.10639150,  0.06533538,  -0.09392387,  0.01296569,  0.13335502,  0.06306285,  0.06701117,
  -0.08791163,  -0.00425899,  0.11414087,  0.07685900,  -0.06179319,  -0.09749722,  -0.04797095,  -0.03806650,
  -0.10415857,  0.09663256,  -0.06470066,  -0.01893117,  -0.02554687,  -0.07627433,  0.08081514,  -0.00711820,
  -0.04289052,  -0.06166711,  -0.17531583,  -0.06813909,  -0.06388844,  0.02830697,  0.08008610,  0.06132336,
  -0.13984002,  0.00636136,  -0.02813815,  0.07080258,  0.01165040,  0.02294849,  -0.23395304,  0.03406106,
  -0.15007970,  -0.06221284,  -0.03624429,  -0.05085113,  -0.07915822,  -0.02338460,  0.05355015,  0.01223198,
  0.00385422,  0.02897807,  -0.18326120,  0.08311049,  0.00883230,  0.04944718,  -0.00542750,  -0.03517634,
  -0.10979649,  0.01077962,  -0.00524285,  0.04990214,  -0.05260574,  0.00048689,  -0.19840713,  0.01967064,
  -0.00384930,  0.02023393,  -0.04923224,  0.00975522,  -0.08825333,  0.05262687,  -0.01906063,  -0.01892582,
  0.01636936,  0.01275743,  -0.08873045,  0.11350457,  -0.03462430,  -0.05589250,  0.05492296,  -0.06613585,
  -0.06518607,  0.08189037,  -0.00098251,  -0.10483519,  0.06953211,  0.05713147,  -0.01294978,  -0.00536074,
  -0.00353202,  0.08929071,  -0.00362698,  -0.02433295,  0.05565852,  -0.02393510,  -0.07473858,  -0.04718217,
  0.09394687,  0.06983470,  0.00471771,  -0.04241138,  0.16388330,  -0.00100348,  0.03083704,  0.00334591,
  0.09934846,  -0.05919167,  -0.05030062,  -0.01371734,  0.03702143,  -0.00769267,  0.10362924,  0.08625696,
  0.12315627,  -0.05633520,  -0.09962487,  -0.07587949,  -0.01532196,  -0.04958911,  0.04903562,  -0.05881295,
  0.06784388,  0.05593462,  0.21603470,  -0.01991853,  0.18097517,  0.03751027,  0.06829685,  -0.12952593,
  0.00781779,  0.09205895,  -0.02392142,  -0.20380072,  0.09440558,  0.04813370,  0.08214968,  -0.01752893,
  0.14633285,  0.05913020,  0.09402200,  -0.03114549,  0.11726477,  -0.00493232,  -0.01735116,  -0.09827658,
  0.16792107,  0.02545587,  0.15998036,  0.02417096,  0.10887530,  -0.00819252,  0.00327372,  -0.07039820,
  -0.01656902,  0.02467700,  -0.07717151,  0.01442776,  0.03294526,  0.07673071,  0.01920235,  -0.00174825,
  -0.06461371,  -0.03966412,  -0.03513197,  -0.09520585,  -0.02301240,  0.07263047,  -0.12815163,  -0.07479157,
  0.02701572,  0.00584926,  -0.12225825,  -0.02094146,  -0.03561555,  0.01830826,  -0.11733855,  -0.13734674,
  -0.04439128,  -0.06543306,  -0.00410077,  0.07565124,  0.09494571,  0.06820937,  -0.19716711,  0.02511824,
  -0.14338326,  -0.00664519,  0.01996516,  -0.00806059,  0.00149917,  -0.05485934,  -0.09217224,  0.10086577,
  0.10348588,  0.11542188,  -0.18608360,  -0.08480898,  -0.10596009,  -0.00102291,  -0.08516788,  -0.09532402,
  -0.08864024,  -0.03934520,  -0.07055310,  0.08317167,  0.13427301,  0.08826961,  -0.10952465,  -0.06844117,
  0.00187426,  0.08506984,  0.02879482,  -0.07203253,  0.02786509,  0.02567557,  -0.06689773,  0.12027665,
  0.06415699,  -0.04821238,  -0.01964373,  -0.02844477,  -0.03082300,  0.11006834,  0.10090228,  -0.04960059,
  -0.14375380,  0.05849107,  -0.05176958,  0.07876035,  -0.01007727,  -0.06960396,  0.02152310,  -0.04626428,
  0.05636302,  0.13134411,  0.05757951,  0.05066304,  -0.13063093,  -0.07837615,  0.05907375,  0.08103365,
  0.14965296,  -0.03772381,  0.05269890,  -0.01412079,  -0.01968314,  -0.05825483,  0.09218688,  0.06354070,
  -0.02202000,  -0.05652924,  0.02660114,  -0.00745563,  0.14347288,  -0.03846728,  0.17303112,  0.00573489,
  0.01167209,  0.08724131,  0.09175839,  0.06935109,  0.02960371,  -0.04770415,  0.16695143,  -0.05121310,
  0.03354529,  -0.01269885,  0.14497745,  0.01503346,  0.17939535,  0.04188513,  0.13790593,  -0.01463684,
  -0.02841410,  -0.02420874,  -0.00412917,  -0.09100060,  0.01911094,  0.09127589,  0.02182933,  -0.02922409,
  -0.00552035,  0.15375799,  0.09191647,  0.11566918,  -0.06529014,  -0.04413094,  -0.05528682,  -0.01051956,
  0.03895433,  0.01527321,  0.05172863,  0.01421452,  0.04565904,  0.04332245,  0.08261519,  0.16156289,
  0.05556393,  0.05510596,  -0.03400249,  -0.07805382,  0.07675567,  -0.06153461,  0.07666036,  0.01105722,
  -0.16290639,  0.00415735,  0.08355953,  0.03622913,  -0.02906054,  0.00107315,  -0.00615813,  0.07205945,
  0.08520418,  0.03095145,  -0.07308187,  0.02375221,  -0.14786610,  0.04353058,  0.06504624,  0.11100354,
  0.03661725,  0.06251720,  -0.12923200,  -0.07749502,  0.12817416,  0.02597551,  -0.15019327,  -0.08249281,
  -0.07266778,  -0.03819550,  0.14754683,  -0.00671234,  0.02309179,  0.08621259,  -0.16619538,  -0.04470852,
  0.02092457,  -0.08260065,  -0.10165208,  0.04358175,  -0.15819342,  0.02833753,  0.16831420,  -0.04506987,
  -0.03691781,  0.06162090,  -0.17111775,  -0.07672015,  0.01900371,  0.02437469,  -0.06995221,  -0.03859190,
  -0.10316470,  0.14197148,  0.06756061,  -0.05669210,  0.09172595,  0.13976158,  -0.23055336,  0.02327754,
  -0.00592286,  -0.05804470,  -0.04299864,  -0.08281026,  0.01785815,  -0.00292615,  0.03791066,  0.03018974,
  0.12270372,  0.00475837,  -0.16112338,  0.08357278,  -0.00139205,  -0.02561271,  -0.01762178,  -0.02354849,
  -0.02037878,  0.06704921,  0.01407961,  0.08289098,  0.10649148,  0.15997176,  -0.16076340,  -0.02761680,
  0.07791254,  -0.05238836,  -0.05144075,  -0.07124668,  0.05703357,  0.07593290,  0.05517070,  0.01210597,
  0.10452260,  0.12121540,  -0.03385171,  0.06320354,  -0.05554609,  -0.11786048,  0.03240677,  -0.14942124,
  -0.04231800,  0.03795682,  0.03629676,  0.10345794,  0.07068300,  0.13349228,  -0.04501785,  -0.07763554,
  -0.00739379,  0.00613555,  0.04385866,  -0.10202847,  0.01473789,  0.01193131,  0.04670348,  0.09908431,
  0.03297681,  0.09921898,  -0.03865419,  0.04145640,  -0.05266576,  0.08192513,  0.07934638,  -0.14746512,
  0.04166060,  0.03320477,  0.00118671,  -0.06004183,  0.11977549,  0.05521973,  0.07790107,  -0.01475008,
  -0.07533144,  -0.03907508,  0.07953735,  -0.06246589,  -0.06491904,  -0.01992998,  0.14250158,  -0.06266013,
  0.04586665,  0.10545172,  -0.00078933,  0.09832326,  -0.07079536,  0.08460204,  -0.00262593,  -0.01452392,
  -0.11620162,  -0.06358834,  0.04225324,  -0.03694879,  0.07520723,  -0.02960980,  0.09068988,  -0.01385038,
  -0.03890057,  0.03774960,  0.12723891,  -0.13459596,  -0.05252895,  -0.07016930,  0.00191381,  0.05634612,
  0.08361837,  0.04036245,  -0.03269583,  -0.03572276,  -0.07532340,  -0.03205828,  0.00220389,  -0.01075888,
  -0.00909760,  0.01928759,  0.07975528,  0.04233876,  0.03992760,  -0.04090326,  -0.00171394,  0.06064506,
  -0.00738219,  0.06586239,  0.11200189,  -0.03639228,  0.04012696,  0.08021683,  0.06484833,  -0.11399534,
  0.10680065,  0.05023027,  -0.03568202,  0.03126821,  0.01683979,  0.05954272,  0.06359338,  -0.05743828,
  -0.00504721,  0.06109498,  0.08902344,  -0.04106989,  0.01711191,  -0.08155052,  -0.05336397,  -0.09710608,
  -0.06391866,  0.00369905,  -0.00057931,  0.09229441,  -0.03528917,  -0.10554148,  0.12426142,  0.01115912,
  0.07268463,  -0.06216955,  -0.14613712,  -0.11623949,  -0.14388141,  0.00852318,  -0.00952571,  -0.03814359,
  -0.02886583,  -0.11161499,  0.10568033,  -0.02530931,  0.00344827,  0.01656366,  -0.12663695,  0.05367828,
  -0.06241724,  0.05674275,  0.00019026,  0.04467439,  0.08970862,  -0.03620941,  -0.02842553,  0.04132827,
  0.03094124,  0.01369492,  -0.15909487,  0.04199460,  -0.02522864,  0.04961272,  0.04839609,  -0.10451565,
  0.05745096,  0.05207330,  0.03683135,  -0.08247513,  0.06375752,  0.03524952,  -0.17355365,  -0.08839598,
  -0.17373066,  0.00724688,  0.04343392,  -0.08035391,  0.06260397,  0.11995393,  -0.08563015,  -0.06943040,
  -0.04734110,  -0.10798933,  -0.07611890,  0.01822115,  -0.07788315,  0.11718431,  0.00422387,  -0.02361004,
  0.02046393,  -0.02502682,  -0.10077456,  -0.08696461,  0.02582204,  0.00756100,  -0.11552252,  -0.01786985,
  -0.08894042,  0.04751870,  0.01634420,  0.12714277,  -0.15762120,  -0.09095089,  -0.08139102,  0.00454454,
  0.03905953,  -0.04552124,  0.12098742,  0.00086568,  -0.02210151,  0.12829056,  -0.03634043,  0.04392954,
  -0.07772836,  0.01176437,  -0.10344627,  -0.00779005,  0.02819077,  0.04661427,  -0.03989555,  -0.03921368,
  -0.00270029,  -0.03828025,  -0.01784248,  0.10126745,  -0.18029931,  0.13260269,  -0.02698035,  -0.02405448,
  0.06751446,  -0.01827797,  0.10873307,  -0.03245819,  -0.01061076,  0.09869866,  0.05999279,  0.01949440,
  -0.01676821,  0.02620599,  -0.14825353,  0.09554894,  0.00192048,  -0.03469949,  0.04623542,  -0.12371992,
  -0.15539227,  -0.04995357,  0.11385253,  -0.01182753,  -0.15423086,  -0.08170930,  -0.15220638,  0.01648944,
  0.03760732,  0.07589880,  0.12821896,  -0.03735409,  -0.15416551,  -0.06983008,  0.09303197,  -0.01870888,
  -0.02333395,  0.03064494,  -0.13868481,  -0.00357452,  0.06595016,  -0.01298568,  0.11893000,  -0.02327595,
  -0.18560132,  -0.04704526,  0.10650658,  0.01161426,  -0.08488748,  -0.04152035,  -0.15724359,  -0.01481277,
  -0.04800565,  0.10163336,  0.12066713,  -0.02027314,  -0.04982218,  0.07017568,  0.11722662,  0.09294695,
  -0.01158922,  -0.00326733,  -0.04272977,  -0.06472824,  0.08012635,  0.07905794,  0.07600149,  -0.08390085,
  -0.14511605,  -0.04132060,  0.14963657,  0.05825766,  -0.01349790,  -0.06663714,  -0.03266880,  0.01325605,
  0.03635821,  -0.04078074,  0.05016568,  -0.19891800,  -0.06673863,  -0.07155615,  0.05107446,  0.09985572,
  -0.09341314,  -0.04246150,  -0.09547497,  -0.04898873,  0.01641076,  0.03055151,  0.09410634,  -0.03951718,
  -0.16365272,  0.01657839,  -0.11210537,  0.04302745,  -0.08604878,  -0.03834253,  0.03512989,  0.06535179,
  -0.02037745,  0.01672727,  0.00669806,  -0.09799502,  -0.00797767,  0.04890878,  -0.18695609,  0.05588627,
